<?xml version="1.0"?>
<opencv_storage>
<my_nn type_id="opencv-ml-ann-mlp">
  <layer_sizes type_id="opencv-matrix">
    <rows>1</rows>
    <cols>3</cols>
    <dt>i</dt>
    <data>
      258 60 7</data></layer_sizes>
  <activation_function>SIGMOID_SYM</activation_function>
  <f_param1>6.6666666666666663e-001</f_param1>
  <f_param2>1.7159000000000000e+000</f_param2>
  <min_val>-9.4999999999999996e-001</min_val>
  <max_val>9.4999999999999996e-001</max_val>
  <min_val1>-9.7999999999999998e-001</min_val1>
  <max_val1>9.7999999999999998e-001</max_val1>
  <training_params>
    <train_method>BACKPROP</train_method>
    <dw_scale>1.0000000000000000e-002</dw_scale>
    <moment_scale>2.9999999999999999e-002</moment_scale>
    <term_criteria><epsilon>2.0000000949949026e-003</epsilon>
      <iterations>50000</iterations></term_criteria></training_params>
  <input_scale>
    1.0260451849599712e-001 -3.9458766255889177e-001 1. 0.
    1.2824311894548513e-002 -1.1182799972046305e-001
    1.6840241725593941e-002 -1.8562757879240407e-001
    1.2229688129699823e-001 -1.8728893821483156e-001
    1.5316412951576383e-002 -1.9075498301691843e-001
    8.2597452583022275e-003 -1.6743683602186946e-001
    3.6301170541189191e-002 -2.9300230508245562e-001
    9.5801033415659417e-003 -2.0901048318913582e-001
    1.0315007411674569e-002 -1.5846798529306902e-001
    2.0783383927400225e-002 -3.4108502079710545e-001
    1.0502516565840059e-002 -2.4149786663394510e-001
    1.1939020551096427e-002 -1.7297935204174281e-001
    1.4563585693290996e-002 -2.8482212591593392e-001
    1.1808275532265732e-002 -2.3019389701899737e-001
    1.2901308451033674e-002 -2.4298692945489705e-001
    1.1871663439886750e-002 -2.5401967857517677e-001
    1.2851481866189462e-002 -2.4186488872168568e-001
    1.2442256423767728e-002 -2.3682946370040175e-001
    1.0914573794104101e-002 -2.2480903566198987e-001
    1.3479027320300280e-002 -2.9299554243669867e-001
    1.2437769290277059e-002 -2.3148465473389931e-001
    1.3010749042820402e-002 -2.2456552847908015e-001
    1.2930823415084279e-002 -3.0173152808855230e-001
    8.9043751102561575e-003 -2.1780101519686562e-001
    1.3066347729210939e-002 -2.4348205682832497e-001
    8.9920040555770426e-003 -2.8702476945401922e-001
    9.6628270111862018e-003 -2.2323891203557608e-001
    1.2784794240093255e-002 -2.5573241278540820e-001
    6.6985372894682671e-003 -2.7919503422503739e-001
    1.2013700302900292e-002 -2.5963322597467947e-001
    9.9134479172787726e-003 -3.2380153311523119e-001
    1.0851666205059887e-002 -3.1956606735872073e-001
    1.2905202029793443e-002 -2.6942374637628769e-001
    9.2458039662332899e-003 -3.5554078737581102e-001
    1.2100485066821114e-002 -2.3039323567227399e-001
    7.9191241629583669e-003 -3.2187845812070209e-001
    9.4689874503710841e-003 -3.1450565460161101e-001
    7.1755640688867051e-003 -2.5930438383794013e-001
    5.0037764599044892e-003 -2.5058912511201681e-001
    1.0820098005445054e-002 -3.1532857044439871e-001
    7.5574826208259878e-003 -3.1672330023507311e-001
    7.6780077042016993e-003 -3.0777842311414244e-001
    9.5541286300972559e-003 -2.6060933151868143e-001
    8.6740773674377075e-003 -3.0837584195150686e-001
    5.5162274692318689e-003 -2.4392757868943324e-001
    6.6820503100505106e-003 -3.1531640834512636e-001
    5.6039155449493366e-003 -2.4767705589948941e-001
    9.5955747898450183e-003 -3.0988223385605213e-001
    4.4782199088020747e-003 -2.3751198904883689e-001
    9.0422720094460503e-003 -3.2516010145968000e-001
    1.0250824124378879e-002 -3.0330724180590762e-001
    3.6511627352864996e-003 -2.0590471448309980e-001
    8.8798016069716636e-003 -2.6926095558511504e-001
    9.2020126571535320e-003 -3.4047446831468070e-001
    8.5040312103751587e-003 -2.9307321274155762e-001
    9.7020975382910626e-003 -3.3355811336644675e-001
    5.0473234929173235e-003 -2.4723232560735597e-001
    6.0238715391739929e-003 -2.3493099002778572e-001
    3.4341573913288107e-003 -1.9942642565359450e-001
    2.8401564124283956e-003 -1.5670360137258499e-001
    6.8750969252888705e-003 -2.7958072725039002e-001
    7.2794076801765556e-003 -2.7495362723409733e-001
    9.3686309130055628e-003 -2.4039906922772275e-001
    5.7977811346299861e-003 -3.1766871091085497e-001
    6.2589548552880033e-003 -2.5268294887205567e-001
    3.9401329190373461e-003 -1.8572660828079465e-001
    6.5028815857666681e-003 -2.9285262729958350e-001
    2.5721958825199401e-003 -1.6819221419243241e-001
    3.2661057451717416e-003 -1.9054460917331942e-001
    3.9579508466178089e-003 -2.2891656853738374e-001
    6.9934757791177745e-003 -2.7748113755602438e-001
    5.6966630249055874e-003 -2.7843661247731394e-001
    5.5292146419724649e-003 -2.4661877078809183e-001
    4.0691604623061825e-003 -2.8536441013515790e-001
    1.8702237976159406e-003 -1.3748282311103011e-001
    3.6161666910943290e-003 -2.0744398521083410e-001
    4.4353624944318756e-003 -2.2081768990135839e-001
    3.4608634242844034e-003 -2.2718096335124047e-001
    4.0233635895940631e-003 -1.9385715307118367e-001
    6.4057259026410540e-003 -2.6442836526102270e-001
    3.1094538077143770e-003 -2.5283413118212417e-001
    1.3527852941962971e-003 -1.4753089908420761e-001
    8.3543959096900825e-003 -2.8531455516721588e-001
    8.8149883629766168e-003 -2.3367274866199159e-001
    2.3576982230525982e-003 -2.9477290440731041e-001
    1.4140840716772752e-002 -2.8738228576687025e-001
    3.8075506761858302e-003 -2.6912856050903217e-001
    3.0143905345273963e-003 -2.3766316228652429e-001
    3.9408261092221180e-003 -2.2759959706233113e-001
    1.3508476527586790e-003 -1.2358712196853046e-001
    3.4368785251750588e-003 -2.5216868721855856e-001
    5.0233330330531649e-003 -2.6523198414520710e-001
    2.6661022968789789e-003 -2.2555987175109557e-001
    3.2196629848818652e-003 -2.5237558282923994e-001
    9.2452087217860107e-003 -2.2928117630029307e-001
    2.9131852853312682e-003 -2.8624126275012085e-001
    3.2715842002489829e-003 -2.1945786815270177e-001
    1.2337235002320014e-003 -1.5487459837055270e-001
    3.6290594472863473e-003 -2.5319429326652948e-001
    3.6210695940883837e-003 -2.6883855257824757e-001
    2.9043940677735232e-003 -2.3545507794001699e-001
    3.3297034632734997e-003 -2.4298273187276700e-001
    4.8131823029449860e-003 -2.8033348927295293e-001
    2.4177223886275179e-003 -2.3987259984311587e-001
    1.1530073102188907e-003 -1.3505998201244024e-001
    3.6659318681444676e-003 -2.8424588296487019e-001
    2.7529711157254924e-003 -2.5627801397876571e-001
    2.8745357004177890e-003 -2.6306108138394796e-001
    3.0788808019184665e-003 -2.5634761556773156e-001
    3.4951563814699005e-003 -2.3180875738017373e-001
    4.9107229034550809e-003 -2.3534990280730150e-001
    1.0703010273704011e-003 -1.7307990813753524e-001
    2.4055070933317146e-003 -2.5969854579609192e-001
    4.7834189353912300e-003 -2.5163516982406664e-001
    3.2606929458203330e-003 -2.7177409890134502e-001
    2.6381764034984043e-003 -2.3738311278678642e-001
    2.7455025463719728e-003 -2.2672360027939750e-001
    3.2407629375700749e-003 -3.2617816000508865e-001
    4.8889352312381298e-003 -2.5967230271061953e-001
    1.0016752231924919e-003 -1.4390638642225162e-001
    2.9191076638466710e-003 -2.8459631660982843e-001
    3.2635449679668995e-003 -2.5864992533266806e-001
    2.8838294666536858e-003 -2.4487831928270726e-001
    3.1684388408694144e-003 -2.7502049138746515e-001
    3.4034116446588943e-003 -2.7010447215340028e-001
    4.8129836572048234e-003 -1.7640272672749566e-001
    5.3554560414983653e-003 -1.7954548911697663e-001
    1.0812180055967942e-003 -3.0085045465445881e-001
    5.0691299497055723e-003 -1.8306800732650982e-001
    3.6166590890623356e-003 -2.9229838757801796e-001
    3.0236229741586545e-003 -2.7382793546259104e-001
    2.8230760756009299e-003 -2.5148768274617539e-001
    3.5480720172232139e-003 -2.7353607783066852e-001
    2.9843653299273664e-003 -3.0688655025547384e-001
    1.5368103568618098e-003 -1.9587306631213849e-001
    4.5890398321793546e-003 -2.7656176337188321e-001
    2.7831578751873866e-003 -3.1988026241475143e-001
    3.0951478118881244e-003 -2.6842890480586323e-001
    3.4216407937805388e-003 -2.6618410152301863e-001
    3.4394005247661763e-003 -2.8232564879009214e-001
    3.7832905336603702e-003 -2.6876495951123269e-001
    1.6738132957012947e-003 -2.6654281153117615e-001
    3.3297174440436728e-003 -3.1390673366761435e-001
    3.9474754353453880e-003 -2.7694359804258856e-001
    4.9212605722361745e-003 -2.4690667328133492e-001
    2.6365792854101309e-003 -2.9046817333179781e-001
    3.0793571934686842e-003 -2.9516078607567836e-001
    3.0434132941818330e-003 -3.0647171872411061e-001
    2.9264109945152045e-003 -2.9632837730460965e-001
    1.9262672446472989e-003 -2.0448702707105826e-001
    3.1923045541794883e-003 -2.8834718907380097e-001
    3.8607309309612557e-003 -2.9668062605466838e-001
    2.4756971329689226e-003 -2.7171837047390912e-001
    3.8193612686528620e-003 -2.8913656049778924e-001
    3.1329875737762555e-003 -3.0044455693207495e-001
    3.0687305049369295e-003 -2.9582562067592000e-001
    3.3613953893853843e-003 -3.0222786145305330e-001
    2.0875341163846600e-003 -2.4305457936226080e-001
    2.8610712508952614e-003 -3.5018694662029171e-001
    3.9048169484059933e-003 -1.8189753007660375e-001
    3.1482791593000574e-003 -3.0728104103099790e-001
    2.9275282427253216e-003 -3.1189885897995578e-001
    3.1453905171047432e-003 -3.0834712580680246e-001
    3.2654721629497034e-003 -3.1469821730369568e-001
    2.3888711280471678e-003 -2.9656128718185554e-001
    4.2941785529678339e-003 -2.8474084530650712e-001
    3.5472742276199606e-003 -3.2947083026134194e-001
    2.5751458405719207e-003 -3.1704459833167037e-001
    6.8770378019968820e-003 -2.4580497972280282e-001
    2.0484587575914184e-003 -4.1053454597854983e-001
    7.3168259436689640e-003 -2.5023544727347857e-001
    2.8449974014330723e-003 -3.1732288159184080e-001
    2.6464723615955061e-003 -3.2285450541544264e-001
    3.1752557123345166e-003 -3.4765421186391721e-001
    3.1474691703211521e-003 -2.7268773614756658e-001
    3.7123186333962747e-003 -2.8133011266343655e-001
    2.9278009298620298e-003 -3.8905455270558043e-001
    2.3835152199724891e-003 -3.1824695217072679e-001
    3.5016046998485721e-003 -2.5392636824816173e-001
    3.1997685225425712e-003 -3.0137248384461673e-001
    2.6058233955827091e-003 -3.8217750440586179e-001
    3.2237431462468500e-003 -3.0704771863795710e-001
    3.1149252286950075e-003 -3.1371746946142576e-001
    2.5384582374918916e-003 -3.3303846802111481e-001
    3.5637582885258020e-003 -3.3896432407149701e-001
    2.9638811059661233e-003 -3.2153875883866773e-001
    2.9873961823817332e-003 -2.8306005598950124e-001
    2.4440100256454952e-003 -3.5551268121618129e-001
    2.7420104711406916e-003 -2.9142870718846453e-001
    2.7229831825801563e-003 -3.1747649923299553e-001
    2.4670447418431471e-003 -4.2376075095676613e-001
    3.1246973663925487e-003 -2.2304982571986126e-001
    3.4373004522225150e-003 -3.3112988385024722e-001
    2.4024167112878850e-003 -3.2552746437950841e-001
    2.0134992728024570e-003 -2.8923629411054036e-001
    2.0428015846425604e-003 -3.2894942088701346e-001
    3.3379292633752538e-003 -2.8853060552615695e-001
    2.3256919978390141e-003 -3.6337940741092661e-001
    2.0339839135343207e-003 -2.8641399193868283e-001
    3.2760165115813910e-003 -3.6206534485997532e-001
    1.8493251390439120e-003 -3.0397093121159208e-001
    2.1233027823915232e-003 -2.6093571221778344e-001
    1.9281782564715456e-003 -2.4518714709292175e-001
    1.5929233570871068e-003 -2.5821742739341169e-001
    2.5618491616418216e-003 -3.4811138365292399e-001
    2.3951450045413053e-003 -3.5992186146814270e-001
    1.1591651029836502e-003 -2.0853049012646444e-001
    2.1726370793255976e-003 -3.2087987401285367e-001
    2.6906920343829840e-003 -3.6697964272373179e-001
    1.0170945934925269e-003 -1.9439002469284458e-001
    1.4089833455510764e-003 -2.6040025059134680e-001
    2.2032405662496691e-003 -3.5435662272950397e-001
    8.8521747659430926e-004 -1.4943988520586102e-001
    1.9857187529905727e-003 -2.7790417622210639e-001
    1.6332020490191414e-003 -2.7571250362384286e-001
    7.5451744446740419e-004 -1.7706584233935629e-001
    1.6840819153026727e-003 -2.6211050929770796e-001
    1.8397428672769344e-003 -2.7834258300261572e-001
    7.2381898954228447e-004 -1.7748248429002397e-001
    1.6082520620253342e-003 -2.4251522094163738e-001
    2.2864741993867286e-003 -3.8385328859304402e-001
    8.3163758308105987e-004 -1.4916964522355960e-001
    2.0784405454753753e-003 -3.6170210052674184e-001
    1.5502163137224299e-003 -2.8902675871987760e-001
    8.9204760478951207e-004 -1.6291083100154521e-001
    2.0809036798545453e-003 -3.3996020689737971e-001
    1.5846833901125498e-003 -2.8682316594354262e-001
    1.0707685050402177e-003 -1.6289448300247542e-001
    1.9036723300692008e-003 -2.5472767495465970e-001
    1.7509960632781799e-003 -3.1260282575410592e-001
    1.3349173162816854e-003 -1.6591878026538823e-001
    1.6374226913706555e-003 -2.3344969228398776e-001
    2.1969597240304888e-003 -2.5779125401773756e-001
    1.7985722533045466e-003 -1.7165573585538593e-001
    3.5912155567159134e-003 -3.1101978844335076e-001
    1.8911586341339535e-003 -2.4140369799200753e-001
    3.1350247890852998e-003 -1.8618464361693440e-001
    4.9813358017336776e-003 -2.4331690533268274e-001
    3.3089162121639408e-003 -2.9006904920461152e-001
    4.5126295649476197e-003 -2.3603631270141737e-001
    7.1573191706884023e-003 -2.4801133400602557e-001
    7.3906793063722876e-003 -3.0563626365837854e-001
    8.0662382917608671e-003 -2.7660283422203974e-001
    1.1883337283955816e-002 -2.7151728074227044e-001
    1.3259740335351109e-002 -3.2615172727725056e-001
    1.4761128562058754e-002 -3.0175964246151538e-001
    2.5672591100974952e-002 -2.5232489539243952e-001
    2.2077685764561525e-002 -2.9167776850095001e-001
    2.6671615752018651e-002 -2.9285434095716478e-001
    3.3561658191746335e-002 -2.7530148762429635e-001
    5.5670533160214031e-002 -2.2681765796132913e-001
    6.4765211575742179e-002 -3.3233805711437986e-001
    1.3107583706900874e-001 -1.3968939207640074e-001 1. 0. 1. 0.
    3.0552610645924235e-002 -4.8293800839213432e+000
    3.0552610645924235e-002 -4.8293800839213432e+000</input_scale>
  <output_scale>
    5.2631578947368418e-001 4.9999999999999994e-001
    5.2631578947368418e-001 4.9999999999999994e-001
    5.2631578947368418e-001 4.9999999999999994e-001
    5.2631578947368418e-001 4.9999999999999994e-001
    5.2631578947368418e-001 4.9999999999999994e-001
    5.2631578947368418e-001 4.9999999999999994e-001
    5.2631578947368418e-001 4.9999999999999994e-001</output_scale>
  <inv_output_scale>
    1.8999999999999999e+000 -9.4999999999999996e-001
    1.8999999999999999e+000 -9.4999999999999996e-001
    1.8999999999999999e+000 -9.4999999999999996e-001
    1.8999999999999999e+000 -9.4999999999999996e-001
    1.8999999999999999e+000 -9.4999999999999996e-001
    1.8999999999999999e+000 -9.4999999999999996e-001
    1.8999999999999999e+000 -9.4999999999999996e-001</inv_output_scale>
  <weights>
    <_>
      2.0381187904046527e-001 2.6219211060098963e-002
      2.8625792856710096e-002 1.0989661755115188e-001
      6.6748052263555541e-002 6.3924741990532621e-002
      -1.0308004270693891e-001 1.1975985604003668e-001
      -7.6311988911346995e-002 5.2649015713502563e-002
      1.5643989924283036e-002 -3.9745870491265248e-003
      3.9353197242012895e-002 4.0480487229759061e-002
      -8.2845935710714275e-002 -5.2462693869470237e-002
      -4.4769839807959594e-002 7.4943539709263235e-002
      -7.7082996422859817e-002 -2.4165674869392268e-002
      -6.2111867430150923e-002 -5.1903759156843893e-002
      -8.1316074207402458e-002 -3.9562908099661891e-002
      8.5573610846609652e-002 1.2909372624555923e-002
      3.0399707376556444e-002 -2.2676334214167572e-002
      2.3542542782480670e-002 -4.3349853011456677e-002
      -4.9577181744088095e-002 -2.0494863093030408e-002
      1.3577862954776292e-002 1.5290165147019114e-002
      -1.4384362774212829e-002 -5.7109034825296827e-002
      -1.6676808150479238e-002 5.3770796684892992e-002
      3.2900583123687947e-003 5.5921501631232724e-002
      -1.3432090744474384e-002 7.0610509192333137e-002
      -1.1715337334065067e-002 -8.2060654544292705e-002
      -2.4495606390212518e-002 -7.0247472239911748e-002
      2.9946045169057901e-002 7.9441715151919393e-003
      4.6986746445055301e-002 -6.0518218400815255e-002
      -6.6784871657121520e-002 -4.0785201616163856e-003
      9.5130371943132411e-002 -7.9366786372940257e-002
      8.0726633038327791e-002 3.3304717012418210e-002
      5.1104909568229400e-003 5.4381431740141491e-002
      -4.2673778528875043e-002 -1.2892454905816081e-001
      6.0153011750657299e-003 -3.5917166962283679e-003
      5.4037015598480094e-003 -6.2836899065512389e-003
      -6.8669918742221177e-003 -4.1476905488333085e-003
      4.8772110850708057e-003 4.9968121080057040e-003
      -4.2022088887154127e-003 -5.0273543156407639e-003
      3.5925409788917376e-003 -1.9116776338413603e-003
      -7.5399229826687147e-003 7.8171095792077313e-003
      4.9989065129317388e-003 -1.5351028622662562e-003
      5.9308850469278586e-003 3.0160425617998237e-003
      3.9713779159265064e-003 -1.0316150359867414e-003
      -4.9897967206851933e-003 2.0748942638136986e-003
      1.5825911879268225e-003 -7.3362172256080452e-003
      -4.4594590370500313e-003 5.8838933718023496e-003
      -1.2382932404183769e-003 -5.2702946059278943e-004
      5.0501131687017376e-003 -3.1773440533067934e-003
      -2.3079242582784085e-003 2.4319323748570524e-003
      -6.5033090554218248e-003 1.6136739321175051e-003
      -3.4706497450036522e-003 -8.5831868906181082e-004
      2.0978197133086234e-004 6.8070049658828808e-003
      -5.5876631180135838e-003 -1.5298819512964628e-004
      -7.6015204668855498e-003 -5.8280472433311923e-003
      2.2289942648337328e-003 5.3079693644941901e-003
      6.1516945421636526e-003 -6.5957970025359528e-003
      -5.6586694975303501e-003 3.7947926199319330e-003
      -4.7598096971476784e-003 6.2853145368907733e-003
      1.1068824236617084e-003 -3.6035898651724774e-003
      7.1397316078430249e-003 2.0695787669109899e-003
      8.5493284885213841e-004 5.0545865427955670e-003
      2.7621870586052189e-003 -1.7379363752583552e-003
      2.8203967138327327e-003 7.0279889036579685e-003
      1.0721117034659218e-001 -5.7416151038856009e-003
      -3.8448250982447862e-002 3.6480531113498159e-002
      3.0075638507740836e-003 -3.4127128973822661e-002
      -4.2419687738792608e-002 4.4645123590418709e-002
      -6.2085327521496467e-002 -1.3959272387503248e-002
      5.6675974207706257e-003 -3.7690757269376370e-003
      6.0536552021034147e-002 4.0134432229019343e-002
      -5.9478060920457258e-002 1.5746825538480825e-002
      2.5843365203493059e-002 3.7701459368654891e-002
      -5.9026283569816783e-002 -2.3181888218091702e-002
      -2.3935348332850336e-002 -3.2236937261831994e-002
      -4.4271053337510288e-002 2.3864588427906744e-002
      4.4431291787302055e-002 -3.4496057513487964e-002
      -4.8843266049414254e-002 4.4475889591831838e-002
      -3.7835131294154639e-002 -3.2637236002997137e-002
      -2.9828093815464279e-002 -3.2282593742199946e-002
      -1.8320937459047715e-002 1.2929107985373705e-003
      1.4269458499395950e-002 -7.0616796949547228e-002
      -3.2927459349231171e-002 3.7264220324411977e-002
      -5.6157520507732019e-002 3.7605643770662070e-002
      -4.1028862714887628e-002 -2.8899313649666199e-002
      -1.6125959160886549e-002 -2.4096563992192288e-002
      1.9447270278317264e-002 -8.1759463421398962e-003
      -3.1836552720417778e-002 5.7536913156046587e-002
      3.0326299783208124e-002 -2.2123559522355565e-003
      -2.9145018649610249e-002 1.3632564435861331e-002
      1.3634069020025638e-002 1.8113088743007894e-002
      4.4926571664853816e-002 6.1780549972404092e-002
      -4.2845752041628285e-002 -1.6456868752055463e-002
      5.6681992932326355e-002 -2.6328405513934769e-002
      9.8648976182797860e-002 1.7937089093995348e-001
      -1.8552414621217345e-001 1.9061863399533165e-002
      1.4134228718741562e-001 2.5960966893231751e-002
      -2.0667683898041838e-002 2.9943773873367732e-002
      3.8658075141140052e-004 -1.0303385589390227e-001
      -6.5867418157817742e-002 1.2895975478260671e-001
      -3.4225141819323714e-002 6.7329725778694860e-003
      1.3389186261617779e-002 8.5877079847211754e-002
      -3.4295382984314698e-002 7.0856655999518681e-002
      3.4896770506417679e-002 -6.9421938341805281e-002
      4.0452183107649769e-003 6.0316344699457864e-003
      -1.0357217143246136e-002 3.8569168741249521e-002
      6.6332150660773873e-002 -3.2995046882416744e-002
      -4.5732313412540498e-003 2.8555123838614315e-002
      1.5497866031124574e-001 -1.8752176588098291e-002
      -1.3792036099503479e-002 -1.2789106264742200e-002
      1.9059358684939430e-002 -1.5780075770302899e-002
      -1.6723429456624475e-001 -5.5761933237494864e-002
      4.6871545119191803e-002 4.9829237882278818e-002
      1.1914229248516531e-003 5.1374160788083219e-002
      7.8324926949104225e-003 -2.8113038063129727e-002
      2.8584375405835819e-003 1.4665476918213446e-002
      5.8276506012984855e-002 3.9793039242845069e-004
      -6.0025511274979897e-002 4.1066602109535486e-002
      -1.4132981069185200e-002 2.8854929313928756e-004
      -5.0731456439799209e-003 2.3109615952774806e-001
      1.1908498965408311e-002 -1.9018027783530681e-002
      -6.8426191649202557e-003 -6.9085798087013053e-002
      -2.8752463902138065e-002 8.6396587844257841e-002
      1.4177428624040486e-001 1.4140494497804924e-002
      -6.3442869949760844e-003 1.3417373884371220e-001
      -1.2501302511349116e-001 1.7887401732105238e-002
      3.4859754551451866e-001 -9.0214311392460399e-003
      2.1936625754161391e-002 2.1739171040915835e-002
      1.5542132987113098e-003 -1.6975769220758402e-001
      -5.9998164722515892e-003 -2.2898637693325098e-002
      -5.5968731938198547e-003 -1.2016739503723320e-002
      -6.7680534248476228e-003 2.3852526493744677e-001
      1.8302037546202389e-002 -1.0203215359260945e-002
      1.3288818651287854e-001 -1.1209103731655035e-002
      7.9447018126349838e-003 5.6400591766154959e-002
      -5.6064310710643224e-002 4.4832444224950176e-002
      -2.1809770365251266e-002 -2.5527754100084319e-002
      9.5444693779409371e-003 1.7615059632373704e-002
      1.6944364339022894e-001 -2.3297526493395292e-002
      -1.3454183204822562e-001 3.3097957668656960e-002
      5.3291765967754469e-005 1.1185051581140869e-002
      -2.7175508481692839e-001 -4.9288510766896679e-002
      2.8663378832878627e-002 1.0827471378392128e-001
      8.9673257737599724e-002 -9.7016672772007196e-003
      3.7410986496908868e-002 1.0789661497117112e-002
      4.0791414257684760e-002 -2.7477298194368675e-002
      1.0570715160026248e-001 1.4488708003264914e-002
      -6.7216508830405780e-002 -1.7878321623808702e-004
      -5.7180334204947302e-002 6.0790587859373364e-002
      4.9232683034686052e-002 3.4139845364356414e-001
      1.3549606795127433e-002 2.8359280937520992e-002
      2.6907835866206039e-002 1.3280068046575267e-003
      -8.3734386654560431e-004 1.0525248336277986e-002
      2.3320874522135403e-002 1.1077102754207604e-001
      9.3197468152127594e-002 -7.2522202830133789e-002
      -3.0257544144923418e-002 2.0609888629653832e-002
      -1.1098994117111008e-002 -3.4287502354436124e-002
      -8.1790803041802584e-002 -6.6736779431598196e-003
      -7.8901899054082722e-002 -2.1831402695624641e-002
      4.3034551278082735e-002 -3.0104531528265151e-002
      1.2896848613855308e-001 9.0031408807269397e-002
      -8.0074954238494159e-002 4.5819054575234872e-002
      1.2000808147153215e-002 4.9039096532232110e-002
      -1.2340694674853257e-001 -1.7294488555546758e-002
      -6.0588248210975769e-002 -1.5603176819413400e-001
      -3.8194239321016669e-003 8.7180728355281498e-002
      1.9441739886993088e-003 -2.2192270114264143e-002
      -9.4848164820698258e-002 3.8931421760055186e-002
      -8.8529042166444083e-002 -2.2164012226732463e-002
      3.7676323774927196e-002 -1.1903464692675014e-001
      -1.0355792941585826e-001 -5.7753097651992789e-002
      6.4863890743577429e-002 -1.2547940688574213e-001
      -1.0773923968492484e-001 -4.7407700542423922e-002
      -1.7229577921457170e-001 5.1730432973830585e-002
      -1.6595497691445016e-001 -1.0245085616946707e-001
      -1.3479622516234047e-001 7.0359453100462210e-002
      3.3013329293299351e-002 -2.7994015893381841e-002
      2.8890356014389659e-002 7.3926993115295908e-002
      1.2506455153445040e-001 7.0432026702200029e-002
      -8.5479583716408764e-002 1.7961435521561511e-002
      3.2846478203587604e-002 -3.3094778418289411e-003
      1.0632449343034246e-001 1.3555945067381855e-001
      -4.5421270312046104e-002 -6.2896882365777854e-002
      4.9611282230119513e-002 -1.2676360958185184e-001
      5.0753758004714898e-002 6.7412155595511503e-002
      -9.1339814294294303e-002 3.0597862525644132e-002
      9.6617004752662036e-002 -1.1666446563960015e-002
      -1.7653844570382139e-002 6.2610847713187534e-002
      -4.6285792926469720e-002 -5.1131189496702194e-002
      -4.9383739793740028e-002 4.0788998647945052e-002
      3.6734432364291567e-002 3.3233972889283370e-002
      -3.2716770698818287e-002 4.7279779330507095e-002
      9.2626859183420635e-003 4.7422115418336602e-002
      -2.2536924124054038e-002 -2.3590359395499343e-002
      -3.1218369817100411e-002 -5.1388320791203312e-003
      -3.7889500732203887e-002 3.6198298613114695e-002
      4.8250616667116566e-002 -4.9703053052360550e-002
      -4.5477660529046879e-002 4.8236801502214183e-002
      6.3752807615017421e-002 -3.7502392404124632e-002
      -1.7205585205956372e-002 -2.6286964431781284e-002
      -3.4357670951381820e-002 -2.5689115821804699e-002
      -6.9835593606019472e-002 -7.2073662653999948e-002
      -3.4661924351066027e-002 6.3183670059754296e-002
      -3.4750460309104031e-002 4.0732872849970320e-002
      -3.1113225411821436e-002 -3.8620808270665469e-002
      -2.1345161187721663e-002 2.0920792664804413e-002
      3.8747262669002698e-002 -5.0350050709472485e-003
      -4.5137587691582062e-002 3.8745589923554924e-002
      1.5893763886255196e-002 3.4016497603804360e-002
      -1.7067433673705841e-002 1.3474483371226104e-001
      1.0195343000282695e-002 -4.3561274135123246e-003
      1.1861984206538799e-002 2.5747797854439220e-002
      -3.6657129190428989e-002 5.0786117716215294e-002
      8.8041022906986580e-002 -1.8208620190135815e-002
      1.1028426493796051e-001 5.9396423073517196e-002
      -5.1660413803792889e-002 3.7515085657398160e-002
      5.3852805600648659e-002 3.3761602475847433e-002
      -3.3749266620826716e-002 9.3061812624043241e-003
      -2.0697391249662692e-002 -1.7294733903663227e-002
      2.9533747072615996e-002 -3.2562712579859293e-002
      1.2221903421903522e-002 1.5571112255830317e-002
      -2.0181099634027096e-002 8.2435835647621691e-002
      -9.9745856185188587e-003 6.3304519398862696e-002
      -6.4184729901642272e-003 -6.4179319228030426e-002
      -2.1236103093767857e-002 -1.2976324538504728e-002
      -5.7118081635802259e-002 2.2966735236742683e-002
      2.2207901131181516e-002 -3.4229641878920719e-002
      1.5029742346991943e-002 -3.2082471949991739e-002
      9.3343916174281148e-003 4.6519103833743709e-003
      -1.3211947245266054e-001 7.1150514831772550e-003
      7.3371427796159443e-003 -1.7348815869717534e-002
      -1.3524141012265126e-001 -6.5655625565105694e-002
      1.6951481892458216e-002 6.1571975236748906e-002
      -2.4244199082616751e-002 -8.8415210172549958e-004
      1.9315100181892256e-002 6.4252467035502817e-002
      -2.3725543933618053e-002 -1.7755831997594878e-002
      3.4571892204493353e-002 -1.4535847469172006e-002
      -3.5478365981801090e-002 -6.0076741900609951e-002
      3.8917928170892020e-002 8.2890500802303008e-003
      -6.0202903466041999e-002 1.5514592728043211e-001
      7.3454250559517403e-002 -2.3111054872664408e-002
      4.2002387033045464e-002 -1.0208358708924440e-003
      2.2179612207996215e-002 1.0205272762223740e-002
      5.6713581517223666e-002 -5.7208704444369360e-002
      4.4098531083364319e-003 1.2945181346110651e-001
      -1.7991837006055664e-001 -1.3866174569703932e-004
      1.5535980684513165e-001 -3.2715072968768286e-002
      2.3083596824901863e-002 4.9328699531478358e-002
      -2.0480962112780735e-002 -1.1963948088941145e-001
      -6.2000183460177723e-002 8.6996999023000524e-002
      6.3086856003491849e-003 -5.5705757427384527e-003
      -6.9130010872492202e-003 1.2560336614320727e-001
      3.5568319278227581e-002 2.5571259094373692e-002
      3.1143927760837440e-002 -2.9168621802766408e-002
      4.6642817107141916e-003 3.1086521068773552e-002
      -4.8649617750887927e-002 7.5124359168778881e-002
      2.4761600541242813e-002 -8.6436860684469013e-002
      -7.7501332024448061e-002 8.3591207128553058e-002
      8.9771925114294479e-002 -4.5723613638941916e-002
      -1.8579373620157269e-002 -2.8226539531500750e-003
      -3.3877394566089548e-002 -2.7649634117625246e-002
      -1.2178834667180830e-001 -1.0438534018428516e-001
      -3.7184880984166800e-002 9.3124451037967779e-002
      -1.5196713035588482e-002 3.6365061309350757e-002
      -3.7331450093598992e-004 -7.6250437124465553e-002
      -1.9844343932447463e-002 4.5030561456557712e-002
      8.2166130154058950e-002 2.8614174105597696e-002
      -8.7121545688961854e-002 4.8188379063067208e-002
      -3.1737904217314192e-002 7.8124309698566943e-002
      4.2170135720576152e-002 2.4946036023436882e-001
      -2.8288893075008141e-002 3.7550165118643661e-002
      -3.7772838543482165e-003 -1.5410935749181310e-003
      -4.3971271917060427e-002 5.0583779887822693e-002
      1.9063405406555767e-001 5.9214719187153965e-002
      7.6593075046585454e-002 3.1800755082507133e-002
      -2.6780963713968542e-002 6.1879191232653515e-002
      4.2290287525694581e-002 7.9645884043311327e-003
      -6.9918690921165066e-002 8.7383304720326738e-002
      -6.3267593096893629e-002 3.1367303267826142e-002
      -7.8946921449656125e-003 -4.8674767943666729e-002
      8.6447476398008871e-002 4.4779366497998727e-002
      -8.3525315030338942e-002 1.1671644407727470e-002
      1.3769107300204092e-002 5.0559339738634156e-002
      -3.6293763460506785e-002 -9.7969089361804387e-003
      -7.7679128475445974e-002 -6.7125100600026480e-002
      -6.1161219762268258e-002 2.5363807303746742e-002
      3.6118884302674972e-002 9.1110433332411717e-003
      -1.1019159660370070e-002 1.6989508037429438e-002
      1.8716787877357782e-002 -4.7335768716123147e-002
      5.0076992913851643e-003 -3.7592730242454235e-002
      -3.4718977465931340e-002 -3.5145700746035048e-002
      -6.1751907477135444e-002 -5.1914829076698421e-002
      -4.3389526447514898e-002 1.2679431368649309e-002
      -7.4823491487162955e-002 1.7798393681105831e-002
      -3.8536295942141321e-002 1.8877174429210126e-002
      -3.6142686553108976e-002 -7.1309151947086709e-003
      1.1671597912653337e-002 -5.7725308785661233e-002
      4.5340555952443184e-002 1.0059899532649763e-002
      6.3762204781559140e-002 1.7730027555000076e-002
      -4.6865341841565052e-002 6.2775863514451843e-002
      4.8903709165184862e-002 -4.2290765458618311e-002
      6.3162086275332152e-002 1.0754637149484375e-001
      6.0681959376544781e-004 3.9911595372936322e-002
      -2.2331188068725827e-003 -9.1887632672687083e-002
      1.6677415792848740e-001 7.6290690385625123e-002
      -9.0390881045081237e-002 5.7631032671675846e-002
      9.9871546236314709e-002 9.6394888260366199e-002
      -6.8904350007493315e-002 -9.2931852807574085e-004
      -7.0964136279778836e-002 -5.7462662914971818e-002
      6.6667452320589016e-002 1.0405652731810046e-002
      -7.0247074709494269e-003 4.4955056758354831e-002
      -7.8283197195188423e-003 1.1037020460268959e-001
      -5.7092652916685069e-002 1.3403129801106664e-001
      -5.6057148345523194e-002 -8.3743404769074187e-002
      -5.2740326885649655e-002 -3.6249881145454313e-002
      -9.4311232825388079e-003 5.0051370887922456e-002
      9.3440923036613624e-002 -6.1589444577796124e-002
      3.8757948765134352e-002 -2.8916126898796423e-002
      1.0222224524535599e-001 -1.6472585771131368e-002
      -8.5733119131894200e-002 -1.2321912634278863e-002
      2.0754957271644125e-002 -4.3647593125085475e-002
      -1.2747018766844778e-001 -5.1935900640049812e-002
      1.2817830411711761e-002 1.5835245163054668e-002
      -7.6417094895656984e-002 2.5453712829777552e-002
      -9.7677535407984743e-003 1.3145467005749352e-002
      -5.4119167168557233e-002 3.2127640449801320e-002
      6.7287746906743856e-002 -3.3490562206580130e-002
      1.0654200712285905e-002 1.3861804055389686e-003
      1.0278639204170295e-001 4.0081779881207723e-002
      -1.0857627807272938e-001 1.6538814602726196e-001
      8.0387317235806235e-002 -8.7117845179599501e-002
      -3.3918507019558134e-003 -5.9984908950081336e-002
      -5.0142500650458471e-002 7.5481065601243860e-002
      3.1881589931148709e-002 -1.0486097573997387e-001
      4.5668836689694708e-002 8.5716843080816202e-002
      -1.2354965867791508e-001 3.4331105860372226e-002
      1.1858208264198007e-001 7.6370369137118040e-003
      -2.6833753514447650e-002 5.5216125044371032e-002
      -2.5665702344911452e-002 -4.6086203979278630e-002
      -5.3727072821627656e-002 6.5017984858212292e-003
      4.6435296918344353e-002 2.9222002104913415e-002
      -3.1973832844982876e-002 5.7599208811826307e-002
      1.0264687839865920e-002 5.8600816844790980e-002
      1.3723703932152942e-002 -3.7530333803168496e-002
      -4.4049530946673333e-002 -4.7979500438660456e-002
      -4.4314072310424842e-002 6.3399856172801361e-002
      3.5430703983563128e-002 -5.0814321100655924e-002
      -3.1381353143544385e-002 3.2230228179734269e-002
      3.9099784649872987e-002 -4.4895533177701875e-002
      -5.0494517419636904e-002 -2.2918722283606585e-002
      -5.2104959570762222e-002 -5.7508011134486184e-002
      -9.0832802745958591e-002 -1.2226353485284903e-001
      -3.6594003783114518e-002 3.9592494563976802e-002
      -6.2177132761260204e-002 2.3479999630135626e-002
      -4.0356038801649272e-002 -3.4207912606271866e-002
      -6.9061198270160939e-002 2.7981947289759994e-002
      4.7670951401760739e-002 -1.6591513762398979e-002
      -3.3792857362241066e-002 1.1580623586083824e-002
      3.9130009248875317e-002 7.6904355473898497e-002
      -3.7721528298672855e-002 1.8070500600384781e-001
      3.7405594963191943e-002 -1.1253586904020525e-002
      4.5401385293916602e-002 4.2886050504946829e-002
      -2.4784543087977756e-002 5.1351221278860999e-002
      1.2023960693258029e-001 -3.6065532140276510e-002
      -2.5775219493229817e-002 7.8129795884948009e-003
      -5.7522056153455237e-002 3.3029570388536496e-002
      6.4275059437160900e-002 -4.7243569680924125e-003
      -4.6535642439679455e-002 -1.4042957625988789e-002
      -3.9640262337021274e-002 -4.5470455286146121e-002
      -3.3155182034771469e-002 2.9724633811950080e-002
      7.3181380462297788e-002 7.9146807321177695e-002
      -4.0082027911550161e-002 6.3718289484103866e-002
      -1.8218468130788562e-002 1.8452077853492031e-002
      -5.8852816477742868e-002 -3.6918897337734876e-003
      -5.3746749292942812e-002 -1.0079720503818698e-001
      1.8759043976025937e-002 8.0482807372463550e-002
      7.7271344464278696e-003 4.0215146519533194e-002
      -5.9960290438824122e-002 2.5710774554953332e-002
      3.1921421862411425e-002 -1.5636626407426815e-002
      9.0867584297895931e-002 -8.0000787040019547e-002
      -8.0221578816317488e-002 -6.2924647859111962e-002
      -5.3885721380469542e-002 -6.4647358087560045e-002
      -6.6426871650236183e-002 -2.9401841539835872e-002
      -1.3570683892671628e-001 3.7351037698407460e-002
      -1.0043501417451783e-001 -7.7037777906955054e-002
      -9.3086416951466536e-002 6.6603578961691653e-002
      3.9365994815453206e-002 -1.8774683334638265e-002
      2.9715140756716704e-002 2.1890037291928725e-002
      8.4681733847569135e-002 4.5708510924982695e-002
      -4.2335735736921634e-002 9.4501575254604051e-002
      2.0812113907995089e-002 -2.6652585602107690e-002
      5.0606709809679164e-002 9.8703926130671776e-002
      1.2379006178494276e-002 3.4000342327342739e-004
      3.1739575259899351e-002 -9.9928648519305982e-002
      1.3126223777873405e-001 7.1557915468131408e-002
      -6.1295624743269661e-002 6.5037675856682839e-002
      8.0966428945083310e-002 8.3745659131934838e-002
      -7.5206404747246755e-002 7.8275724478071559e-002
      -3.5670248504487467e-002 -2.4055887530402414e-002
      3.7043608453976126e-002 -3.1240353246348444e-002
      4.2871657850078376e-002 4.4696305988321409e-002
      -2.1823332820396019e-002 8.9201145552758890e-002
      -5.5071965481886913e-002 8.4938676461127363e-002
      -3.1050096994415070e-002 -3.0514641335889960e-002
      -5.2541058346875377e-002 -5.3085089560386801e-002
      -2.3626077523171713e-002 8.3764102843116597e-002
      4.9895411844378741e-002 -3.8611222346520153e-002
      7.1219462859868840e-003 -1.7996157742593045e-002
      9.2932774176958971e-002 -4.8471649077448664e-002
      -7.5263664699102964e-002 -3.8879710187765898e-002
      -3.4163195249139071e-002 -4.1794167274615268e-002
      -8.9049194015170904e-002 -9.3034512321415824e-002
      -8.6342151495109917e-002 5.8124563477421821e-002
      -7.3039606990215750e-002 2.1861197373093905e-002
      -5.0930139867404675e-002 1.1654614883027763e-002
      -7.6783257006029712e-002 3.5536078589357450e-002
      4.3729680861107588e-002 -3.5018130840566444e-002
      1.1967815333132466e-002 -5.8518749003882216e-002
      8.8425411122031991e-002 8.9273069788949153e-002
      -9.1057804516304755e-002 1.4293439363174484e-001
      6.7577731381209871e-002 -9.2139167454313206e-002
      3.6673988424136217e-002 2.1679217705040162e-002
      -1.5136733927737869e-002 6.5111637339999529e-002
      2.6407508657129160e-002 -1.2825348682273061e-001
      1.0268546548157688e-001 1.7061198208383471e-001
      -8.1619615878210622e-002 1.1049525793033267e-001
      1.6294294243576302e-001 8.3432322646076071e-002
      -8.4511795462412970e-002 1.1979453241612904e-001
      -2.4351227047439722e-002 -3.6058936293248715e-003
      -5.4357695621433562e-002 -2.1518151560846150e-002
      1.1768729659272049e-002 2.0151641531443047e-002
      -3.1469398594362701e-002 5.8306944214260347e-003
      -6.9493438409935146e-003 9.0020293337352647e-002
      3.8243634777587361e-002 -5.0903228300169585e-002
      -7.1490124145291531e-002 -9.0355718789947113e-003
      -7.7313983598006300e-002 -3.6836128505575279e-002
      7.8148673365159113e-002 8.3523043398545747e-003
      6.1237611027765773e-002 -1.9469182687874488e-002
      1.1076331902570770e-001 -7.2006370210848089e-002
      -1.1985658638388784e-001 -4.1903054812694783e-003
      1.5419266055940340e-002 -2.8645369644715386e-002
      -1.4875682492296882e-001 -1.8390409743039120e-002
      4.3438219629007235e-002 8.9107921459757988e-002
      4.5612365168513427e-002 1.8093138774582001e-002
      3.6979460781332053e-002 9.3924538918141023e-002
      4.9942207021835992e-003 -3.9452978880928170e-002
      3.1408757765328241e-002 -3.1314244180696935e-002
      -2.6879369262777474e-002 -3.5916583807260087e-002
      4.4615288011110407e-002 -2.7292985150583976e-003
      -2.8963079600719470e-002 1.9223631714672690e-001
      1.0004086786247678e-001 -7.8987582786287147e-002
      3.6062585966798864e-002 -3.0714295972725791e-003
      2.2747885893182038e-002 1.3843319107226590e-001
      1.2836186467973649e-002 -6.5541696225667648e-002
      1.0804271091784591e-001 1.1699862246033318e-001
      -1.1337398773411718e-001 3.8220022486324973e-002
      9.9557314232017372e-002 6.5722591562820509e-002
      -4.1726529805611616e-003 8.3291309714480580e-002
      -3.1939758419196308e-002 1.4592036885666421e-002
      -7.5432684267738970e-002 -1.4357927243950014e-002
      4.2579541443687897e-002 -2.4243986301080902e-003
      -2.1462377903875885e-002 2.1137754346647643e-002
      -4.4239954525529104e-002 1.3770591875872337e-001
      2.2408339250220594e-002 -3.6830700525000683e-002
      -6.7934431169644385e-002 -3.8682240518061024e-002
      -4.2235896377065089e-002 4.3178369102533802e-002
      4.9655459417466324e-002 -6.2963575657829243e-002
      -1.9807059591836567e-003 3.0408304253137867e-004
      8.1802038744026626e-002 -2.3817166030496991e-002
      -4.3931621151989614e-003 -7.7101127419783467e-003
      -3.1646191378978852e-002 -7.1647312873869579e-002
      -8.7813120836599159e-002 -1.0961187975301789e-001
      9.2006210188250361e-003 2.1141144751954076e-002
      -6.0291641466699443e-002 1.1822365892326098e-002
      -5.0153766407820882e-003 8.5736760863217992e-003
      -5.5912527147652706e-002 3.0422369296205488e-002
      1.1434200390305316e-002 -3.8448813276793468e-002
      1.2957650317920073e-002 -4.0228999276288424e-002
      3.2755564373649355e-002 7.9044882557626386e-002
      -7.3048803985421074e-002 1.6015492341670884e-001
      4.6717725244562455e-002 -9.4924422300073155e-002
      4.9426500206902089e-003 1.9262086504455003e-002
      2.6036712085682661e-003 8.0474665156117647e-002
      1.0307845105604861e-001 -1.0118207893576769e-001
      -8.8793185334019128e-002 6.0988097330573997e-003
      -1.4377240753678683e-001 -3.6280755189949672e-002
      1.0773595200043966e-001 -1.3690342658608898e-002
      2.5585036760232029e-002 7.0280596632651390e-002
      -4.4766030838902876e-002 -6.3013461390082959e-002
      -1.4300482442938649e-002 9.8361614024075807e-003
      4.4405242079321193e-002 -2.3835616625418769e-002
      2.2238230884187221e-002 1.1735113691149451e-001
      4.1559920920278610e-002 -2.7555708975532697e-003
      7.5969711349196493e-003 -1.4232374167999532e-002
      -1.5356231584087892e-002 2.7373259183420186e-002
      -3.8002519380905882e-002 1.5872550231234694e-001
      1.0837491720929257e-002 -1.3638293581283939e-001
      -7.2164974808797869e-002 5.6180547489139414e-002
      4.6240773749151358e-002 -5.5095057007095050e-002
      -7.9504801937929401e-002 9.3259483265671766e-003
      -7.1530118863559977e-002 -8.4450259275778511e-002
      -9.6912472503506930e-002 -1.2090423884843279e-001
      -1.1726567312831902e-001 7.3758208413354676e-002
      -9.7054146162710547e-002 -2.0210925593598203e-002
      2.4542197619759672e-003 -3.9012510983388621e-002
      -3.7484319149289097e-002 1.1240770786308329e-001
      8.7535520275268050e-002 4.1634652683534973e-002
      -4.2675506818208676e-002 -5.7408866073681633e-003
      6.1527134262174014e-003 1.9299351911143101e-001
      -7.3132838205566169e-003 2.0561041468787883e-001
      -4.6155819081804501e-002 -4.8002584493502688e-003
      -4.2081101032645687e-002 -1.3774208509553553e-002
      -7.1543831843442859e-002 7.0327276547515707e-002
      1.4955580587770914e-001 6.0281803308173676e-002
      -8.3567168646509725e-003 5.9624623369194718e-002
      -3.0901397929379938e-002 6.1014768585932994e-002
      6.6657233366601787e-002 6.7272199289554286e-003
      -6.6608970732834283e-002 7.5086903296603669e-002
      -2.3476742670122012e-002 4.0769647804365303e-002
      -7.6685851235269486e-003 -1.1646694086975751e-001
      9.4960393295007675e-002 3.3201851089519556e-002
      -5.8193384021008189e-002 5.0274958622347488e-002
      5.9254264022829968e-002 -2.8018811221734417e-002
      1.2048948491915885e-002 -2.3161921278285390e-002
      -6.8883123351815970e-002 -5.3831297281045985e-002
      -6.0786071752353565e-002 3.0582765005402923e-002
      -2.9985828117103430e-002 1.1186760627934585e-002
      1.7296917611440189e-002 -3.7235523875932884e-003
      -8.3780724598209767e-003 -6.9065629046031349e-002
      -8.7628948798661982e-002 -5.3597989405622111e-002
      -6.9520814938668907e-002 -4.3207877721948722e-002
      -1.3219286655184295e-001 -5.7589006542779243e-002
      -4.8827693123901728e-002 6.5248767126122043e-002
      -3.4858752492099444e-002 -7.3644674056245136e-003
      -4.7086703588366433e-002 1.9581202795896910e-002
      -6.6643423679250496e-002 -2.3334944290336725e-003
      2.5688141977199722e-002 9.8872296074362792e-003
      -3.2491067283913114e-002 2.7534273038059061e-002
      4.7992376012121189e-002 4.8315530290240563e-002
      -1.8686614879629103e-002 1.3523367113715953e-001
      8.2691374772496926e-002 4.7514752627016779e-003
      9.8286017330382378e-002 1.3523649848065472e-001
      1.8037039347637989e-002 5.5202420426228326e-002
      3.1421640129277610e-002 -3.4139166248430317e-002
      4.9717774200122938e-002 9.7564820451717785e-002
      -6.9966887665502478e-002 6.0256643414825048e-002
      1.6764451674644776e-001 6.1557909329112398e-002
      2.0303186659224471e-002 3.6139682102692153e-002
      -2.2298204345785298e-002 -6.9447403972958760e-002
      -1.3214074596903069e-001 1.1498359416336784e-002
      -1.1955291334092240e-002 7.0086607548317179e-002
      4.4626520061463275e-003 4.5704763801579611e-002
      -4.4410403408346379e-002 5.3161999501401609e-002
      -2.7753334701573935e-002 -1.6234704818775304e-002
      -3.7724057493048586e-002 -3.8977199547180957e-002
      -5.3287272864384738e-003 3.7688720038420200e-002
      4.6846093753508428e-002 -5.3996714599911025e-002
      -4.9551373484701323e-002 1.7911749427891002e-002
      8.2521657191159517e-002 -2.5904598558347459e-002
      -1.3784527197842322e-002 -4.9101328474486020e-002
      -4.3175723282733135e-002 -4.1427919976110061e-002
      -1.8115362873590588e-002 -1.3846136018259805e-001
      -4.6589658524562018e-002 6.3364458361790277e-002
      -5.1617751052844087e-002 5.3022252423913396e-002
      -6.1879823707643514e-002 -5.6165949723380570e-002
      -1.0014385845741326e-001 3.7022414210527779e-002
      4.7867561247271186e-002 1.7703781079936705e-002
      -1.0540937614350171e-001 -6.2615755391995639e-002
      8.6983583732513609e-002 6.7296325419184802e-002
      -2.2893696325973798e-002 1.6320517067790005e-001
      4.4778796144119885e-002 -3.4987935652272394e-002
      2.2472819061578757e-002 -5.1365317661663093e-002
      2.8107980676247379e-002 4.2873890189868327e-002
      1.1545242443018691e-001 -1.2391654477803236e-001
      3.5277345338194416e-003 -8.6735476821560645e-002
      9.8102372485007906e-003 3.4627768217484339e-002
      2.8695900905446905e-002 1.7780513758527169e-002
      -7.3265670567971522e-002 1.3976348946461563e-002
      -6.5324875089550594e-002 3.6349935634563827e-003
      6.4514904761623054e-002 -4.6250980790963424e-002
      1.2838856296722351e-001 1.1123560998781060e-001
      -5.4516087204609119e-002 4.4605829570902158e-002
      -2.1048552575244395e-002 6.2952239117148676e-003
      -1.7500425232984038e-001 1.3626864284648401e-002
      -6.4705295165988705e-002 -1.7094145842432948e-001
      4.7628420268806933e-002 1.1364668833521639e-001
      -5.8310190171000902e-003 -2.2814636124588651e-002
      -8.5638940138586209e-002 -1.4727798847056081e-003
      4.8230192700362329e-002 -1.6981249199808836e-002
      9.5788785654322445e-002 -1.2951933781281891e-001
      -1.1293495499844425e-001 -9.2330275687764918e-002
      3.9206092409612821e-002 -1.2904895163508381e-001
      -1.5081576111195791e-001 -1.0519063298131262e-001
      -1.9278614457716833e-001 5.8307333542401939e-002
      -1.7972623759619383e-001 -9.4576966196397591e-002
      -1.6572328111968346e-001 1.1727882752959853e-001
      2.1850336153487141e-002 -2.2828666546553744e-002
      9.5892450290516365e-002 -3.4668641774397318e-003
      1.5705086057871670e-001 1.1239677988253180e-001
      -1.0281761903833503e-001 2.6047378265608063e-002
      2.6021610099037602e-002 -4.6885917625239186e-002
      7.1349385049000652e-002 1.4462033754903228e-001
      -1.9787624896209229e-002 -3.8915648216882065e-002
      -1.0140354328530065e-002 -1.9382568299244113e-001
      6.4217114237430387e-002 1.3836664075807834e-001
      -5.7160098379066430e-002 4.8028372901357537e-002
      1.5456961259351309e-001 3.7279074665633079e-002
      -2.2775971347300365e-002 -1.9416603513049153e-003
      -3.0724738997669702e-002 -3.2058977663914627e-002
      -9.1358188000548509e-003 -1.8094108398044602e-002
      -1.6737491216974872e-002 1.3720492199196336e-002
      5.3912331922433042e-003 6.4064552480471729e-002
      5.0356019308697509e-003 -5.6526778763205374e-002
      1.1229502337808235e-002 -4.2110279939521475e-002
      -5.6893521842602622e-002 6.7555090657548562e-003
      -4.2105616814522011e-002 1.4969992701304110e-002
      -1.0212064106955738e-002 1.8000731926912121e-003
      4.1603282924067862e-002 -3.6333579925681338e-003
      7.0337835474153856e-002 -2.9263174116706321e-002
      -6.2044077643908339e-002 3.8250667423453464e-003
      -3.0845717734828255e-002 -3.7519164575852103e-002
      -1.0578233951529710e-001 -5.5575535800744508e-002
      -4.6534348738236246e-002 8.1609922671300530e-002
      2.7319979439548562e-002 5.4396084305986178e-003
      1.8970957753657550e-002 4.8085083910428634e-003
      -7.2081106037666834e-002 -1.6300544428057655e-003
      4.3348934312455158e-002 -4.4464958988259902e-003
      -8.9278275599032911e-002 2.4070622329468966e-002
      5.2465417261895811e-003 1.8162128296647182e-002
      1.6410296045051804e-002 1.4204630423087219e-001
      9.0128348159331143e-002 -1.5222137657754649e-003
      2.8910664262400243e-002 2.0041572804210570e-002
      4.6074862532236083e-002 5.6215994284080494e-002
      9.4707295746461723e-002 1.5310180263969722e-002
      1.8245424862467563e-001 -9.5064825739095069e-004
      -5.4272671093541357e-002 4.8390458003425729e-002
      3.7750838201929628e-002 2.5546081422643498e-002
      -7.9018774492570526e-002 2.6692974808824658e-002
      -8.5757419958493203e-002 -8.6057725896913212e-002
      6.1186459038384801e-002 1.7755584814692246e-002
      3.6431931995943086e-002 8.7899035757528290e-002
      -3.0955348118226710e-002 9.5707334283710629e-002
      -2.3581657077940323e-002 8.9668037019803415e-002
      -1.1751920566364185e-001 -6.8386650396661156e-002
      -1.1217286477150826e-002 -1.1729992475642037e-001
      1.1323047637269946e-002 5.9358402468740877e-002
      6.3426385126486351e-002 -5.5227594025070458e-002
      -2.6345964413376690e-002 2.0440650668032877e-002
      1.9806837025595918e-002 -2.4617459219978561e-002
      -4.4219374528257749e-002 -8.1929745734984544e-002
      -1.1320775386989773e-002 -1.0900114432352274e-002
      -6.7223385595459612e-003 -6.8079851332434535e-002
      -5.9748140233496210e-003 -2.1070497166705459e-002
      -1.0277218084760627e-001 9.1266238623842574e-002
      -1.1386504215830205e-001 -6.9370491299546130e-002
      -5.5316769554233106e-002 2.5648464968213405e-002
      6.3102658838302947e-002 -4.9036777317271957e-003
      -1.0672030495980008e-002 5.7086461889954324e-002
      9.7635514421874819e-002 2.0481080702275750e-002
      -7.7620329583772130e-002 5.0669417133505298e-002
      5.0174968843546393e-002 -2.1606159972583409e-002
      6.9277928062912969e-002 -2.6639317190875238e-002
      -7.7933796074264927e-002 -6.9618695777878756e-003
      2.7882321122138422e-002 -7.6280141359528694e-002
      -6.5439005376229972e-002 8.5099762705046600e-002
      -1.0379707743758421e-001 2.1711292282164032e-002
      1.5105713443786833e-001 -9.3876057444185754e-004
      -2.7602281707801789e-002 1.3802254890993104e-001
      -5.3981262357410735e-002 -9.4614031835409656e-003
      3.9209457100825643e-003 5.4798053339271367e-002
      4.2936579091040046e-002 -4.0609776715135971e-002
      -2.1367151735736004e-002 3.5422167730117145e-002
      4.2044367322751700e-002 6.7916967005688986e-002
      -1.5152115749170910e-003 -1.0258883839209171e-002
      -1.8558376754074814e-002 1.8779069445642980e-002
      -8.8159378105961791e-002 4.0211835005434134e-002
      2.4349441713328507e-002 -7.3553234274440354e-002
      -2.5121306869722641e-002 2.8507229058945576e-002
      1.5824678566025172e-001 -5.7767710518896641e-002
      -9.0949827674856709e-002 1.6697354479685608e-002
      -1.8981906182350163e-002 -2.9533103230879040e-002
      -1.5727406183710441e-001 -8.4230891576955513e-002
      -1.2763739305678921e-002 7.3335860418352328e-002
      -2.9573573986004988e-002 2.0944405503273678e-003
      2.1548399415006140e-002 1.7828869061778791e-002
      2.5403245565378883e-003 2.9868469413273469e-002
      1.5924122861052242e-002 1.6435400782600935e-002
      1.4477654324363477e-002 -3.0899301806938041e-002
      -1.3203180010791026e-002 5.3039202596295847e-002
      -1.2376637441323812e-002 1.5362398282379849e-001
      -1.1769234568427741e-002 -3.0505570421692687e-002
      -1.8358054601774650e-002 2.5033617804782166e-002
      -3.1664305049214650e-002 1.2703698172780062e-001
      6.0743865441847518e-002 -5.0427899114935323e-003
      8.1025558674445775e-002 -4.9287315154403856e-002
      -1.0432216178302146e-001 -6.3516908524773624e-002
      -3.3797388421081223e-002 -6.3800671434110418e-002
      -3.0810449348622570e-004 1.4341361871770225e-001
      -9.0642395591111480e-002 -4.8226434619950576e-002
      -1.2627373266725393e-002 -4.0058420586250636e-002
      8.0672403310365334e-002 -4.0126706088833328e-002
      -3.5644713778611774e-002 1.4267536838764561e-001
      5.7946823780048076e-002 5.7432399758587382e-003
      -5.2057329332020091e-002 -6.8693164509577700e-002
      1.2384442168993761e-002 -4.0603903377595209e-002
      -5.3877886135640998e-002 1.4697390272792746e-001
      -9.0829033788447835e-003 -1.8540342455451780e-001
      -1.2113573387890693e-001 7.2560002794460232e-002
      -9.9908520851531596e-002 -2.1470092352962315e-002
      -8.4631470481029786e-002 -1.0802776059794898e-002
      -5.7382914300440971e-002 -3.0294934699284771e-003
      -1.0491241142559848e-001 -1.4432987191715749e-001
      -2.5772029230862182e-002 6.0447517975230722e-002
      -9.6058228352953703e-002 1.1910176012967774e-002
      -4.6412324598052015e-002 -4.9038403959969133e-002
      -1.7208020621374765e-002 3.9451627186645806e-002
      5.1539383096515269e-002 2.4578018413379938e-002
      -7.7894842402284267e-002 9.5611576795264649e-002
      -5.5224905211887824e-002 2.4636058782731042e-002
      1.0272386149902030e-002 8.3443871410247672e-002
      -3.0553457557684301e-002 5.4763959385868741e-002
      7.2323546714292405e-002 1.4639866428724929e-003
      -8.3003410547541970e-002 -1.4355246586833981e-002
      1.7517172986624979e-001 1.2571841828771238e-001
      4.6617284462735234e-002 1.9123368496568774e-001
      -1.2051806620563677e-002 1.0164438929999789e-001
      1.9245726557201856e-001 7.4128500222751623e-002
      -5.4210161665546241e-003 6.0189347117884526e-002
      2.0414741179785176e-002 -8.2098615243783674e-002
      -1.1933894973458399e-001 -5.1884116236902124e-002
      -3.9246698499849846e-002 3.0920799875945048e-002
      2.3548223005693772e-002 6.4831753571319872e-002
      1.3181888034219999e-002 -8.2725308057847460e-002
      3.6454507320914771e-002 -1.0718938184248378e-002
      -4.8830059870500910e-002 7.2756604431876551e-002
      -2.0467504549724576e-002 3.3193413599320397e-002
      1.2057275841570245e-002 2.9618786764159868e-002
      -1.1581858880657355e-002 1.1893021612015159e-002
      8.3944488213259255e-002 -8.4377691756245723e-002
      -8.8891999743589217e-002 2.3025006366530650e-002
      -3.6186021669050682e-002 -6.3152584995136360e-002
      -1.0445472388434017e-001 -8.9599873861304965e-003
      -7.1063732462124440e-002 1.4610288092489471e-001
      1.2943326339518488e-001 1.2945083144309390e-002
      5.0262493008172288e-002 3.0988319068326706e-002
      -5.9025505244146875e-002 8.1411809994099589e-003
      9.8045287930242031e-002 5.5242184011024834e-002
      -1.8273438176319592e-001 -2.9371676275859564e-002
      5.2608656227774608e-002 1.5450239910659189e-001
      1.0964022588508018e-001 2.5630779813275972e-001
      7.0916689496358903e-002 6.7777802777845599e-003
      1.5289038221080310e-002 -8.0850014350481766e-002
      7.8351846945618447e-002 1.1962167355602045e-001
      8.8758954336995571e-002 -4.4833391754644175e-003
      2.2633264656486796e-002 1.6377449351453274e-001
      -1.1051778057039230e-001 7.0465795826986394e-002
      1.8158122353761108e-001 8.0490334406930791e-002
      -6.6985131359063380e-002 5.3313979682109568e-002
      -3.2623315801008197e-002 -8.0393376042550049e-002
      2.9411806614785554e-002 7.6383490562013365e-002
      -3.6018656234891935e-002 4.5970051690502551e-003
      -5.4912917895280433e-003 1.1956405136742235e-001
      -2.4589287625617216e-002 9.9529353123179190e-002
      2.0702226521091910e-002 -5.2839723061774847e-002
      -2.1039371029555286e-002 2.1666236247299187e-002
      -3.1764226873895331e-002 3.0949540349538913e-002
      9.2274361586545048e-002 1.3587690859529412e-002
      6.1276438590455749e-002 -5.7670465403836784e-003
      2.4154284526598674e-001 -6.5812865066589593e-002
      -1.2232077878151210e-001 7.2274467932755210e-004
      7.9654265542473693e-002 2.5287706208716672e-002
      -2.2098147938365401e-001 -5.0343428108499278e-003
      3.9390257453787721e-002 1.1008204106918749e-001
      6.6158365483023882e-002 2.5887342185579681e-002
      4.1648651218635077e-002 1.0805116485357719e-002
      7.0045304329338434e-002 -3.4134890267250070e-002
      7.9969659911133167e-002 9.7466678096671741e-003
      -5.1242620787594124e-002 -5.1680966796293784e-003
      -1.2610549448921036e-002 -2.5383763929214431e-002
      -1.0318443885293235e-002 1.9059250744558706e-001
      4.2197642580836560e-002 -5.4166175547914940e-002
      2.3966364570798460e-004 -4.0639046887199166e-002
      -2.0578608847789413e-002 1.5847223593907436e-001
      3.5729313204919844e-002 1.7153617724386935e-002
      2.2926307991683267e-001 4.7972474638771200e-003
      -1.8903622975980177e-002 4.6592766407931051e-002
      4.5426219389098021e-002 1.4256312903519319e-002
      -6.8770468158367418e-002 3.5389225511514660e-002
      -1.0813696698042721e-001 -6.1974992350697179e-002
      5.7055461069527635e-002 1.9574900815298325e-002
      3.0486016946698613e-002 9.2717450282911604e-002
      -5.5381036139643645e-002 4.1205796002758532e-002
      -4.0154450497533530e-002 4.6379299852928539e-002
      -1.3327917044145013e-001 -2.8300342044969225e-002
      3.1994747800133472e-003 -1.2219808888473196e-001
      -7.6588406162166455e-003 1.7181212848149392e-002
      7.1914534461240978e-002 -8.6440526228886830e-002
      -9.6107252398917986e-002 4.0343942196251453e-002
      3.7512346640034486e-002 -7.9395116521722205e-003
      7.2707225121090673e-003 -8.5108728841769662e-002
      -1.0982302062714428e-002 3.9955572411462366e-002
      1.7939951160493083e-002 -1.1702087478767483e-001
      -5.5583103556249125e-002 1.6425235796043710e-002
      -9.7284983948416698e-002 1.2064823083903264e-001
      -1.0573234596575677e-001 -8.3363156202249045e-002
      -5.2332904019886529e-002 5.4707228650694847e-003
      3.1059750673135260e-002 -3.3671411582561150e-002
      -2.0061790796550311e-002 6.4604915087128501e-003
      9.9979361542197082e-002 -5.5198596800208652e-002
      -4.9946075384281072e-002 -1.1350401372412899e-002
      3.4294251400255445e-002 -4.3980323178465973e-002
      7.3151396530821672e-002 4.0147292724347691e-003
      -3.2704956313182959e-002 -3.3866458371849290e-002
      3.5399150887639022e-002 -1.1634336374624303e-001
      -3.8689200519788546e-002 5.6668092064339648e-002
      1.0479453536982609e-002 1.6374789421237927e-002
      1.2846995675439399e-001 -1.2363789534982451e-002
      -2.4409120687284083e-003 -2.5614620308855782e-002
      2.8332034595980157e-002 -3.8678437414821507e-002
      -3.0061704292485183e-002 -4.3759549989557202e-002
      6.1891903842505390e-002 5.3140594587546566e-002
      -6.9820502305205211e-003 2.7224717596872321e-002
      3.9172231251215855e-002 -9.5750182433317316e-002
      1.3319668507923352e-002 1.9574726295316505e-002
      -4.5024847058414467e-002 -2.7861783870014641e-002
      -2.3919996301214545e-002 6.5585805802947733e-002
      -6.2185646606745415e-002 -1.6313844402355998e-003
      -3.0531346278272049e-002 2.9673546734588194e-002
      -1.9663985917028920e-002 -4.1089650960350367e-002
      -3.7154720670873741e-002 -3.5650741938700374e-002
      -1.4287445859385672e-001 -1.0731172407717006e-001
      2.9371564070081221e-002 -8.3050012480945373e-002
      -1.6639789159193735e-001 5.5228935838069849e-002
      4.7954811933247424e-003 -7.6141647917565055e-003
      -6.6969571754966040e-002 -6.3753262013445305e-002
      -1.8722472319421329e-001 8.2046848398902403e-002
      5.7707564937979954e-002 4.0928558911292254e-002
      -8.9443827602902246e-002 -3.4253520259948343e-002
      1.1170410661926604e-001 2.3628976584689165e-001
      3.7848485753983356e-002 1.9495825876897699e-001
      2.7082400602029946e-002 4.2485924550962811e-002
      6.6564568018009043e-002 5.3069216951962886e-002
      1.9042471931880293e-002 -1.4833777815400384e-002
      1.1099830714727700e-001 -4.9123927955952343e-002
      -2.3773924849988838e-002 3.8884600444398738e-002
      -9.3947141957884270e-002 -1.9693704131328989e-002
      4.8895187738094106e-002 1.9451139731858379e-002
      2.5351728248354976e-002 6.8136466720277691e-002
      -4.8191806542749363e-002 4.5838590815196791e-002
      -8.4300908240825090e-002 -2.1416603757908124e-002
      5.0482855745564735e-002 -2.7028411870432503e-002
      3.7568827609326732e-003 5.5564313695499488e-002
      4.4582662762506040e-002 4.4448294343903183e-002
      2.2467313419623564e-002 -5.9166078578570161e-002
      -4.2259092350934162e-002 -2.6155183201534975e-002
      -4.0287301815716478e-002 9.3995728324518385e-002
      2.5610724956849646e-002 -8.8568772578879087e-002
      6.1123635759960460e-003 1.2004995097540699e-002
      1.0883528480720006e-001 -2.9756499816834734e-002
      -2.8320110854454825e-003 2.7990680848556385e-002
      -4.9013120173064580e-003 -4.1078615086065931e-002
      -1.4794913901620743e-001 -8.4706507569137446e-002
      4.2553059585212952e-002 2.9824591470141843e-002
      -1.2206619965401970e-001 -2.0490147401944079e-002
      2.6737865226738343e-002 -1.1352708693255342e-002
      1.6212091564690730e-002 7.3360219943814781e-002
      1.9923315745934703e-002 1.0975853364346267e-002
      -2.4138058433405257e-002 2.0990627046715966e-002
      5.3685698663584183e-003 4.6184751361184301e-002
      -2.9257945148586616e-002 1.2566135669619022e-001
      -1.1297581778832787e-002 -6.7317975121209142e-002
      -2.3097105668559516e-002 5.5281558184180554e-003
      -2.9226986526269629e-002 9.6778483159766213e-002
      1.1038349767110726e-001 5.4120651514913895e-002
      1.3195437153892950e-001 -5.1639665826663392e-002
      -4.4595253644573327e-002 1.4777282844054848e-002
      -3.7039327682519586e-002 8.5747706869616722e-003
      -1.2362108343253672e-001 -4.4291784274785263e-003
      -1.7083283532476223e-001 -1.4833188175141954e-001
      1.5961205042441967e-001 4.4218458308514570e-002
      3.3656706395767316e-002 1.0876965129320801e-001
      -2.0046216501310176e-002 1.9225663195060103e-001
      -3.5614124327430934e-002 2.0524535725686383e-002
      -2.4513412081155156e-001 -7.5629510284430226e-002
      -1.7082788610713405e-002 -1.3141523641620173e-001
      3.7729809971031210e-002 1.6222190567431569e-001
      4.8259098633887741e-002 -1.9739012784379187e-002
      -7.4192784625284489e-002 4.1152691907185922e-002
      -4.3631897273921402e-002 -1.0075463331817369e-002
      1.8510662929759565e-002 -8.1830994626720235e-002
      -4.3739885372596323e-003 -4.9643106498408031e-003
      -1.2567567509064815e-002 -3.8178977558708110e-002
      -4.5229468484252897e-002 -5.5826283865855794e-002
      -1.5795419241674569e-001 9.6299783093287614e-002
      -1.3028790726223458e-001 -1.2757089953904524e-001
      -5.4177016404042176e-002 5.6613366741413144e-002
      1.0340307736827938e-001 -2.0925972590545405e-002
      1.9604794415310142e-002 1.7659083055548019e-001
      6.4825001994323103e-002 -3.6835445370995874e-002
      -5.9948041127166625e-002 -9.6655051724369626e-002
      3.8631633776127841e-002 1.4122038408246419e-002
      4.8294206244418457e-002 1.6177159396874953e-002
      -1.1046511436804582e-001 -1.7677552066907451e-002
      1.6037233899727485e-002 2.7887390881818880e-002
      1.6936963053104348e-001 1.7511112666847939e-001
      -1.2929290352271211e-001 3.6321776391173823e-002
      1.6223397341058038e-001 4.7702730678401910e-002
      -2.0404425312590280e-002 1.8711455501143066e-002
      -1.2035726720054558e-002 -1.1963085429059520e-001
      -6.5771357869986224e-002 2.9545147308809253e-002
      -5.9462247622778741e-002 -1.7807211210464788e-002
      7.7214649001707408e-003 8.2602485251513230e-002
      -1.6301631140928665e-002 1.0548332960927839e-001
      1.2703235039049734e-004 -8.4657600590081497e-002
      2.9681843261243946e-002 2.6088551947099237e-002
      -1.0963843057680016e-002 1.6384750147363417e-002
      2.9689715502862309e-002 1.8625518833312196e-004
      -9.9942880329274546e-003 -1.4873520465859357e-002
      1.4848118496756127e-001 -1.6321065700712619e-002
      -1.6036296356850349e-001 1.4785641287175749e-002
      3.9498217060694840e-002 2.3394166994517619e-002
      -1.6412407212668803e-001 -8.3191782389183233e-002
      3.7345949668262629e-002 5.7466184652308190e-002
      -2.3771982645593877e-002 6.2849709472853246e-002
      4.7776558675833983e-002 -1.1181780361377335e-002
      -1.9733165275531363e-003 4.3867119359846432e-004
      3.2850502951217955e-002 5.5033731287502642e-002
      -1.1336803377675674e-001 6.5639520818562662e-003
      1.4174076083028880e-002 -4.1150033608036506e-002
      -1.8988606496330565e-002 1.7909673647078161e-001
      4.2059984562464861e-002 -1.5720135936483418e-002
      -7.9750141273784818e-003 -1.0191444659132833e-001
      2.2239429908137150e-002 1.2646777060372164e-001
      7.8762201154955691e-002 -2.3718639533324763e-002
      1.3493799099427653e-001 1.1517222489701100e-001
      -7.2997909885595041e-002 2.6822144220236897e-002
      1.1441748626578870e-001 8.2748521164466321e-002
      -6.5062477436195823e-002 2.4445829842199021e-002
      -8.6942935833872581e-002 -7.0734500999973804e-002
      3.3887233598708173e-004 4.3451982500104791e-002
      -1.2961869938998461e-002 1.5601796004293103e-002
      -7.6162196541358961e-003 1.0395404318591901e-001
      -1.5337669116571166e-002 9.4407001205431218e-002
      -2.1404840196991549e-002 -9.5864970000017535e-002
      -4.3057412718781857e-002 -1.5777921688802696e-002
      -4.9196689278336446e-002 6.8813083470751171e-002
      1.2883114565707382e-001 -3.7685185519664821e-002
      3.8277089891096426e-002 3.1137456127557653e-002
      1.5154283352485581e-001 -5.0662674765115712e-002
      -2.9065151057506702e-002 3.8970070571359573e-002
      4.1489603361313264e-002 -1.2487607224410974e-002
      -1.7917905948248977e-001 9.6008484596526149e-003
      5.3239334680845948e-002 7.3724048470710818e-002
      -2.2558363928596722e-002 2.1288897628660066e-002
      4.4772522125320999e-002 1.7060653578269733e-002
      -4.5785608664472453e-003 1.6831491350544795e-002
      7.3669077389074827e-002 -2.7216539699639140e-002
      -3.3831047722959258e-002 6.9513793650254948e-003
      5.6730839369146753e-002 -1.1812004995483277e-003
      -5.9026770786879870e-003 1.6543765735145616e-001
      3.8373590492578880e-002 -8.2021485014511522e-002
      9.2522909872071162e-003 -9.1026556223097480e-002
      -3.3748412052561919e-002 1.2454938228334705e-001
      5.2879318069992985e-002 3.4997838474879334e-002
      1.3995040684012069e-001 5.1167725432965348e-002
      -1.1549079735728365e-001 4.2933668804666390e-002
      3.1075981870093937e-002 5.2801650563894229e-002
      -7.5486229465477686e-002 1.7615679032422471e-001
      -1.2195650542664474e-001 -2.9615434834770516e-002
      5.1984544006103250e-002 8.1788616562183687e-003
      5.0023632077868224e-002 1.6987241199161889e-002
      -3.5018744472605251e-002 4.6567011083564029e-002
      -1.4366186827593098e-002 1.2903336362225776e-001
      -9.9496093114474507e-002 -8.4529140936782501e-002
      -3.6524568059369281e-002 -3.6905743643938886e-002
      -7.1367768354111003e-002 4.6257051004968699e-002
      9.7727817769459130e-002 -1.0956651333811636e-001
      -1.1633802887187454e-002 1.6620906051423374e-002
      1.6141591600493554e-002 -4.1811125827535170e-002
      -1.5707808044881269e-001 3.6581147265884358e-003
      1.6261544150005774e-002 -1.8207711847224362e-002
      -8.3161243765093568e-002 -1.0854823690909234e-001
      -8.3974018398474629e-003 4.4786066286085988e-002
      -7.6481684835180933e-002 2.7531680081454998e-002
      -1.0878816039428335e-002 4.2819463548923319e-002
      -5.7827858039535456e-003 -2.1013720520607009e-002
      4.1946870770098031e-002 -3.3103545538035122e-002
      1.9289851492400645e-002 2.6161791893960794e-002
      2.6256564492750861e-002 2.0853854724810161e-002
      -8.1719188214328164e-002 6.6681855337237139e-002
      5.1421014873166832e-002 -6.3576897703713317e-002
      4.9749726862168879e-002 -1.7835687783210685e-003
      -7.4905334514120861e-002 8.8851773228168868e-002
      6.2609775992392480e-002 -6.1741368957596091e-002
      1.3253088961979062e-001 -8.5295850285437950e-003
      -4.6450237815064153e-002 3.8381793443235307e-002
      9.2542180574612803e-002 -1.0880750088581136e-004
      -2.9302169293282478e-002 4.3457747702465759e-003
      -2.0390945979764992e-002 -7.2563811047970869e-002
      8.0942868731979062e-002 -1.5900765527664083e-002
      2.1489191292942935e-002 4.0198060002757705e-002
      -3.0347156579100920e-002 1.0377456060742377e-001
      -1.4136837693782956e-002 3.5873531171920978e-002
      -2.4845182108661077e-002 9.4678429923267006e-003
      1.8045299839197740e-002 -6.1998149720649050e-002
      -8.6761346381397566e-003 8.7501772796783769e-002
      1.4197571675740921e-002 -3.4117883232696058e-002
      -1.0860153935996854e-001 1.6725342279957742e-002
      4.4852955972285023e-002 -2.2289177865523507e-002
      -3.7898984204341998e-002 -4.7152099959996516e-002
      -4.6682520457201337e-002 2.5547548675032089e-002
      3.2016199712138808e-002 -1.4340426854145885e-001
      -1.4760593178007797e-001 4.3683880716276546e-002
      -9.7566355406507987e-002 6.7589799172541737e-002
      -9.8199045864353213e-002 -1.0601062373419737e-001
      -6.8130258667389060e-002 4.7129604951176511e-002
      3.9095975579083203e-002 -9.9510062531169658e-004
      -6.5002649902374046e-002 -1.3439403634011065e-002
      3.1828683286906280e-002 3.9834941561849170e-002
      -1.4049989751752853e-002 9.4680196769682645e-002
      1.1671878239992352e-002 -5.6397071274242390e-004
      3.5242756383777558e-002 6.0074972171356752e-002
      -1.1371646181102745e-002 -3.1199611910645641e-002
      6.7037804144937541e-002 -8.9679316040724252e-002
      -3.4860256801850911e-002 1.7570960364047785e-002
      -2.3706808692900760e-002 1.1203274983161256e-002
      7.0841791513478927e-002 4.4511690748520405e-002
      -3.8886370424033284e-002 -2.2066815991387233e-002
      -3.0377843459043020e-002 -2.7544406545768448e-002
      -6.0843593571178831e-003 -3.9557637059593406e-002
      9.2940403143533162e-002 6.9918080887138565e-002
      -1.6815489283279608e-002 6.7139497687722677e-002
      -6.0545708429801384e-003 -3.8254987926851073e-003
      -8.2031474745905386e-002 -4.9916872794825769e-002
      -8.6429922078626667e-002 -1.2385451297661827e-001
      -2.2628506041594748e-002 1.2968729656003597e-001
      -1.0099462988650380e-002 -3.2709411064663584e-004
      -7.1781051378884381e-002 -2.2623204186744933e-004
      -3.8226786680499460e-003 -2.1863848488835359e-002
      -5.6317299769296310e-004 -3.2678495668529109e-002
      -1.1138969859431178e-001 -1.0218802877070032e-001
      -3.5099946990096539e-002 -1.0641273506429097e-001
      -5.9035072557589038e-002 2.2312152255863850e-003
      -1.2853966366117386e-001 6.4878501981609779e-003
      -8.5481329176617327e-002 -2.9809557583815063e-002
      -1.7759799826986761e-001 8.0018960575880468e-002
      4.9047170017069548e-002 -1.0599542667412667e-002
      -2.1235599262308284e-002 -7.9683277872035774e-003
      1.5325290266525449e-001 1.5015916297609758e-001
      -5.1657971148682633e-002 1.0923716514473231e-001
      6.4408040539883318e-002 -4.0678277965043440e-002
      7.7004800762013034e-002 7.2054836897657071e-002
      8.7200383809331681e-003 1.3062914822822862e-002
      7.5033806522427332e-002 -8.8171665767035876e-002
      -2.8334399771049953e-002 9.3409304517333536e-002
      -5.3891718236174016e-002 6.0764196810315065e-002
      1.4265761754017206e-001 7.9755875170389817e-002
      -3.4690370950741463e-002 -3.5260769725769907e-002
      7.4299805940026095e-002 -3.1638973141777549e-002
      -8.8614891907528776e-002 4.2970275221046905e-002
      -9.8401988705400841e-003 6.1680537957919307e-002
      1.7161011153937873e-002 4.1934325904849093e-002
      -6.1500165512169643e-002 8.2908054840288806e-002
      -2.6339456229661537e-002 1.4895008598904188e-002
      -5.9072417422175220e-002 -6.4215259578744993e-002
      4.5467785071390342e-002 8.2202400034283127e-002
      3.9522996555462287e-003 3.7312417839081562e-002
      5.1284857192894821e-002 -2.3321311716037602e-002
      1.7022807210348281e-001 -3.6977955540734173e-002
      8.8144866920291179e-002 -5.1331852530197210e-002
      -5.0118480954864909e-002 -5.2871003821958515e-002
      -3.1641913070565568e-002 -2.0618088854982938e-002
      -5.7995451800667591e-002 -4.3267260630009399e-003
      -8.8503907196759560e-002 3.7215868128535654e-002
      -4.9661494059077216e-002 -4.4270942690923611e-002
      -9.8398197715953928e-002 1.3946866741499131e-001
      2.0930357726946732e-002 3.1226958889726338e-003
      -3.4367136761167739e-002 2.0734344470701466e-002
      1.1381709517448696e-001 6.8310727798489720e-002
      -3.5709992911752912e-002 6.6353673034681468e-002
      1.2873972601754238e-002 -7.6356048103018256e-002
      1.4187183391431575e-002 2.0462304448435976e-002
      1.5242400116583989e-003 6.2797950809741640e-002
      -1.0535277983646313e-002 -5.9216952368695140e-002
      8.1640541258893598e-002 1.3210582584292346e-001
      -4.0456481540647411e-002 8.1590826767602057e-002
      1.7268246092281497e-001 8.8485003865288889e-002
      -1.5599233297864827e-002 9.9366093533766169e-003
      -9.2748599717175026e-004 -7.9287385048084039e-002
      -8.1604370194332865e-002 -6.4552310706505356e-002
      -2.3543850969333063e-002 5.1555136815343475e-002
      -6.1147748489721876e-004 8.1226094084734621e-002
      -4.7847568315093958e-002 5.6322590442343834e-002
      1.8032409462660492e-002 -2.3634248738508799e-002
      -5.9668447604911551e-002 -1.6771003083189052e-002
      -8.3311073030870313e-004 8.7659230109268599e-002
      3.7246397532291753e-002 -1.5342813321507685e-002
      -5.7089573245215894e-002 -2.7309785792335780e-003
      1.0922205566499804e-001 -3.5494477876951813e-002
      -8.1767631104787880e-002 -1.6890265112062618e-002
      -2.9554630790368075e-002 -3.9815178392325380e-002
      -7.5416515687118948e-002 -8.4767387308951669e-002
      -1.0675572489110889e-001 6.1238772443243175e-002
      -5.7392589789661101e-002 4.1720666973951805e-002
      -2.9725968305082544e-002 -7.5410693602992809e-002
      -9.3205077818565435e-002 5.8383045236889523e-002
      5.3481163697140871e-002 -1.5474307010625665e-002
      -9.9228379095161259e-002 -5.1897460508549244e-002
      9.7447108565971052e-002 9.9011323088520745e-002
      -2.9149802692606728e-002 1.7826176498487201e-001
      6.7688001321186575e-002 -6.6888317166337211e-002
      4.4297028877161977e-002 -7.6839191917691518e-003
      5.8602428663833361e-002 7.0385913703419664e-002
      8.2724302717220047e-002 -1.3713204630250969e-001
      9.4650699871417221e-002 -2.4743461687938444e-002
      6.6216502126828919e-002 4.8012565191429483e-002
      9.0933580876457365e-002 -8.1846862432385734e-003
      -9.5169707843813081e-002 2.8723214149123318e-002
      -1.1443309421873123e-001 -6.6719616435163567e-002
      8.6786629019490136e-002 -6.9170497084134558e-002
      8.4263516622484672e-002 1.2973345651080453e-001
      -7.1419190454440784e-002 5.1378322126661047e-002
      2.5319278836666462e-002 -4.1109542781641070e-002
      -2.2530290257294935e-001 -4.9861527726667007e-002
      -3.8319698259332881e-002 -1.3741457852855271e-001
      -6.0331103128778901e-002 1.3594018040973488e-002
      4.9745982792841752e-002 2.6577181256218227e-003
      -6.3054300776328578e-002 4.5403067678651050e-002
      1.1464215834905631e-002 -3.6916324192166394e-002
      -5.5663987461302231e-002 -4.5848692340860989e-002
      -5.0712218910083699e-002 -1.1643844147893908e-002
      1.6342314987657588e-003 -6.4663475951918570e-002
      -9.5622543328322970e-002 4.7045262283690645e-002
      -6.7669254072953947e-002 6.4545658623443414e-002
      -1.3058537431545850e-001 -6.0207937791737755e-002
      -1.3639889796566637e-001 -2.5629163018277456e-002
      7.7515132816080773e-002 -1.5837151467870084e-002
      -2.0679839142678604e-002 4.8686862740365378e-002
      1.6411365852689744e-001 -3.6449996417141521e-002
      1.0335723868728174e-002 -1.2605728582207201e-002
      7.8141634420332187e-002 3.2159436146972564e-003
      1.5572218868005275e-001 5.4777061457883601e-002
      -3.2507772194141214e-002 -2.4899557714014753e-002
      -6.9536351827399843e-003 -8.7122142587003737e-002
      3.1224251714593637e-001 3.9659649513561185e-002
      -5.3616180480819148e-002 5.7699856795501901e-002
      -5.4164427663498556e-003 -3.6001665350143527e-002
      -7.0143722782083098e-002 2.3513083205982811e-002
      -8.5035800867131361e-002 -8.8335195633298474e-002
      9.7561622776010659e-002 6.6838165596222673e-002
      5.5066621449403663e-002 1.3604533270208958e-002
      -6.7736117998417930e-002 8.6469305956917250e-002
      -5.7118119269375664e-003 9.0469958511939827e-002
      -1.2260833131905209e-001 -5.0444544898955931e-002
      8.2688297059240218e-002 -6.7805740063833692e-002
      -5.8383797883992922e-002 6.8736836901670040e-002
      4.9057871043547918e-002 -1.7562443760134758e-002
      -1.2058723348993021e-001 5.3514738698897599e-002
      7.4178177427970240e-002 -2.2244490700095206e-002
      -6.7701439334343278e-004 1.8889250396599815e-003
      3.1256658027595842e-002 8.2194428568296604e-002
      -1.8297842050480919e-003 -8.8974155268199767e-002
      -4.3938230742948996e-002 -1.3171844502748678e-002
      -8.1041467316419050e-002 1.1599522032498695e-001
      -2.6929444304475501e-002 -5.8092753994152362e-002
      1.3236464540187847e-002 1.0899460412506079e-002
      2.3372183267797109e-002 -7.7988032399302657e-004
      1.2231096092800438e-002 6.9284535149193707e-002
      2.3132493847396580e-002 -5.0217389564785442e-002
      2.5673721598932768e-002 -1.9107326800716477e-002
      -1.5050673590878855e-002 1.4826030349357783e-002
      1.5504395645713315e-002 1.8684461833584284e-003
      -5.4099487577651525e-002 8.7857584681312849e-003
      3.4643659193184219e-002 -1.4804010793456916e-002
      8.3381253126299404e-002 7.1960841392470651e-002
      -1.0542411417559718e-001 2.5985978890634923e-002
      6.5202475481402913e-002 9.9532893851993154e-002
      -5.8554197505678203e-002 -5.1339202039393135e-002
      -7.7534834180511339e-002 -8.4799647646913764e-002
      1.0032465398068018e-001 6.4587447602800094e-002
      -4.0859162223863897e-002 2.7123175776129094e-002
      4.9754828286135047e-002 1.2792980314925684e-001
      -7.6816550977114678e-002 8.0399750451452187e-002
      -6.0902360551583719e-002 -9.0977174590782431e-002
      -5.6818900747036993e-002 -4.5242317272857477e-002
      3.6454807174245700e-002 1.0198883843399355e-001
      7.0948544477895809e-002 -3.8542199326141724e-003
      6.1751164091885587e-002 -1.9055856709261559e-002
      6.0230734810226144e-002 -2.3002646773196108e-003
      -2.3753960098147262e-002 9.5295335975130180e-003
      2.9062629028429234e-002 -6.7289875400947705e-002
      -7.2139544804932565e-002 -1.9203352637393315e-002
      -3.2226429976324046e-003 -4.2775996412840939e-002
      -1.3951518786668080e-001 1.1198426757907196e-002
      7.6051712470907090e-003 -3.1294916577565758e-002
      -5.6757140985147919e-002 6.5787529239119402e-002
      6.3618164144095227e-002 -4.2697105811010092e-002
      3.2547558671627667e-002 8.2120963247411652e-002
      5.1059325152942557e-002 3.4061944327395240e-002
      -1.2021815008174506e-001 2.0304404871401480e-002
      7.7165399672555660e-002 -9.6570213484827402e-002
      -4.9070121674096058e-002 -4.8505281460977490e-002
      -5.0582507530513764e-002 9.2855515594569393e-002
      1.8358592208955263e-002 -2.1126134039835744e-002
      7.0488944717310736e-002 9.1890042598179081e-002
      -1.0014380541842573e-001 1.5808563452298065e-002
      6.9080601601518049e-002 6.5042637562362282e-002
      -5.3079706941108286e-002 3.9763739229745687e-002
      2.3414070758265546e-002 -7.7237942981805224e-002
      -4.8871267820396755e-003 6.7521004327344258e-002
      -1.2355140351838760e-002 1.6615569763041932e-002
      4.3612317595591197e-003 9.5063835257763019e-002
      -3.4546405202962094e-002 2.8438163801624099e-002
      -3.5592513545614395e-003 -9.8751986561923105e-002
      -1.1590237888659618e-002 -6.6649702629177562e-002
      -1.3937125565326008e-002 1.0151949135215875e-001
      4.8043741477280917e-002 -5.0072225207537851e-003
      5.3633783340808474e-003 -1.5073902344855125e-002
      2.9627390678950021e-002 -3.1843102923809492e-002
      -3.2971234617313591e-002 -2.2309615414798343e-004
      -1.2222990673141745e-002 -6.4969702823255079e-003
      -1.3881285922220538e-001 -7.5027032382523007e-002
      1.3901599638071024e-002 3.8185042437103862e-002
      -4.3535976582949366e-002 2.9100404700801226e-002
      -2.2762102304302166e-002 -1.6756523646566115e-002
      -9.6395643545894097e-002 3.4654292087047428e-002
      4.6229686626592423e-002 -1.3038554361509377e-002
      -3.7978036927568543e-002 1.0153936131472158e-001
      7.4186442035790418e-002 -1.8664199320430279e-002
      -3.4529560616702912e-002 9.3581270843196396e-002
      5.4263010241534432e-002 -5.1184245094470365e-002
      3.8072090372950507e-002 -4.5407369888819271e-002
      -4.5029851450362389e-002 9.1259916371148983e-002
      3.8570139275265862e-002 -7.8996936350934095e-003
      9.8839340412349042e-002 -4.2045679577666362e-003
      -8.1714566000921918e-002 2.4401028031651995e-002
      4.8737688846927994e-002 4.8717787704453508e-002
      -2.9008193908449616e-002 8.7134300872097198e-002
      -8.1658203907817348e-002 3.9455640324439982e-002
      4.2825042835533206e-002 -4.6769482464277722e-002
      5.1139574027768107e-002 -8.5273976821897985e-003
      -2.5089678105514282e-002 6.1039591684141040e-002
      -7.0091982330185640e-003 1.3426072405508613e-001
      -4.4298009513853230e-002 -4.3101883550866402e-002
      -5.8377169670252964e-002 -6.2111795263925816e-002
      -7.4805995187063740e-002 1.2003467302482065e-001
      5.5608507549754743e-002 -1.0443417742388107e-001
      -1.6772179590187997e-002 4.8148799081839753e-003
      2.2082794298375227e-002 -4.4879139230593404e-002
      -1.4013619737555985e-001 2.8764296735630860e-002
      -2.7108419301515231e-002 -4.6765544466607092e-002
      -5.1780234776496785e-002 -7.8532467239485398e-002
      -5.1713908884838136e-002 5.1903046426080186e-002
      -1.3515037075280004e-001 -2.3707866189011901e-002
      1.8488920481216746e-003 1.8539108197446856e-002
      -1.9071068851231481e-002 8.2473123178561522e-002
      1.3800815795584027e-002 -4.4530586674821064e-002
      -3.4966040720072408e-002 -1.4765755226801541e-002
      3.4637428800096945e-002 9.9544627078755929e-002
      -5.5329429971599772e-002 8.1280848177995690e-002
      1.9133313830765549e-002 -7.1019901835879223e-002
      3.3242033509230461e-002 2.9507708198250250e-002
      -5.1629487847385511e-002 6.9678513828198937e-002
      8.5653383484627421e-002 -1.6514949589288591e-002
      1.1170463123650949e-001 3.0268587226218190e-002
      -3.2884326672995019e-002 4.3278514911452980e-002
      3.0400126720914803e-002 1.4598784391125582e-002
      -4.9017707712223746e-002 6.7313081578843845e-002
      -8.9940052251820599e-002 -8.4590184118209372e-002
      1.4881517005426859e-002 -8.1562008038583239e-002
      4.8056707710883571e-002 4.7301971979013618e-002
      -3.0480026163514747e-002 1.2970510442681421e-001
      1.2908775711573223e-002 2.3149014551566763e-002
      -5.6055768503019507e-002 -4.9933110326866592e-002
      -3.4940572197820458e-002 -5.2653371403730963e-002
      -4.3147636567495290e-002 1.5432876833256673e-001
      4.1289750087842386e-002 -1.6789230588178512e-002
      -1.0404351823562989e-001 1.3395895056871800e-002
      -1.6814917548249268e-002 -4.0505367862895020e-002
      -1.0961526810467560e-001 -5.7214388357833257e-004
      -4.0404925049841570e-002 -2.4555308540987395e-002
      -7.1599279869691959e-002 -5.1211897037255295e-002
      -6.8158111788546111e-002 4.6748535193755020e-002
      -1.2548602436335413e-001 7.5845699255124152e-003
      -3.5315637406688569e-002 -3.2841550754874924e-002
      -5.3508113198852097e-002 5.8869534453497713e-002
      5.8574730261565768e-002 -1.9768482675220779e-002
      -5.5105397088354532e-002 5.6996527781696685e-002
      6.6288134322567374e-002 2.1758326155175065e-002
      -3.0317755705742119e-002 5.1783042685529641e-002
      5.7684199787752397e-002 -2.5580705939018043e-002
      7.8062639197425329e-002 1.5555408534623434e-002
      9.0195202801997005e-004 5.6274560820539214e-002
      6.0310380975202506e-002 -4.6285628418084077e-002
      4.2227630950996908e-002 -9.1999064912660581e-003
      -4.7583978724376773e-002 1.8191551954570319e-002
      2.2599650514783444e-002 -2.3119674946030537e-003
      -6.4860085887963367e-002 2.4959831439159304e-002
      -5.7497252135846069e-002 -7.8853524837200956e-002
      4.1318201595613856e-002 -1.8867440540790315e-002
      7.6841775158056028e-002 5.0164092528692875e-002
      -3.1907936646719676e-002 1.1259760931483621e-001
      5.2348141364627490e-003 1.2730813957174259e-002
      -1.4614688384174659e-001 -4.2039175457421973e-002
      -3.0381822765171679e-002 -1.2326819685068470e-001
      -1.7104927255036272e-002 1.3755668729470180e-001
      -2.1750307283583395e-003 -2.1990881513056018e-002
      -1.5169071994438948e-001 1.8827207826338312e-002
      3.5793265349817636e-003 -1.2955764832029783e-002
      -4.6812376407560120e-002 -4.6530541971663342e-002
      -5.0299231415114921e-002 -3.2095323596996829e-002
      -4.1523002997678478e-002 -1.0378960003260225e-001
      -6.5095634284924930e-002 -6.9671305547832291e-003
      -1.7578310676738543e-001 4.9364533692219964e-002
      -8.6057036889670160e-002 -7.1757339804279258e-002
      -1.0640438861820647e-001 6.1791155512752542e-002
      3.5080353543163516e-002 -3.6364539299119352e-003
      -3.0781672236454938e-003 6.6602069622102911e-002
      9.1226685798865254e-002 2.1894923276562228e-002
      -2.1978220611785903e-003 1.1277722399321946e-002
      4.0050194275860505e-002 -1.4818784280436068e-002
      8.0433710273900907e-002 5.5738568580397170e-002
      -2.6843252214313232e-002 -2.0566765047083029e-002
      2.7620699262760139e-002 -6.5005130590790147e-002
      2.6269022598879189e-002 3.7510654276254629e-003
      -2.2380667846482176e-002 5.1357323291031584e-002
      2.4831143678024042e-001 2.9566089078775115e-002
      -7.5183944110571131e-003 -2.0642005730122655e-002
      -2.7696838761779693e-002 -2.4221639254260279e-002
      6.1251017288956468e-002 9.5092697817963194e-003
      6.6171070588724901e-002 9.6662091374366807e-002
      -4.8312889564270843e-002 -1.1292438577881108e-002
      -5.2514926092816543e-002 1.1038360859865633e-001
      -1.5485739712300942e-001 5.3362480523502960e-002
      -5.0088379093899640e-002 -6.9836739990720043e-002
      -1.2133491079648517e-002 5.3645228648891756e-002
      4.5176614955355861e-002 -3.4643397671902033e-002
      -1.2843862068061579e-001 4.0093644814847049e-002
      2.0140168610405884e-001 -2.0406980587694398e-002
      5.8621877444431349e-002 -5.7828623935997941e-002
      -9.6079545011480152e-002 -6.1322194047188285e-002
      9.9938816478228637e-002 -1.4298285197400087e-001
      -2.1702179971887081e-001 -2.1744148021297358e-002
      -1.2458679005817870e-001 5.4701304659470103e-002
      -1.3837585711290734e-001 -1.3036732320346262e-001
      -1.6761127392000777e-001 7.9332637558151980e-002
      -4.6120789948692602e-003 -4.3705589454916711e-002
      5.3855385947790699e-002 -7.3689293886532073e-002
      1.4558474917331141e-001 1.5104634936666531e-001
      -1.1096927240660422e-001 1.5614638604942829e-001
      -4.9765847669854598e-004 -9.0493261419232474e-002
      -1.6817831981805003e-004 1.3031582660271882e-001
      -3.1625162147890615e-002 -3.7904738234809797e-002
      5.8032350984254737e-002 -2.5375070782674219e-001
      1.0998109488557528e-001 1.1685337968045259e-001
      1.7658060082991804e-002 5.3756365956433051e-002
      9.0300805032922843e-002 -1.1466825539323325e-003
      -3.7584435484123907e-002 -2.0543560063451545e-002
      4.7342462904603694e-003 -9.3131574491501001e-002
      -2.2226098190261646e-002 -4.8432314859964090e-002
      3.4919257802713674e-003 3.4106495437636587e-002
      -3.4487865977237249e-002 3.8169491797131749e-002
      3.0117307549338838e-002 -8.9467297702270354e-003
      -7.3695202269792773e-002 -2.2879197562889291e-002
      2.7329619480146505e-002 -4.2516251462932052e-002
      -6.6931745511712978e-002 -1.6086771001533343e-002
      -4.0373955740351164e-003 3.6232445011270521e-002
      -2.1771209712470617e-002 4.9122070316432419e-002
      1.8934779741926849e-002 -3.9579412246519619e-002
      -2.2884948018088724e-002 1.8665790934140048e-002
      -3.0106269392172428e-002 2.0601039497286689e-002
      -5.2342449572492122e-002 -8.4956990791840589e-002
      -5.8255193115467035e-002 5.5077914816092761e-002
      6.4681346876516915e-002 8.1703737996367959e-002
      -2.1700118364972983e-002 4.6961745464096918e-003
      -8.3829521170559876e-002 -4.1237553628170762e-002
      5.8259738028544471e-002 3.3117048492291815e-002
      -5.5956341972594859e-002 -2.8639485039870056e-003
      1.0227729571484059e-001 -1.0069862637628707e-002
      6.5259165015195006e-002 1.6496324647047419e-002
      4.3771644949493461e-002 1.9956473798202118e-002
      3.1648400528102076e-002 2.5687714705120813e-002
      5.2487127451378020e-002 4.4461424620638346e-002
      -9.2834064204840513e-003 -5.3943471137401520e-002
      1.0507987774330993e-001 5.2817568473894370e-002
      -3.0997372897490903e-002 1.3752391566651439e-002
      2.1018473537311934e-002 4.0166104808048678e-002
      -5.8183515886616730e-002 5.1820509622263172e-002
      2.4261957485900683e-003 -4.1632141331974605e-002
      -2.1614697151489556e-002 -5.1571466734463910e-002
      5.1335459066591989e-003 -2.2230548908755681e-002
      2.6168252187375178e-003 1.4496468908150895e-001
      -6.5932706785345819e-003 2.8075173302424615e-002
      -1.6648102174527075e-002 -5.0664956756069524e-002
      -2.3547791650424022e-002 -7.0904103086009668e-002
      -3.2015334112228386e-002 1.8496586306813700e-001
      -1.5353878178654570e-002 -4.2701100383256564e-002
      2.9058790744265695e-002 -2.5960497071714484e-002
      -6.2189639736086065e-002 -3.8765251998253390e-002
      -1.3667393621001761e-001 1.5667822227853668e-002
      -7.4199798514791122e-003 1.9471595327068745e-002
      -6.7693098759422879e-002 -7.5858999746662575e-003
      -5.7731604728924552e-002 8.7039830659691425e-002
      -4.4380062696214036e-002 -5.4619919391572938e-003
      8.3435427078180809e-003 -1.8585023849635948e-002
      -7.1864740141534787e-003 8.5600048957046759e-002
      3.5009130993359158e-002 8.8406293667154610e-003
      -1.6614226803702825e-001 1.2106007211070741e-001
      1.6945205691293919e-002 -1.0176928108763753e-002
      3.8226609769341703e-002 -2.8502174116352058e-002
      7.2370244535128983e-002 2.2701585353544149e-002
      1.0872888450809369e-001 -4.5674126572584260e-002
      -1.2027685092262251e-003 4.9654108299722721e-002
      5.7259118682500575e-002 1.5254106153314506e-001
      1.6978911837555452e-001 3.0080358474085119e-003
      -4.7807657376454323e-002 -7.1637239052077864e-004
      -2.1248022054713238e-003 3.6436007519795623e-002
      -4.8975397233560876e-002 -4.6730083776502215e-002
      -8.7051246460273013e-002 -1.8392263999649223e-002
      3.2846662068544967e-002 6.3670221233269653e-002
      6.9352458490285845e-002 4.4407168222337610e-002
      -3.4401978143486785e-002 7.5986381491139510e-002
      -4.5164692033591892e-002 3.7896746952252022e-002
      -3.1973331844703003e-002 -8.6095186375030983e-002
      -1.2369247775841670e-002 -1.2203006953486378e-001
      5.5604349872439007e-002 1.5931996511307486e-001
      5.4743811900100012e-002 1.6427775786363556e-002
      -5.1124934470725504e-002 -1.2283552179706708e-002
      8.8292933937213991e-002 -1.3499450017839166e-002
      4.9638175491568425e-002 -2.9156898567671626e-002
      -1.9359552591312851e-002 -4.3565277003166376e-002
      -5.9900718485876664e-002 -3.5810534507717089e-002
      -3.5569258757742597e-002 -1.1452371897100150e-001
      -2.1986951324720647e-001 1.8210236556524536e-002
      -5.6976200235838069e-002 -9.3770594072515645e-002
      -5.2719479935805599e-002 1.2703460996311933e-001
      3.5163178764858985e-002 -3.3109575457704453e-002
      5.7911466505098666e-002 4.1520698580266448e-002
      9.7163106150313247e-002 5.8669459207327461e-002
      -8.4044095996324342e-002 4.5552800105316760e-002
      1.0001853751022704e-002 -9.5831086489948869e-002
      2.9354135362954392e-002 4.2614334908673808e-003
      -4.4867849321932128e-002 5.4604643172531969e-002
      2.4751286748616552e-002 -6.6161782063449165e-002
      3.5177130382132028e-002 1.9519572085045848e-002
      -6.3036030030351103e-002 5.1162796655592195e-002
      5.1251701894434162e-002 6.2155694753108802e-002
      -4.6303365186276292e-002 6.1117889259853189e-002
      -3.3007067415407973e-002 -4.2252903962457282e-002
      2.4215339502407510e-002 1.2323012095211808e-002
      5.7378878323562553e-002 3.6578076653229999e-002
      -4.3862128686905271e-003 4.5558029799176253e-002
      -2.4557280858183157e-002 4.0451129667342996e-002
      -6.7189005841250746e-002 -4.9744473442641733e-002
      -6.8216236257020973e-002 -6.8799101385182360e-002
      -2.8007039158303753e-002 9.6499068489903223e-002
      4.4586043553199957e-002 5.9406655906143130e-003
      -1.0370676046193091e-001 -1.0494943173628346e-002
      6.3264135960558576e-002 -2.1128225518193683e-002
      4.2302887769897941e-003 1.2157532983146683e-002
      -5.7052756941850524e-002 -6.2577650036069840e-002
      -4.7760175074014741e-002 -1.0214836549920589e-001
      -9.6979293081272566e-002 3.7286982497423155e-002
      -1.4247858371648739e-001 2.1455433956264175e-002
      -1.3414536742072119e-002 3.8960005967741067e-002
      -1.1584116164682896e-001 8.5748683848787352e-002
      1.4097028569724427e-002 -2.6418890783074401e-002
      2.8426789885651251e-002 1.0333845878923538e-002
      1.0583962185910568e-001 8.4818940567344084e-002
      -4.7798569328934531e-002 1.0461200560796795e-001
      5.8873644681522792e-002 -9.7131024073671884e-002
      3.1618638996398274e-002 2.8111182953005482e-002
      -1.6906836393470799e-002 8.5199855556377962e-002
      8.7956461634604924e-003 -9.0297892698608384e-002
      6.3019670385675824e-002 8.6099232765820169e-002
      1.2383134804429799e-002 6.7924052480346914e-002
      1.0226916404676961e-001 4.0502197726318308e-002
      -4.4426748840544712e-002 -3.2724417552139520e-002
      -2.8831444337184743e-002 -9.4894299647390365e-002
      4.3374991928609559e-002 -4.2105182060879105e-002
      -4.1603001310902797e-002 5.4982414935726143e-002
      8.2836377045555094e-003 6.8696370711654367e-002
      -2.2998426041187906e-002 -2.5615638855182400e-002
      -8.4946745647081129e-002 -3.0672815373097056e-002
      -2.3225760104927943e-002 2.8165414639915111e-003
      -1.7002892442654946e-002 4.0118123755311048e-002
      1.2083814355713186e-002 4.8295378806372448e-002
      -1.5582814916736612e-002 3.0891321583002410e-003
      7.3162132054239118e-002 -1.8400941071851966e-002
      -4.2086558663654669e-002 -1.1735614849855197e-002
      1.0541919247152840e-002 9.2155725337468124e-003
      -2.3937212635542920e-002 -2.0133073571792715e-002
      -7.0740030717638708e-002 3.1132464264456226e-002
      -2.7889050088081631e-002 5.2401545905216493e-002
      -2.6415922769614658e-002 -7.2682110308896208e-002
      -5.2920449393664908e-002 1.3911093520951174e-002
      5.1493983490160447e-002 -1.0632219845620405e-002
      -5.4410574153005313e-002 5.7113608001290832e-002
      3.4044018255630228e-002 -5.4033312224113450e-002
      7.4212917659679677e-004 -2.6865915239607522e-002
      6.2950273117044611e-002 7.0306150800439268e-003
      1.0807061850908045e-002 -8.9782737783765335e-003
      1.7788382796155345e-002 2.6694135017117201e-002
      -9.4341564690206218e-003 1.5541710263671888e-003
      1.0048712954900388e-001 9.9335551520682394e-002
      -4.2668735801760449e-002 3.8093565836732776e-002
      1.6282260587946393e-001 1.6658982052143226e-002
      -1.5140566307332744e-002 8.3860304279407116e-003
      -4.5373732378261332e-002 -9.4655042662955560e-002
      -4.0030715435909615e-002 4.0099324933819944e-002
      -1.8264763066654040e-002 7.7998296819836582e-002
      1.1980125723657831e-003 5.5090558355364215e-002
      -2.0322982117548655e-002 5.1622317418672875e-002
      -1.6210241168024100e-001 -1.0753350673386666e-002
      4.4616311628436330e-002 -3.3599027203957785e-002
      -3.8384914027221155e-002 -2.5045798701511853e-002
      1.3237215277543008e-002 -7.3231460435664988e-002
      -3.6636689076893519e-002 3.7200506231499009e-002
      1.2590531442755745e-001 -1.1335102580884037e-002
      -1.0857450242031493e-001 3.0127951012110448e-002
      2.9725524604655071e-003 4.2688913049668910e-002
      1.6303984171235651e-002 -9.0284006818504320e-002
      -5.9751994570980460e-002 9.4391058136789149e-002
      7.1956656686337078e-002 6.4577049548363991e-002
      -5.3206740330239893e-002 -9.5695110313541332e-002
      -3.9571964906673737e-002 -4.4029459246573158e-002
      2.2509172870923060e-002 2.2282009007945053e-002
      -1.2039318197051992e-001 2.4734945288733805e-002
      6.1673760049751690e-002 -3.3207651854441952e-002
      5.0822724059493757e-002 5.2215512228016769e-003
      6.0936022911726083e-002 2.9376812427808215e-002
      9.7957081189133155e-002 -3.1499809484437230e-002
      -2.7834310284520731e-002 -2.4962022427081211e-002
      8.5626638315349390e-002 -7.8239689431975984e-002
      7.5372996000061887e-003 -3.5198425593201202e-002
      -4.3797398934013777e-003 1.2129041691259026e-003
      5.4127032408224137e-003 3.0209473457986635e-003
      -4.4113151219131272e-002 4.4587863608242816e-002
      -5.6739966683678568e-002 3.5793324053251786e-002
      9.2901964427731368e-002 -8.1227944355966863e-002
      9.6912360927553537e-002 1.8917671719029767e-002
      -6.8233571853694552e-002 5.1356989951408513e-002
      1.8352838311713957e-002 4.3528154450086731e-002
      -9.0485314082220797e-002 1.0557147248149526e-002
