<?xml version="1.0"?>
<opencv_storage>
<my_nn type_id="opencv-ml-ann-mlp">
  <layer_sizes type_id="opencv-matrix">
    <rows>1</rows>
    <cols>3</cols>
    <dt>i</dt>
    <data>
      256 25 7</data></layer_sizes>
  <activation_function>SIGMOID_SYM</activation_function>
  <f_param1>6.6666666666666663e-001</f_param1>
  <f_param2>1.7159000000000000e+000</f_param2>
  <min_val>-9.4999999999999996e-001</min_val>
  <max_val>9.4999999999999996e-001</max_val>
  <min_val1>-9.7999999999999998e-001</min_val1>
  <max_val1>9.7999999999999998e-001</max_val1>
  <training_params>
    <train_method>BACKPROP</train_method>
    <dw_scale>2.0000000000000001e-001</dw_scale>
    <moment_scale>1.0000000000000001e-001</moment_scale>
    <term_criteria><epsilon>9.9999997764825821e-003</epsilon>
      <iterations>5000</iterations></term_criteria></training_params>
  <input_scale>
    1.0396996679457547e-003 -2.8131896558228248e-001
    1.0396996679457547e-003 -2.8131896558228248e-001
    1.0396996679457547e-003 -2.8131896558228248e-001
    1.0396996679457547e-003 -2.8131896558228248e-001
    1.0396996679457547e-003 -2.8131896558228248e-001
    1.0396996679457547e-003 -2.8131896558228248e-001
    1.0396996679457547e-003 -2.8131896558228248e-001
    1.0396996679457547e-003 -2.8131896558228248e-001
    1.0396996679457547e-003 -2.8131896558228248e-001
    1.0396996679457547e-003 -2.8131896558228248e-001
    1.0396996679457547e-003 -2.8131896558228248e-001
    1.0396996679457547e-003 -2.8131896558228248e-001
    1.0396996679457547e-003 -2.8131896558228248e-001
    1.0396996679457547e-003 -2.8131896558228248e-001
    1.0396996679457547e-003 -2.8131896558228248e-001
    1.0396996679457547e-003 -2.8131896558228248e-001
    1.0396996679457547e-003 -2.8131896558228248e-001
    1.0396996679457547e-003 -2.8131896558228248e-001
    1.0396996679457547e-003 -2.8131896558228248e-001
    1.0396996679457547e-003 -2.8131896558228248e-001
    1.0396996679457547e-003 -2.8131896558228248e-001
    1.0396996679457547e-003 -2.8131896558228248e-001
    1.0396996679457547e-003 -2.8131896558228248e-001
    1.0396996679457547e-003 -2.8131896558228248e-001
    1.0396996679457547e-003 -2.8131896558228248e-001
    1.0396996679457547e-003 -2.8131896558228248e-001
    1.0396996679457547e-003 -2.8131896558228248e-001
    1.0396996679457547e-003 -2.8131896558228248e-001
    1.0396996679457547e-003 -2.8131896558228248e-001
    1.0396996679457547e-003 -2.8131896558228248e-001
    1.0396996679457547e-003 -2.8131896558228248e-001
    1.0396996679457547e-003 -2.8131896558228248e-001
    1.0396996679457547e-003 -2.8131896558228248e-001
    1.0396996679457547e-003 -2.8131896558228248e-001
    1.0396996679457547e-003 -2.8131896558228248e-001
    1.0396996679457547e-003 -2.8131896558228248e-001
    1.0396996679457547e-003 -2.8131896558228248e-001
    1.0396996679457547e-003 -2.8131896558228248e-001
    1.0396996679457547e-003 -2.8131896558228248e-001
    1.0396996679457547e-003 -2.8131896558228248e-001
    1.0396996679457547e-003 -2.8131896558228248e-001
    1.0396996679457547e-003 -2.8131896558228248e-001
    1.0396996679457547e-003 -2.8131896558228248e-001
    1.0396996679457547e-003 -2.8131896558228248e-001
    1.0396996679457547e-003 -2.8131896558228248e-001
    1.0396996679457547e-003 -2.8131896558228248e-001
    1.0396996679457547e-003 -2.8131896558228248e-001
    1.0396996679457547e-003 -2.8131896558228248e-001
    1.0396996679457547e-003 -2.8131896558228248e-001
    1.0396996679457547e-003 -2.8131896558228248e-001
    1.0396996679457547e-003 -2.8131896558228248e-001
    1.0396996679457547e-003 -2.8131896558228248e-001
    1.0396996679457547e-003 -2.8131896558228248e-001
    1.0396996679457547e-003 -2.8131896558228248e-001
    1.0396996679457547e-003 -2.8131896558228248e-001
    1.0396996679457547e-003 -2.8131896558228248e-001
    1.0396996679457547e-003 -2.8131896558228248e-001
    1.0396996679457547e-003 -2.8131896558228248e-001
    1.0396996679457547e-003 -2.8131896558228248e-001
    1.0396996679457547e-003 -2.8131896558228248e-001
    1.0396996679457547e-003 -2.8131896558228248e-001
    1.0396996679457547e-003 -2.8131896558228248e-001
    1.0396996679457547e-003 -2.8131896558228248e-001
    1.0396996679457547e-003 -2.8131896558228248e-001
    1.0396996679457547e-003 -2.8131896558228248e-001
    1.0396996679457547e-003 -2.8131896558228248e-001
    1.0396996679457547e-003 -2.8131896558228248e-001
    1.0396996679457547e-003 -2.8131896558228248e-001
    1.0396996679457547e-003 -2.8131896558228248e-001
    1.0396996679457547e-003 -2.8131896558228248e-001
    1.0396996679457547e-003 -2.8131896558228248e-001
    1.0396996679457547e-003 -2.8131896558228248e-001
    1.0396996679457547e-003 -2.8131896558228248e-001
    1.0396996679457547e-003 -2.8131896558228248e-001
    1.0396996679457547e-003 -2.8131896558228248e-001
    1.0396996679457547e-003 -2.8131896558228248e-001
    1.0396996679457547e-003 -2.8131896558228248e-001
    1.0396996679457547e-003 -2.8131896558228248e-001
    1.0396996679457547e-003 -2.8131896558228248e-001
    1.0396996679457547e-003 -2.8131896558228248e-001
    1.0396996679457547e-003 -2.8131896558228248e-001
    1.0396996679457547e-003 -2.8131896558228248e-001
    1.0396996679457547e-003 -2.8131896558228248e-001
    1.0396996679457547e-003 -2.8131896558228248e-001
    1.0396996679457547e-003 -2.8131896558228248e-001
    1.0396996679457547e-003 -2.8131896558228248e-001
    1.0396996679457547e-003 -2.8131896558228248e-001
    1.0396996679457547e-003 -2.8131896558228248e-001
    1.0396996679457547e-003 -2.8131896558228248e-001
    1.0396996679457547e-003 -2.8131896558228248e-001
    1.0396996679457547e-003 -2.8131896558228248e-001
    1.0396996679457547e-003 -2.8131896558228248e-001
    1.0396996679457547e-003 -2.8131896558228248e-001
    1.0396996679457547e-003 -2.8131896558228248e-001
    1.0396996679457547e-003 -2.8131896558228248e-001
    1.0396996679457547e-003 -2.8131896558228248e-001
    1.0396996679457547e-003 -2.8131896558228248e-001
    1.0396996679457547e-003 -2.8131896558228248e-001
    1.0396996679457547e-003 -2.8131896558228248e-001
    1.0396996679457547e-003 -2.8131896558228248e-001
    1.0396996679457547e-003 -2.8131896558228248e-001
    1.0396996679457547e-003 -2.8131896558228248e-001
    1.0396996679457547e-003 -2.8131896558228248e-001
    1.0396996679457547e-003 -2.8131896558228248e-001
    1.0396996679457547e-003 -2.8131896558228248e-001
    1.0396996679457547e-003 -2.8131896558228248e-001
    1.0396996679457547e-003 -2.8131896558228248e-001
    1.0396996679457547e-003 -2.8131896558228248e-001
    1.0396996679457547e-003 -2.8131896558228248e-001
    1.0396996679457547e-003 -2.8131896558228248e-001
    1.0396996679457547e-003 -2.8131896558228248e-001
    1.0396996679457547e-003 -2.8131896558228248e-001
    1.0396996679457547e-003 -2.8131896558228248e-001
    1.0396996679457547e-003 -2.8131896558228248e-001
    1.0396996679457547e-003 -2.8131896558228248e-001
    1.0396996679457547e-003 -2.8131896558228248e-001
    1.0396996679457547e-003 -2.8131896558228248e-001
    1.0396996679457547e-003 -2.8131896558228248e-001
    1.0396996679457547e-003 -2.8131896558228248e-001
    1.0396996679457547e-003 -2.8131896558228248e-001
    1.0396996679457547e-003 -2.8131896558228248e-001
    1.0396996679457547e-003 -2.8131896558228248e-001
    1.0396996679457547e-003 -2.8131896558228248e-001
    1.0396996679457547e-003 -2.8131896558228248e-001
    1.0396996679457547e-003 -2.8131896558228248e-001
    1.0396996679457547e-003 -2.8131896558228248e-001
    1.0396996679457547e-003 -2.8131896558228248e-001
    1.0396996679457547e-003 -2.8131896558228248e-001
    1.0396996679457547e-003 -2.8131896558228248e-001
    1.0396996679457547e-003 -2.8131896558228248e-001
    1.0396996679457547e-003 -2.8131896558228248e-001
    1.0396996679457547e-003 -2.8131896558228248e-001
    1.0396996679457547e-003 -2.8131896558228248e-001
    1.0396996679457547e-003 -2.8131896558228248e-001
    1.0396996679457547e-003 -2.8131896558228248e-001
    1.0396996679457547e-003 -2.8131896558228248e-001
    1.0396996679457547e-003 -2.8131896558228248e-001
    1.0396996679457547e-003 -2.8131896558228248e-001
    1.0396996679457547e-003 -2.8131896558228248e-001
    1.0396996679457547e-003 -2.8131896558228248e-001
    1.0396996679457547e-003 -2.8131896558228248e-001
    1.0396996679457547e-003 -2.8131896558228248e-001
    1.0396996679457547e-003 -2.8131896558228248e-001
    1.0396996679457547e-003 -2.8131896558228248e-001
    1.0396996679457547e-003 -2.8131896558228248e-001
    1.0396996679457547e-003 -2.8131896558228248e-001
    1.0396996679457547e-003 -2.8131896558228248e-001
    1.0396996679457547e-003 -2.8131896558228248e-001
    1.0396996679457547e-003 -2.8131896558228248e-001
    1.0396996679457547e-003 -2.8131896558228248e-001
    1.0396996679457547e-003 -2.8131896558228248e-001
    1.0396996679457547e-003 -2.8131896558228248e-001
    1.0396996679457547e-003 -2.8131896558228248e-001
    1.0396996679457547e-003 -2.8131896558228248e-001
    1.0396996679457547e-003 -2.8131896558228248e-001
    1.0396996679457547e-003 -2.8131896558228248e-001
    1.0396996679457547e-003 -2.8131896558228248e-001
    1.0396996679457547e-003 -2.8131896558228248e-001
    1.0396996679457547e-003 -2.8131896558228248e-001
    1.0396996679457547e-003 -2.8131896558228248e-001
    1.0396996679457547e-003 -2.8131896558228248e-001
    1.0396996679457547e-003 -2.8131896558228248e-001
    1.0396996679457547e-003 -2.8131896558228248e-001
    1.0396996679457547e-003 -2.8131896558228248e-001
    1.0396996679457547e-003 -2.8131896558228248e-001
    1.0396996679457547e-003 -2.8131896558228248e-001
    1.0396996679457547e-003 -2.8131896558228248e-001
    1.0396996679457547e-003 -2.8131896558228248e-001
    1.0396996679457547e-003 -2.8131896558228248e-001
    1.0396996679457547e-003 -2.8131896558228248e-001
    1.0396996679457547e-003 -2.8131896558228248e-001
    1.0396996679457547e-003 -2.8131896558228248e-001
    1.0396996679457547e-003 -2.8131896558228248e-001
    1.0396996679457547e-003 -2.8131896558228248e-001
    1.0396996679457547e-003 -2.8131896558228248e-001
    1.0396996679457547e-003 -2.8131896558228248e-001
    1.0396996679457547e-003 -2.8131896558228248e-001
    1.0396996679457547e-003 -2.8131896558228248e-001
    1.0396996679457547e-003 -2.8131896558228248e-001
    1.0396996679457547e-003 -2.8131896558228248e-001
    1.0396996679457547e-003 -2.8131896558228248e-001
    1.0396996679457547e-003 -2.8131896558228248e-001
    1.0396996679457547e-003 -2.8131896558228248e-001
    1.0396996679457547e-003 -2.8131896558228248e-001
    1.0396996679457547e-003 -2.8131896558228248e-001
    1.0396996679457547e-003 -2.8131896558228248e-001
    1.0396996679457547e-003 -2.8131896558228248e-001
    1.0396996679457547e-003 -2.8131896558228248e-001
    1.0396996679457547e-003 -2.8131896558228248e-001
    1.0396996679457547e-003 -2.8131896558228248e-001
    1.0396996679457547e-003 -2.8131896558228248e-001
    1.0396996679457547e-003 -2.8131896558228248e-001
    1.0396996679457547e-003 -2.8131896558228248e-001
    1.0396996679457547e-003 -2.8131896558228248e-001
    1.0396996679457547e-003 -2.8131896558228248e-001
    1.0396996679457547e-003 -2.8131896558228248e-001
    1.0396996679457547e-003 -2.8131896558228248e-001
    1.0396996679457547e-003 -2.8131896558228248e-001
    1.0396996679457547e-003 -2.8131896558228248e-001
    1.0396996679457547e-003 -2.8131896558228248e-001
    1.0396996679457547e-003 -2.8131896558228248e-001
    1.0396996679457547e-003 -2.8131896558228248e-001
    1.0396996679457547e-003 -2.8131896558228248e-001
    1.0396996679457547e-003 -2.8131896558228248e-001
    1.0396996679457547e-003 -2.8131896558228248e-001
    1.0396996679457547e-003 -2.8131896558228248e-001
    1.0396996679457547e-003 -2.8131896558228248e-001
    1.0396996679457547e-003 -2.8131896558228248e-001
    1.0396996679457547e-003 -2.8131896558228248e-001
    1.0396996679457547e-003 -2.8131896558228248e-001
    1.0396996679457547e-003 -2.8131896558228248e-001
    1.0396996679457547e-003 -2.8131896558228248e-001
    1.0396996679457547e-003 -2.8131896558228248e-001
    1.0396996679457547e-003 -2.8131896558228248e-001
    1.0396996679457547e-003 -2.8131896558228248e-001
    1.0396996679457547e-003 -2.8131896558228248e-001
    1.0396996679457547e-003 -2.8131896558228248e-001
    1.0396996679457547e-003 -2.8131896558228248e-001
    1.0396996679457547e-003 -2.8131896558228248e-001
    1.0396996679457547e-003 -2.8131896558228248e-001
    1.0396996679457547e-003 -2.8131896558228248e-001
    1.0396996679457547e-003 -2.8131896558228248e-001
    1.0396996679457547e-003 -2.8131896558228248e-001
    1.0396996679457547e-003 -2.8131896558228248e-001
    1.0396996679457547e-003 -2.8131896558228248e-001
    1.0396996679457547e-003 -2.8131896558228248e-001
    1.0396996679457547e-003 -2.8131896558228248e-001
    1.0396996679457547e-003 -2.8131896558228248e-001
    1.0396996679457547e-003 -2.8131896558228248e-001
    1.0396996679457547e-003 -2.8131896558228248e-001
    1.0396996679457547e-003 -2.8131896558228248e-001
    1.0396996679457547e-003 -2.8131896558228248e-001
    1.0396996679457547e-003 -2.8131896558228248e-001
    1.0396996679457547e-003 -2.8131896558228248e-001
    1.0396996679457547e-003 -2.8131896558228248e-001
    1.0396996679457547e-003 -2.8131896558228248e-001
    1.0396996679457547e-003 -2.8131896558228248e-001
    1.0396996679457547e-003 -2.8131896558228248e-001
    1.0396996679457547e-003 -2.8131896558228248e-001
    1.0396996679457547e-003 -2.8131896558228248e-001
    1.0396996679457547e-003 -2.8131896558228248e-001
    1.0396996679457547e-003 -2.8131896558228248e-001
    1.0396996679457547e-003 -2.8131896558228248e-001
    1.0396996679457547e-003 -2.8131896558228248e-001
    1.0396996679457547e-003 -2.8131896558228248e-001
    1.0396996679457547e-003 -2.8131896558228248e-001
    1.0396996679457547e-003 -2.8131896558228248e-001
    1.0396996679457547e-003 -2.8131896558228248e-001
    1.0396996679457547e-003 -2.8131896558228248e-001
    1.0396996679457547e-003 -2.8131896558228248e-001
    1.0396996679457547e-003 -2.8131896558228248e-001
    1.0396996679457547e-003 -2.8131896558228248e-001
    1.0396996679457547e-003 -2.8131896558228248e-001
    1.0396996679457547e-003 -2.8131896558228248e-001
    1.0396996679457547e-003 -2.8131896558228248e-001
    1.0396996679457547e-003 -2.8131896558228248e-001</input_scale>
  <output_scale>
    5.2631578947368418e-001 4.9999999999999994e-001
    5.2631578947368418e-001 4.9999999999999994e-001
    5.2631578947368418e-001 4.9999999999999994e-001
    5.2631578947368418e-001 4.9999999999999994e-001
    5.2631578947368418e-001 4.9999999999999994e-001
    5.2631578947368418e-001 4.9999999999999994e-001
    5.2631578947368418e-001 4.9999999999999994e-001</output_scale>
  <inv_output_scale>
    1.8999999999999999e+000 -9.4999999999999996e-001
    1.8999999999999999e+000 -9.4999999999999996e-001
    1.8999999999999999e+000 -9.4999999999999996e-001
    1.8999999999999999e+000 -9.4999999999999996e-001
    1.8999999999999999e+000 -9.4999999999999996e-001
    1.8999999999999999e+000 -9.4999999999999996e-001
    1.8999999999999999e+000 -9.4999999999999996e-001</inv_output_scale>
  <weights>
    <_>
      -5.8321810187385232e+001 -8.3673540419481796e-001
      -2.0895237814653864e-001 1.6728800950597009e-001
      -8.9789312882048392e-003 -7.2285984015941684e-001
      3.2905791407346014e+000 -5.3690020705690134e-001
      3.0133021178910195e-002 -9.9160711710858510e-002
      -2.4734110087208253e-001 4.0556439738031164e-002
      4.1042926835689003e-001 4.6747144961734366e-001
      -3.7006167301525417e-001 -3.8700679177941721e-001
      -1.1912125969750566e-001 -2.0904493865420714e-002
      -3.7441903233287177e-001 9.6896612289104267e-001
      -1.3688214429065002e-003 4.6906026891078229e-001
      -5.7816382596776725e-002 -3.1560001557401285e+000
      -6.0524472994317879e-001 -5.8308710361521044e+001
      -8.3417751908350835e-001 -2.0835354130813025e-001
      1.7517632001899783e-001 -2.6871266686517752e-003
      -7.2614952386862752e-001 3.2890482818581499e+000
      -5.3643204991702675e-001 4.1837832304050776e-002
      -1.0141435243227116e-001 -2.4688431013819187e-001
      3.5540645540903554e-002 4.2217754789459988e-001
      4.5801266700608628e-001 -3.6485495962384062e-001
      -3.7973946310295126e-001 -1.2201235442147985e-001
      -1.7905821040801888e-002 -3.6150032309435387e-001
      9.6101028743220351e-001 -1.5071227793581518e-002
      4.6886955060937968e-001 -5.8641522092601400e-002
      -3.1617885597824045e+000 -6.1300222413228822e-001
      -5.8308167676960885e+001 -8.2992766687107822e-001
      -2.0621807396989980e-001 1.7315313204345298e-001
      -1.1997766431886736e-003 -7.2201174656929745e-001
      3.2770789351966934e+000 -5.3791952973260271e-001
      3.4474156134957940e-002 -1.0407073185457962e-001
      -2.4632345200103309e-001 3.7070010580527307e-002
      4.1026875254897827e-001 4.6106205608577494e-001
      -3.7979697301451032e-001 -3.8310009897914055e-001
      -1.2489773189228849e-001 -1.2827537167942705e-002
      -3.6755230629579644e-001 9.6058101030367105e-001
      -1.4740289387684690e-002 4.7593200685432818e-001
      -5.3963539407005469e-002 -3.1567550565348657e+000
      -6.1003838486268447e-001 -5.8318157207753664e+001
      -8.3719749270880295e-001 -2.0888913272705958e-001
      1.7458480297617965e-001 -3.4012472977990038e-003
      -7.2749595577076542e-001 3.2833092699597013e+000
      -5.4095127583086144e-001 2.9365511167987961e-002
      -1.0711873131909590e-001 -2.3803632574707420e-001
      4.7198688673906114e-002 4.1879954577874129e-001
      4.6997749501867198e-001 -3.7860710098494621e-001
      -3.8376288191089158e-001 -1.2366839871404628e-001
      -1.9471660707057897e-002 -3.6878734319849510e-001
      9.6974461517405020e-001 -1.2068909586758797e-002
      4.6752957772923792e-001 -5.6666836018209439e-002
      -3.1647001316440968e+000 -6.1198237728797567e-001
      -5.8310113424828138e+001 -8.2837893411793295e-001
      -2.0743486227250887e-001 1.7261902333932957e-001
      -5.4890735485879777e-003 -7.1749058711091207e-001
      3.2831552030551756e+000 -5.5152104943579627e-001
      3.0415699959830754e-002 -9.8144268591218012e-002
      -2.3726954618884857e-001 4.5346484543749926e-002
      4.1794269284036351e-001 4.6107649081954782e-001
      -3.7435597161487966e-001 -3.7657060271421328e-001
      -1.1304475073686825e-001 -1.4234169705398446e-002
      -3.6411071560169150e-001 9.6733566779305435e-001
      2.8795752168835504e-004 4.8116328730400287e-001
      -5.6169111263060380e-002 -3.1541151153890636e+000
      -6.0631497859751848e-001 -5.8307546152280885e+001
      -8.2964035025497063e-001 -2.0264787206992010e-001
      1.7836224064510883e-001 -8.4206228285757367e-003
      -7.1252415441619021e-001 3.2787783839773641e+000
      -5.4420802974934324e-001 3.6892198203744120e-002
      -1.0618859164067858e-001 -2.4596331814237068e-001
      3.5343526578433676e-002 4.1428431787341985e-001
      4.6800613640422778e-001 -3.7626046515125811e-001
      -3.8382420362858072e-001 -1.1110345147960800e-001
      -6.5996452807313604e-003 -3.6530569975446608e-001
      9.6038611448390332e-001 -8.0433066501186135e-004
      4.7797897904751702e-001 -6.0941176245043686e-002
      -3.1665076550256401e+000 -6.0068626584565210e-001
      -5.8313452426026068e+001 -8.2854647717018393e-001
      -2.0357173755579103e-001 1.6906391051944755e-001
      2.5084594510145454e-003 -7.2024975539670844e-001
      3.2807849784367273e+000 -5.4802404707539942e-001
      3.7308007545779787e-002 -9.8506068469173882e-002
      -2.4382816735637167e-001 4.5361536207069425e-002
      4.0898551298115077e-001 4.7134144709494341e-001
      -3.6992738508679346e-001 -3.8568845718418221e-001
      -1.1951475148210812e-001 -7.8120906830164896e-003
      -3.7090360762505326e-001 9.6970664907392745e-001
      -1.1879256469793835e-003 4.7014376916269834e-001
      -5.9630635702000702e-002 -3.1628332795062839e+000
      -6.0093462308392442e-001 -5.8312285320583577e+001
      -8.3085065946112902e-001 -2.1403904339252591e-001
      1.6741535874006611e-001 -8.5970290861698290e-003
      -7.2579734982771016e-001 3.2789423619070273e+000
      -5.4649160798961083e-001 3.2929535801934057e-002
      -9.6808741717160265e-002 -2.3997758190084659e-001
      3.5741203791162995e-002 4.2088511632202247e-001
      4.6965972748978296e-001 -3.7354760470353388e-001
      -3.8581725273472534e-001 -1.1821423594893972e-001
      -7.0823709216844182e-003 -3.6286355420185584e-001
      9.5942135156307062e-001 -1.3555999285374517e-002
      4.6813044119891739e-001 -6.3347165937644528e-002
      -3.1532429016661361e+000 -6.0990655076430600e-001
      -5.8316163163672307e+001 -8.3131443552062656e-001
      -2.0939617113588785e-001 1.8051178502615065e-001
      3.3832252928791620e-003 -7.2131725209805686e-001
      3.2826045947482281e+000 -5.3720626354064860e-001
      2.9835005181498057e-002 -1.0998134328529470e-001
      -2.5112319405756955e-001 4.2522413377003937e-002
      4.1945235027819633e-001 4.7057964374165040e-001
      -3.7969171661427825e-001 -3.8565950144465133e-001
      -1.1172019109007482e-001 -9.1505144798831629e-003
      -3.6063938181095295e-001 9.6586816557215971e-001
      1.0870568166902511e-003 4.6832895631397192e-001
      -5.9284826256726986e-002 -3.1671435881847443e+000
      -6.0031128292649449e-001 -5.8312491585159442e+001
      -8.2585439575127861e-001 -2.1089347092316832e-001
      1.7447340527540209e-001 -8.2422026437686292e-003
      -7.1995663527035347e-001 3.2778893630282604e+000
      -5.4134398202396938e-001 3.3406838216233775e-002
      -1.1031241549509997e-001 -2.3877361917697443e-001
      4.3497870088229390e-002 4.0856357779777902e-001
      4.6027221036661953e-001 -3.7906316460712441e-001
      -3.8268787018911576e-001 -1.1737865670444873e-001
      -7.1982900710994046e-003 -3.6935869985874448e-001
      9.7216099499735575e-001 1.1034453086906679e-003
      4.7118021414814465e-001 -5.8398997563602416e-002
      -3.1599445799994030e+000 -6.0368531808648207e-001
      -5.8312874166319112e+001 -8.2870787858871509e-001
      -2.0269036531523185e-001 1.7224229514013775e-001
      1.8682720764442975e-003 -7.1884119301433991e-001
      3.2793658060465369e+000 -5.5108435667039457e-001
      4.1357523374839916e-002 -9.9116505323998308e-002
      -2.3742431662893201e-001 3.3816848992516496e-002
      4.2045283597411459e-001 4.7120333949491222e-001
      -3.7724870957936196e-001 -3.7836171874782687e-001
      -1.2317985357146223e-001 -1.5652485820573103e-002
      -3.7082182999621138e-001 9.5947848441637829e-001
      -6.5869128709956882e-003 4.6612374705775889e-001
      -6.2601128461186567e-002 -3.1609232430090795e+000
      -6.0592158590915646e-001 -5.8321490794676087e+001
      -8.2786997008150431e-001 -2.1140085435800246e-001
      1.7158651817199830e-001 2.3588579088791176e-003
      -7.2454809587050528e-001 3.2852101147284336e+000
      -5.4651883665600443e-001 3.2795066694761649e-002
      -9.9956119251633183e-002 -2.4920249267507730e-001
      4.3208949264285451e-002 4.1493970088789850e-001
      4.6665752539996069e-001 -3.7726173065064483e-001
      -3.7706672878824132e-001 -1.1119282506127594e-001
      -2.0108098351082872e-002 -3.7548353411553792e-001
      9.6381120417235711e-001 -8.5677622558016746e-003
      4.6669666721872899e-001 -5.1208368240300138e-002
      -3.1664487341420071e+000 -6.1266453580728186e-001
      -5.8312351983442504e+001 -8.3903982914050890e-001
      -2.1113363383596970e-001 1.7534407471916022e-001
      -2.0624834167272507e-004 -7.2458553074714094e-001
      3.2757627342633060e+000 -5.5004013764071336e-001
      3.1033942258419177e-002 -1.0932413372519974e-001
      -2.4575878574515700e-001 4.6145852005880755e-002
      4.1242620901685961e-001 4.6677705187386148e-001
      -3.7161568765584574e-001 -3.8670288070939196e-001
      -1.1573720472630740e-001 -1.4011469135843380e-002
      -3.6137234398520507e-001 9.6654152281949668e-001
      -1.0175978713035134e-003 4.6666234790269451e-001
      -5.2006927831255066e-002 -3.1555412591188303e+000
      -6.0383692272323064e-001 -5.8314169321881316e+001
      -8.3842326821273505e-001 -2.0070435535828726e-001
      1.7998017418021076e-001 6.0199350895163133e-003
      -7.2031190894227048e-001 3.2881632337813280e+000
      -5.5238330950040027e-001 3.4520162183317160e-002
      -1.0642956852528031e-001 -2.5075402454201490e-001
      3.4710412909302796e-002 4.1402617279174719e-001
      4.5871031149386488e-001 -3.7835543287833973e-001
      -3.7275007275389660e-001 -1.2385377178494877e-001
      -1.4909402316303413e-002 -3.6612152728828867e-001
      9.6737500573168955e-001 -4.1422958413258612e-003
      4.7407670855098044e-001 -5.2609107563542555e-002
      -3.1603074161589837e+000 -6.0766525205257571e-001
      -5.8317058667871358e+001 -8.3357707578172835e-001
      -2.1076450137808952e-001 1.7624402782490592e-001
      -4.3552305574732384e-003 -7.2356203269090202e-001
      3.2840253345212642e+000 -5.3871962717565558e-001
      4.0099955273717736e-002 -9.7127035797382424e-002
      -2.4714752587179914e-001 4.7060395040593145e-002
      4.1536266084547163e-001 4.7072951215209902e-001
      -3.7408094888186949e-001 -3.7477334565125409e-001
      -1.1803514056497084e-001 -1.4339149695546904e-002
      -3.6139843302755903e-001 9.6630324030710479e-001
      -5.2512096100058104e-003 4.6942669160229794e-001
      -5.3232533786019352e-002 -3.1641144207876222e+000
      -6.1283052987687781e-001 -5.8310761544896202e+001
      -8.3453547368331815e-001 -2.1010996571237026e-001
      1.7024293336718352e-001 2.6713025083527726e-003
      -7.2176474257110468e-001 3.2783455475602667e+000
      -5.3983123339433159e-001 2.9260989377688555e-002
      -1.0473766044034306e-001 -2.3914808257285225e-001
      4.6567751410323682e-002 4.1683804676436825e-001
      4.6031057881475701e-001 -3.6611771847271424e-001
      -3.7972707478470991e-001 -1.1478628585379390e-001
      -1.5933948654526738e-002 -3.7055851277556845e-001
      9.6530437096898736e-001 -9.0601122740212661e-004
      4.7881082585937512e-001 -5.2786386594609457e-002
      -3.1602657905420162e+000 -6.0323181830327510e-001
      -5.8315455915454145e+001 -8.2809400979179015e-001
      -2.1353596744991585e-001 1.8112145952239009e-001
      -6.4801280905678795e-003 -7.2804979903362321e-001
      3.2845783882321498e+000 -5.4647403205977962e-001
      3.3795496227009031e-002 -1.0494327799614579e-001
      -2.4854546718939655e-001 4.8324250777459415e-002
      4.1206877003982251e-001 4.7102215957862870e-001
      -3.7513868149832141e-001 -3.7431816177410882e-001
      -1.1495649524392425e-001 -1.0603717376129283e-002
      -3.7496822255510481e-001 9.7114379869214984e-001
      -1.4382198035725850e-002 4.6824495097667046e-001
      -5.5679793822507734e-002 -3.1525147672563110e+000
      -6.1114745171254492e-001 -5.8317598911178443e+001
      -8.2898841908109488e-001 -2.1545819506530964e-001
      1.7762743865567490e-001 -3.5508821403572987e-003
      -7.2331861241203144e-001 3.2805434477233528e+000
      -5.3628234290479759e-001 3.2518620946566518e-002
      -1.0347403228199333e-001 -2.3777050038420047e-001
      4.4427385720477025e-002 4.1866599238504870e-001
      4.5922670194446569e-001 -3.6562731766973455e-001
      -3.8228729012262197e-001 -1.1214538151533050e-001
      -6.6930676479578935e-003 -3.7371663001432831e-001
      9.7273139246980767e-001 -6.3136907936136187e-003
      4.7673398826053220e-001 -5.9424334431908907e-002
      -3.1629231042278203e+000 -6.0287789967423411e-001
      -5.8313322852055570e+001 -8.3465609703597321e-001
      -2.0671002581373546e-001 1.7947972657154340e-001
      -1.1335436192070217e-003 -7.1316745646211088e-001
      3.2888573944723229e+000 -5.5133392523983926e-001
      4.2715850936202254e-002 -1.0630649580879122e-001
      -2.3682235014214584e-001 4.0878166062545157e-002
      4.1213927761656116e-001 4.6853198084519121e-001
      -3.7219756597307740e-001 -3.8451637586518572e-001
      -1.2436172223019575e-001 -1.3761575896047467e-002
      -3.6244706464657772e-001 9.6660744818538313e-001
      -1.3558462633170704e-002 4.8109998351208266e-001
      -5.7219322394096030e-002 -3.1563227115974541e+000
      -6.0634938623661083e-001 -5.8321896917114991e+001
      -8.2620546114622606e-001 -2.0440610440861059e-001
      1.6884352084028373e-001 -3.9309727466280515e-003
      -7.2444557490105232e-001 3.2845518805139391e+000
      -5.3938122587960935e-001 4.3852837982667175e-002
      -1.0999277244859741e-001 -2.5124477417934360e-001
      3.9657742642424193e-002 4.1328978205918326e-001
      4.6756705339513421e-001 -3.7386230316542601e-001
      -3.7801194544871719e-001 -1.2424521898997180e-001
      -1.0682974444469449e-002 -3.7015066941621727e-001
      9.5835747095009793e-001 -5.6722111498382468e-004
      4.6737312667767134e-001 -5.3109173688976559e-002
      -3.1606582269666181e+000 -6.1276632663628294e-001
      -5.8308545852347358e+001 -8.2609699171660833e-001
      -2.1482015130054158e-001 1.7716213738624062e-001
      -1.1669149437532882e-003 -7.1959278681792482e-001
      3.2852925757371563e+000 -5.4911397146037588e-001
      3.1547614617206794e-002 -9.7430784197150858e-002
      -2.4049568085273623e-001 3.4113180954373462e-002
      4.1517190976944335e-001 4.6240941384800871e-001
      -3.7350832835914638e-001 -3.8054185521938366e-001
      -1.2631512850084450e-001 -1.7937751189684371e-002
      -3.6446524759318932e-001 9.6773034361182386e-001
      -5.5125269070663572e-003 4.7050232594739733e-001
      -6.1516798812448044e-002 -3.1576533743052173e+000
      -5.9943497568334903e-001 -5.8315572813506513e+001
      -8.3830644001246246e-001 -2.1276664649993102e-001
      1.7041421384155900e-001 2.0777310091507264e-003
      -7.2385439455349521e-001 3.2855070344132327e+000
      -5.4548031460676227e-001 4.1574619142853292e-002
      -9.7987246974753542e-002 -2.4083730451912125e-001
      4.8208297474272715e-002 4.1138522976210340e-001
      4.6130593997487107e-001 -3.7775788356272311e-001
      -3.7616969127658617e-001 -1.1474673053972705e-001
      -9.4592435632995554e-003 -3.7206988672586516e-001
      9.6020482034820931e-001 -2.9954649706938580e-003
      4.7682380469989233e-001 -5.3939464106430447e-002
      -3.1671104829519683e+000 -6.1167786274781977e-001
      -5.8307855388092555e+001 -8.3005557204506231e-001
      -2.0878577954039154e-001 1.7795767617299355e-001
      -7.5944513933418915e-003 -7.2652068520139035e-001
      3.2847514383539891e+000 -5.4429671042922534e-001
      4.4276877608161985e-002 -9.7851846506941412e-002
      -2.4936063225897501e-001 4.7514937473019631e-002
      4.1591156966298665e-001 4.6525450053908513e-001
      -3.6552012062094819e-001 -3.8641004040226323e-001
      -1.1427518451450831e-001 -1.3386304731649864e-002
      -3.6138878691607762e-001 9.5944158486212860e-001
      -1.2526089362715008e-002 4.7167175186426863e-001
      -5.1399843726569992e-002 -3.1660242678746706e+000
      -6.1316747547475947e-001 -5.8310527045502930e+001
      -8.3565424434975510e-001 -2.0547420470480923e-001
      1.7888772630020003e-001 -4.2653453887492852e-004
      -7.1951291142915386e-001 3.2840749887169820e+000
      -5.3876829605078747e-001 3.6921335386577436e-002
      -1.1148396397360723e-001 -2.4663710069650038e-001
      3.8844337885558883e-002 4.1137633653854050e-001
      4.6957432025405460e-001 -3.7838639145228636e-001
      -3.8464672117769694e-001 -1.1667719004748332e-001
      -1.1639044815309838e-002 -3.6182854496526512e-001
      9.6028460102114210e-001 -8.9261865439390943e-003
      4.7054428808190768e-001 -5.0758527434604871e-002
      -3.1541528445645488e+000 -6.0325261159459687e-001
      -5.8307945502271615e+001 -8.4120229518949341e-001
      -2.1499488895674099e-001 1.7907198053901693e-001
      5.6583606159939896e-003 -7.1691175844873523e-001
      3.2882179548053654e+000 -5.5249908246757606e-001
      4.1384190748072286e-002 -1.0381124147061034e-001
      -2.4485741632799585e-001 3.6588672633658198e-002
      4.1513598570469507e-001 4.6002373076898395e-001
      -3.6776004341689439e-001 -3.8272656310592901e-001
      -1.1561257601396384e-001 -1.9686771157823812e-002
      -3.7331625821806086e-001 9.5728973451689092e-001
      -6.1327507947648774e-003 4.7927865469706427e-001
      -5.9485915966486447e-002 -3.1573240721461273e+000
      -6.0230998728385521e-001 -5.8312345621230953e+001
      -8.3741894123155047e-001 -2.0684790897264929e-001
      1.6974867965756715e-001 3.3909152221293024e-003
      -7.2763746833782550e-001 3.2780093607870344e+000
      -5.4591243458475380e-001 3.7575394235894954e-002
      -1.0507791427104325e-001 -2.4845039779113814e-001
      4.1566024998441448e-002 4.0645826770255716e-001
      4.7050488222870690e-001 -3.7510637342569331e-001
      -3.8649366274385655e-001 -1.1943832568063008e-001
      -8.6823653395927160e-003 -3.6440120670718867e-001
      9.6088027466482251e-001 -3.5653272571386867e-003
      4.7128912590465805e-001 -5.1914126769350886e-002
      -3.1663927427255403e+000 -5.9943438108661540e-001
      -5.8308343330119691e+001 -8.2590233349258080e-001
      -2.0149264941642311e-001 1.6961005452849195e-001
      1.5359477384049144e-003 -7.2303523108309586e-001
      3.2776057220488020e+000 -5.4514164705528800e-001
      3.5035050535307921e-002 -9.8920822786071852e-002
      -2.4908187611939994e-001 3.3680672083826996e-002
      4.1453948316156758e-001 4.6556233987190371e-001
      -3.7500736739970697e-001 -3.7991067706126269e-001
      -1.1868589574875706e-001 -2.0501152963160487e-002
      -3.7598761957706456e-001 9.6191587142077917e-001
      -3.9016739001606821e-003 4.7349163207250994e-001
      -5.1544790606629108e-002 -3.1577483974979708e+000
      -6.0672755023843750e-001 -5.8309485570865640e+001
      -8.3467095362917931e-001 -2.0235089525430958e-001
      1.8016305776283284e-001 -1.0251508153088537e-003
      -7.1718584227664195e-001 3.2880812934010630e+000
      -5.4142016762435974e-001 3.4989213796140617e-002
      -9.9671982692503339e-002 -2.4171224306987277e-001
      3.6726224029931781e-002 4.1782375853877490e-001
      4.7364686726860178e-001 -3.7264414371946775e-001
      -3.7941282609630655e-001 -1.1201173329814286e-001
      -1.6162380045313226e-002 -3.6745153774692446e-001
      9.6886915114802530e-001 -1.4720710193779751e-002
      4.8130164035134709e-001 -5.3905258437009086e-002
      -3.1551595862987027e+000 -6.1262001486494133e-001
      -5.8310563683923753e+001 -8.3695715265200588e-001
      -2.1327554708270038e-001 1.7776021147384793e-001
      -3.3924801869508695e-003 -7.2264973233949359e-001
      3.2860322145956586e+000 -5.4812364685473614e-001
      4.2600308033222872e-002 -1.0718174710604085e-001
      -2.5028640027640459e-001 3.6809229808422522e-002
      4.2199497991697871e-001 4.6656491390395632e-001
      -3.7219459164744506e-001 -3.7918186524975150e-001
      -1.2613421848288534e-001 -6.6073478178857873e-003
      -3.6231019769658468e-001 9.6441028547561103e-001
      -2.8209906926224292e-003 4.7801386544115426e-001
      -5.1200207386034501e-002 -3.1629585912572042e+000
      -6.0878775641713556e-001 -5.8308188351978082e+001
      -8.2792213275333404e-001 -2.0373389157149221e-001
      1.7156995241752362e-001 1.1964030341786247e-003
      -7.1600889845635218e-001 3.2868213167514466e+000
      -5.4412688367264950e-001 3.3207164757788538e-002
      -1.0958886185381968e-001 -2.4671853286424497e-001
      3.9152777781173237e-002 4.1384611921790276e-001
      4.6334381792230622e-001 -3.6748927034852752e-001
      -3.7726894726042481e-001 -1.1640822172045230e-001
      -9.9705305251062033e-003 -3.6638736519737891e-001
      9.6378577558101697e-001 -6.7239098660870919e-003
      4.7184422667982123e-001 -5.9569955685132195e-002
      -3.1628154770398464e+000 -6.1153197302118023e-001
      -5.8310172048997281e+001 -8.2828910442191006e-001
      -2.0244528032675410e-001 1.8097011820286676e-001
      3.3604526053056319e-003 -7.2346145427502484e-001
      3.2896160358280073e+000 -5.5253980022719662e-001
      3.3714243574097164e-002 -1.0736969517814228e-001
      -2.5210081600722661e-001 4.6284778878496718e-002
      4.1789733525135336e-001 4.7290813740057897e-001
      -3.7204662705038982e-001 -3.7704830412771495e-001
      -1.2565838023962619e-001 -1.6222583221624561e-002
      -3.6531206178059156e-001 9.6532504906305772e-001
      -1.4458573622121005e-002 4.8099129695034920e-001
      -6.1592670551298169e-002 -3.1593677117267323e+000
      -6.0952287116518744e-001 -5.8320221360019083e+001
      -8.3212234643454963e-001 -2.0850813410765437e-001
      1.8008821449938975e-001 1.2005639503575626e-003
      -7.2794802741339049e-001 3.2828670136532714e+000
      -5.3965202365535780e-001 4.0273925006088784e-002
      -1.0690683026899529e-001 -2.4950153468503208e-001
      3.7005762191663655e-002 4.1772446556403847e-001
      4.5856503556019074e-001 -3.7042074151949411e-001
      -3.8150018916701567e-001 -1.2378713861366047e-001
      -8.6039945316410162e-003 -3.6962454962513952e-001
      9.6277897619568842e-001 -1.5172607305083759e-003
      4.7829089229062566e-001 -6.3519320734650622e-002
      -3.1644842382188023e+000 -6.0511510343293617e-001
      -5.8318538592348510e+001 -8.4071515755264059e-001
      -2.0212037007077779e-001 1.7071630216576519e-001
      -3.3674311431208664e-003 -7.1501612116062141e-001
      3.2754731536874728e+000 -5.4289566605587458e-001
      4.3239681667682689e-002 -1.1155275676687605e-001
      -2.4140930893928469e-001 4.6757920583400253e-002
      4.1257786948791991e-001 4.7279869144339320e-001
      -3.7337552347330516e-001 -3.8092078106229765e-001
      -1.2304173974475359e-001 -6.4214468879004042e-003
      -3.7098318608097514e-001 9.6039277502183518e-001
      -1.3596918967848847e-002 4.6769095958886214e-001
      -5.9750526966842868e-002 -3.1537292128233974e+000
      -6.0520513977670776e-001 -5.8309110272626306e+001
      -8.3918422940541759e-001 -2.0374824576265890e-001
      1.6728814490751795e-001 -8.5220235478350743e-003
      -7.2346433102244689e-001 3.2908519977909161e+000
      -5.3690679920656392e-001 3.0988820932288184e-002
      -1.0480963755917662e-001 -2.4506733399943498e-001
      4.7850449974024462e-002 4.1614176654377005e-001
      4.6766085456544260e-001 -3.6998689972302345e-001
      -3.8541055409639247e-001 -1.1272430210088909e-001
      -9.4597960622408751e-003 -3.6349348853629726e-001
      9.6173070092035406e-001 -1.5110136123637173e-002
      4.7182865130309887e-001 -5.9972657201715955e-002
      -3.1674967805149072e+000 -6.0804221908277722e-001
      -5.8314215192700452e+001 -8.3570715187422939e-001
      -2.0722767383623322e-001 1.7757248256076766e-001
      -3.7976925232613428e-003 -7.1633641134842407e-001
      3.2897292422538533e+000 -5.4688903972350378e-001
      3.8894600662360612e-002 -1.0938919142285648e-001
      -2.4785155268690806e-001 4.6227990714316852e-002
      4.1604374263907756e-001 4.6267006585893561e-001
      -3.7329304542880992e-001 -3.7503435594916290e-001
      -1.2625331095069850e-001 -1.8905833169740299e-002
      -3.6522423994078557e-001 9.6122762946414675e-001
      -7.1651425086222608e-003 4.7656895131947624e-001
      -5.4586864588374258e-002 -3.1641069201004646e+000
      -6.0103732276507749e-001 -5.8317511995311101e+001
      -8.3972974386743238e-001 -2.0376591486328557e-001
      1.7056424924329314e-001 2.9250900211701984e-003
      -7.1344381904549725e-001 3.2814021293635673e+000
      -5.4637038927097559e-001 4.3847189529401726e-002
      -9.9684425302545579e-002 -2.4075900321060148e-001
      3.8738017569831668e-002 4.1052710745516180e-001
      4.6713602818386346e-001 -3.7997155759205192e-001
      -3.7535365845870483e-001 -1.2096933097931629e-001
      -1.0070100362327795e-002 -3.7083610210320705e-001
      9.6067941949655811e-001 -1.9040259623945377e-003
      4.6646595935045748e-001 -6.4068814403899929e-002
      -3.1617938530198848e+000 -6.0975997295738216e-001
      -5.8320061092123701e+001 -8.3006554326743431e-001
      -2.1497527026863947e-001 1.6797973659436907e-001
      -5.1436803948736506e-003 -7.2088454967978888e-001
      3.2796083761366028e+000 -5.3783771904137523e-001
      2.9772449786906512e-002 -1.1049274567429375e-001
      -2.4956214696414750e-001 4.1460778801846315e-002
      4.1923062417819296e-001 4.6331087408342875e-001
      -3.7993946074827978e-001 -3.8536813210324494e-001
      -1.2347467025831967e-001 -2.0947552329073044e-002
      -3.6272389047964254e-001 9.7256398186570581e-001
      -1.2607812631070428e-002 4.7933091371989173e-001
      -5.6797719211135321e-002 -3.1661319450186589e+000
      -6.0329470042413336e-001 -5.8317649117333836e+001
      -8.3190282007631910e-001 -2.0148113657230463e-001
      1.7012764824471624e-001 5.0461093878374341e-003
      -7.2078256745813896e-001 3.2886034254988341e+000
      -5.4707214378636682e-001 3.5424817989393509e-002
      -1.0584453880490131e-001 -2.4701154779883192e-001
      3.6818442330158879e-002 4.2154117448151313e-001
      4.6808882472558960e-001 -3.7936205928727817e-001
      -3.7625006156487073e-001 -1.1515283516594572e-001
      -2.0297932678443289e-002 -3.6402727368914878e-001
      9.6709354237955880e-001 -1.5017478189532509e-004
      4.7844356195523557e-001 -5.6582339647225137e-002
      -3.1592213806948544e+000 -6.0938390102855478e-001
      -5.8316694875133344e+001 -8.3134794049192273e-001
      -2.0880123351819649e-001 1.7480572240713485e-001
      -6.1651342692927713e-003 -7.2709573804574945e-001
      3.2819629766540657e+000 -5.3802710730261882e-001
      3.3086109081356535e-002 -1.0405174150211545e-001
      -2.4914674892835628e-001 3.3672328462716311e-002
      4.1835618491387955e-001 4.7260363570859532e-001
      -3.7964636110576466e-001 -3.7303510621814817e-001
      -1.1959979377703246e-001 -9.5919389158720982e-003
      -3.6176537354123500e-001 9.5654449714728806e-001
      -2.4024656147163593e-003 4.6887823298940728e-001
      -6.5115478874975388e-002 -3.1543287200581802e+000
      -6.1150674762098489e-001 -5.8317425211416840e+001
      -8.2575958620486933e-001 -2.0471152500529113e-001
      1.7324309778385097e-001 2.5929795783164959e-003
      -7.2229000709545055e-001 3.2909012994271891e+000
      -5.5118061455282485e-001 4.4569551295641802e-002
      -1.0629185451721497e-001 -2.3757125267466397e-001
      3.9173491530783006e-002 4.2004489154443064e-001
      4.6929533541363389e-001 -3.7641531549638341e-001
      -3.7498752215617126e-001 -1.2259885148428402e-001
      -8.1637561001515341e-003 -3.7451346888302828e-001
      9.6359874636422882e-001 -1.3413820398220632e-002
      4.7989202850502150e-001 -6.0367155454047965e-002
      -3.1593498720836619e+000 -6.0504442335265696e-001
      -5.8318612068589921e+001 -8.3101710028640274e-001
      -2.1377517132147947e-001 1.7218081620559830e-001
      -2.7067428405442792e-004 -7.1904962915290493e-001
      3.2821480973599511e+000 -5.5196894273077801e-001
      3.6641712404785531e-002 -9.8752136403918181e-002
      -2.3847251825832716e-001 3.7198772838196864e-002
      4.1734592259181730e-001 4.6391553948137315e-001
      -3.7310517638795992e-001 -3.7641824371374855e-001
      -1.1751632342913369e-001 -1.1159745034062894e-002
      -3.6214689406820810e-001 9.5843093085969078e-001
      -6.4745761662773028e-003 4.7014077106671365e-001
      -6.4881898202500038e-002 -3.1667975274915636e+000
      -6.0329931780557811e-001 -5.8310934770743323e+001
      -8.3420846584467334e-001 -2.0178729557649280e-001
      1.7541226859536937e-001 2.0661567363816679e-003
      -7.1565002836666203e-001 3.2902903379785360e+000
      -5.4586339189112831e-001 3.2085680959442225e-002
      -1.0693501814959479e-001 -2.3926143622895657e-001
      4.2044089278649138e-002 4.2120524658170005e-001
      4.6314463178874121e-001 -3.6840477455338227e-001
      -3.8272607568254435e-001 -1.1136677501015392e-001
      -1.4827372077435248e-002 -3.6290676138970818e-001
      9.6355567330020919e-001 -1.1970088921783403e-002
      4.7474352645519596e-001 -5.8114098627795943e-002
      -3.1636080625795913e+000 -6.1297657032376984e-001
      -5.8307666518285025e+001 -8.3144095092541126e-001
      -2.0642015913876652e-001 1.7730530904347450e-001
      -3.0617021022783268e-003 -7.1797385894869437e-001
      3.2802720099692659e+000 -5.4354491545024752e-001
      3.7799346637977682e-002 -1.1279106233448340e-001
      -2.5178986511609375e-001 3.7577184788746082e-002
      4.1195624255207980e-001 4.7109271900519428e-001
      -3.7027035506833950e-001 -3.8333382464042953e-001
      -1.2298038477991664e-001 -9.6544533358863711e-003
      -3.7560189016620038e-001 9.7227528414684805e-001
      -1.2193880627632311e-002 4.6663707638992741e-001
      -5.9761262741358026e-002 -3.1620783397096686e+000
      -6.0113480428171573e-001 -5.8320734792090796e+001
      -8.3547393072037390e-001 -2.1463154114952912e-001
      1.7114230830596741e-001 -4.8346478634574506e-003
      -7.1247195403046248e-001 3.2784691850902115e+000
      -5.4811525697634955e-001 2.8796170801619662e-002
      -1.0683547921082716e-001 -2.4417473404754211e-001
      4.4886315345518041e-002 4.2198301038899350e-001
      4.7195988882990503e-001 -3.7442525128720006e-001
      -3.7628626242101848e-001 -1.1716579383247962e-001
      -1.7156273281867345e-002 -3.6708632481545278e-001
      9.6305476481574148e-001 -4.4470307625262872e-003
      4.7597593920225750e-001 -5.6744391517989400e-002
      -3.1604976632618418e+000 -6.1118655443991721e-001
      -5.8321910234246111e+001 -8.3801344339910200e-001
      -2.1418388734495561e-001 1.7944593714111420e-001
      -5.1550577288193827e-003 -7.1935138246307617e-001
      3.2809833349913036e+000 -5.5164533655191061e-001
      3.4181969652141264e-002 -1.1262576119948665e-001
      -2.4624565219304259e-001 3.4683406986290161e-002
      4.0784934584328264e-001 4.6386446911787454e-001
      -3.7715396053386874e-001 -3.7496752204385952e-001
      -1.1987069301242247e-001 -9.6593776227757340e-003
      -3.7095668715868224e-001 9.5973560248200229e-001
      -7.2989197896360216e-003 4.8004828534742044e-001
      -6.4452771429221761e-002 -3.1599059155078990e+000
      -6.1087308448665756e-001 -5.8318070184477882e+001
      -8.2818513371399305e-001 -2.0377329900829030e-001
      1.8063360289912803e-001 4.0791997612901719e-003
      -7.1485616626394033e-001 3.2827303997016055e+000
      -5.5084443028895569e-001 4.1431188769965016e-002
      -1.0377218121306110e-001 -2.3942595671129580e-001
      3.4571349598961826e-002 4.2160029630752499e-001
      4.6200248285526246e-001 -3.6715718569103306e-001
      -3.7894098873231030e-001 -1.1603008735583935e-001
      -1.1269969400218492e-002 -3.6681429012697614e-001
      9.5678428358998624e-001 -1.3979726697408249e-002
      4.7421768756625043e-001 -5.6279319452352532e-002
      -3.1530455049165167e+000 -6.0242117417269059e-001
      -5.8308512839156400e+001 -8.2617580771852195e-001
      -2.0896877774815101e-001 1.7866709776897791e-001
      1.5868201435298862e-003 -7.1724324235613324e-001
      3.2798715727747250e+000 -5.3711241562991330e-001
      3.6603092747308774e-002 -1.0256453198564032e-001
      -2.4421996141368849e-001 3.9999041359400828e-002
      4.2073765057040308e-001 4.6136977141940755e-001
      -3.7699689446405571e-001 -3.8406254269547979e-001
      -1.2246686776087919e-001 -1.9413218674467308e-002
      -3.6325239850971514e-001 9.6061696156329091e-001
      -1.1550305300948173e-002 4.7497121592130903e-001
      -5.1245615667170084e-002 -3.1664647960691923e+000
      -6.0717217021193082e-001 -5.8309731112504018e+001
      -8.2928529264388184e-001 -2.0628032704898905e-001
      1.7862048951862444e-001 1.6299819983220363e-003
      -7.2449094703610450e-001 3.2889735474707380e+000
      -5.4466732672510254e-001 3.7338954859480966e-002
      -1.0770244618995346e-001 -2.5171352382232443e-001
      4.3683674557610602e-002 4.1848476842252985e-001
      4.6334428765215824e-001 -3.6593907743644316e-001
      -3.8213720095563053e-001 -1.1862827204583755e-001
      -1.6077114658243959e-002 -3.6251396617253678e-001
      9.6283582328252870e-001 -3.6088869985681379e-003
      4.8082382637509197e-001 -5.6771857724638851e-002
      -3.1674866270706286e+000 -6.0571905157029260e-001
      -5.8316334127415637e+001 -8.3576897288464314e-001
      -2.0474557632049864e-001 1.7437094235927056e-001
      5.2336636965772867e-003 -7.2371335578795937e-001
      3.2816795995396757e+000 -5.3876121485708484e-001
      3.7540152965511331e-002 -1.0337104934972337e-001
      -2.4592286091645163e-001 4.4653896423018341e-002
      4.2170199506481082e-001 4.6334506780808704e-001
      -3.7004471679332396e-001 -3.7553121815530877e-001
      -1.2493981571338296e-001 -7.5420186931507470e-003
      -3.6731505476343074e-001 9.6746026322173895e-001
      -9.7274121452449944e-003 4.7798287830365943e-001
      -6.2762080157626271e-002 -3.1528114671090615e+000
      -6.0608884387169171e-001 -5.8315714908856499e+001
      -8.2901633901918925e-001 -2.0905835655783869e-001
      1.7075333781565868e-001 -4.0273717649972783e-003
      -7.2119085335789124e-001 3.2845825419337591e+000
      -5.4309386261058901e-001 3.4298820355215948e-002
      -1.0784611454551270e-001 -2.4728854715880247e-001
      4.6311324926817027e-002 4.2144285500855466e-001
      4.5936178953388651e-001 -3.7145554945385850e-001
      -3.7829747659259927e-001 -1.1945615357854579e-001
      -1.3144589507570636e-002 -3.6050240893356517e-001
      9.7262407558482766e-001 -1.0666141712839781e-002
      4.7987944042349123e-001 -5.3423602621136913e-002
      -3.1525624433187569e+000 -6.1045546251844629e-001
      -5.8317084091571537e+001 -8.3973845193626862e-001
      -2.1298487646906397e-001 1.7786559241034225e-001
      4.5119536862673892e-003 -7.1731493227914367e-001
      3.2874448388153445e+000 -5.4458319491054286e-001
      3.8460711902339462e-002 -1.1254888546306314e-001
      -2.4703439645422651e-001 3.5817656152370342e-002
      4.1158457573535917e-001 4.7317045134150315e-001
      -3.7077751741102727e-001 -3.7472327094491520e-001
      -1.1825766207060724e-001 -2.1103079108564082e-002
      -3.6326832570413092e-001 9.6298313088564502e-001
      -8.3714008904429461e-003 4.7836088174500241e-001
      -5.7160146337014474e-002 -3.1596390337741251e+000
      -6.0022228404611577e-001 -5.8318884576291829e+001
      -8.3127802792136407e-001 -2.1232841306045000e-001
      1.6808017664626498e-001 5.5543790212643929e-003
      -7.1803420036574561e-001 3.2842611993331201e+000
      -5.3989112576075504e-001 4.4227032294211460e-002
      -1.0985871953161110e-001 -2.5014668080610741e-001
      3.3376911464781195e-002 4.1531310759847101e-001
      4.6895681922986676e-001 -3.7871055831308420e-001
      -3.8093900073058473e-001 -1.2090372041400839e-001
      -1.9398410222493150e-002 -3.6567432584631326e-001
      9.6986678494518730e-001 -1.0051461907338345e-003
      4.7212340176925544e-001 -6.1177797315618405e-002
      -3.1642576308540251e+000 -6.1267515433989728e-001
      -5.8316862215864781e+001 -8.3059307853014586e-001
      -2.0924322109653967e-001 1.6747461813240419e-001
      4.6140160423491835e-003 -7.2820396365144635e-001
      3.2755960466313767e+000 -5.4072123593341948e-001
      3.6167654768849644e-002 -1.0165423495055566e-001
      -2.4261122670961957e-001 3.8197734964244529e-002
      4.1867594917365353e-001 4.6225833444768250e-001
      -3.7742063317233288e-001 -3.8448195750520764e-001
      -1.2268838748055517e-001 -1.3647776622162534e-002
      -3.7446478433711428e-001 9.6725733263648217e-001
      -1.9903634618221953e-003 4.7692216084060962e-001
      -5.2745392149034363e-002 -3.1660541440813619e+000
      -6.0498429586269586e-001 -5.8321587739599970e+001
      -8.2606955454366304e-001 -2.0442008679662108e-001
      1.6820679927408158e-001 4.3737702321686635e-003
      -7.1400533805780242e-001 3.2871029875654618e+000
      -5.4781976375026575e-001 4.2930891359760887e-002
      -1.0683223321853526e-001 -2.4903278815327487e-001
      3.3707554519982003e-002 4.1620677127141886e-001
      4.7301364843751748e-001 -3.7964393814890163e-001
      -3.7612125553337949e-001 -1.1259280115659100e-001
      -1.6776664959886025e-002 -3.6122178958495943e-001
      9.6730949569486968e-001 -7.0551143071888875e-003
      4.8041612849347654e-001 -5.8311594505353996e-002
      -3.1559844337373941e+000 -6.1305186522082245e-001
      -5.8312132940045608e+001 -8.3225881143677438e-001
      -2.0316686677643861e-001 1.7900325660462682e-001
      6.7520623711741466e-003 -7.2183344398583404e-001
      3.2803392725466911e+000 -5.3944540886698589e-001
      3.2552322598050493e-002 -1.0161920512727214e-001
      -2.3725910234833855e-001 3.8582424558224387e-002
      4.1674617224871763e-001 4.6624452454995019e-001
      -3.7133330731604886e-001 -3.7491708828299841e-001
      -1.1244392939823834e-001 -1.6675164233732633e-002
      -3.7156547336936840e-001 9.7033319254897421e-001
      -4.4751826852134220e-004 4.7730004000534559e-001
      -5.2199133794663753e-002 -3.1559758245118599e+000
      -6.0686000094362236e-001 -5.8310714360136380e+001
      -8.2723014602669465e-001 -2.1197308148666386e-001
      1.7800185211484001e-001 -1.0450150960543249e-003
      -7.2311348356309302e-001 3.2883358924774728e+000
      -5.4140348273217664e-001 3.4837757282375731e-002
      -1.0535258859292769e-001 -2.4307982927191332e-001
      3.7905549356877871e-002 4.1235357904554876e-001
      4.6453965229729066e-001 -3.7225724644812952e-001
      -3.7302776547053018e-001 -1.1244580581284981e-001
      -6.5775411082134453e-003 -3.7328798561699261e-001
      9.6282299756430367e-001 -1.2710825690861471e-002
      4.6640127747117283e-001 -5.3451507721465431e-002
      -3.1596924934987469e+000 -6.0153971437468823e-001
      -5.8311368996087388e+001 -8.4011624547641328e-001
      -2.0236073974958238e-001 1.7478755326555098e-001
      -6.5285405083384176e-003 -7.1466725788150076e-001
      3.2857520972036274e+000 -5.4600057210327335e-001
      4.0101638213355217e-002 -1.0530169183043793e-001
      -2.4972294914635498e-001 4.2565133548551320e-002
      4.1834356926915944e-001 4.6247568357370827e-001
      -3.7084630309326538e-001 -3.8675440151510720e-001
      -1.2234498482360763e-001 -7.7584438570848071e-003
      -3.6095383539537323e-001 9.6275419938280360e-001
      6.3563327033954180e-004 4.7385675464771898e-001
      -5.1823076802511490e-002 -3.1658797398778060e+000
      -6.1080376806209424e-001 -5.8320361631473723e+001
      -8.3919690001985114e-001 -2.1066587054864674e-001
      1.7318769652082353e-001 -4.8345154141645839e-003
      -7.1492719973454943e-001 3.2844183177208337e+000
      -5.3765045518455123e-001 3.4618827751195458e-002
      -1.0294198779950232e-001 -2.3728605678798101e-001
      4.3638910589083230e-002 4.0971710051190807e-001
      4.6773079027077735e-001 -3.7304437339047480e-001
      -3.8581502056793338e-001 -1.2153315209411288e-001
      -1.8700547940960970e-002 -3.6952987262388709e-001
      9.5910583644990799e-001 -3.4333704216826414e-004
      4.7174507293996765e-001 -5.5212028033424128e-002
      -3.1600135847765571e+000 -6.0908535927743945e-001
      -5.8307688051144332e+001 -8.2751912291310614e-001
      -2.0416896380683117e-001 1.7062340953316665e-001
      -2.9481961514837623e-003 -7.2653422015800029e-001
      3.2807802187141148e+000 -5.3894969953984706e-001
      4.4026063438366320e-002 -1.1178460719432472e-001
      -2.4782050827882640e-001 3.7548350014994264e-002
      4.2066149084354437e-001 4.6799571145201191e-001
      -3.7540198122177215e-001 -3.7496780329993806e-001
      -1.1322198754797345e-001 -6.0922356131324672e-003
      -3.6382826529306334e-001 9.6747656682804695e-001
      -1.4504415577513594e-002 4.8083703717095588e-001
      -5.5683309307461987e-002 -3.1590944408114967e+000
      -6.0801612048416520e-001 -5.8314907989204947e+001
      -8.3639619358542483e-001 -2.0347797446875573e-001
      1.7591354347846569e-001 -6.0540838083082901e-003
      -7.2715070232704093e-001 3.2817956508610551e+000
      -5.4039959854907382e-001 4.4415484036045255e-002
      -9.7041252939186542e-002 -2.4190935102400413e-001
      3.4634708762028149e-002 4.1422418781226750e-001
      4.6225784127041480e-001 -3.7740620400504554e-001
      -3.8718854844723904e-001 -1.2300611476131813e-001
      -1.1468206170053261e-002 -3.6689023596325387e-001
      9.5714115058292715e-001 -6.0839851098588001e-003
      4.7161804667367996e-001 -6.4401824789422996e-002
      -3.1524723584363894e+000 -6.0052999237272675e-001
      -5.8319383740608693e+001 -8.3501389064034481e-001
      -2.0065866050388012e-001 1.7381963560881150e-001
      -5.5125826661254855e-004 -7.1677229528102404e-001
      3.2824392586068165e+000 -5.4372401716550689e-001
      3.3447260228411241e-002 -1.1264547477800026e-001
      -2.4129677090637222e-001 3.9059927693867263e-002
      4.0720987018758564e-001 4.6354401424879699e-001
      -3.6796037467977338e-001 -3.8123368269290447e-001
      -1.1414919782705575e-001 -1.8862804350405198e-002
      -3.6688417177193433e-001 9.6874899515449353e-001
      -6.1426775855386436e-003 4.7346255539552023e-001
      -6.4652886081130123e-002 -3.1665102432303094e+000
      -6.0828235642465367e-001 -5.8320216680014703e+001
      -8.3585731795763518e-001 -2.0672284769648394e-001
      1.7118166200797622e-001 -1.4103524054882406e-003
      -7.2335714016949315e-001 3.2831293129840478e+000
      -5.5157058608158360e-001 3.6046953882214239e-002
      -1.0053619599798309e-001 -2.3704970293587277e-001
      4.1860218355025319e-002 4.1248475166185522e-001
      4.6694888956340364e-001 -3.7552258318098519e-001
      -3.8328703872218095e-001 -1.1730531039310489e-001
      -6.9179276469855137e-003 -3.6389739834155810e-001
      9.6214480370937983e-001 -1.1650586428095060e-002
      4.7792405436585900e-001 -5.8801832707709625e-002
      -3.1580133567851094e+000 -6.1096996046785967e-001
      -5.8318544449329458e+001 -8.3057353733576356e-001
      -2.1345001564558910e-001 1.7009608069277024e-001
      2.5711324062445342e-004 -7.1239943275189965e-001
      3.2891932927562899e+000 -5.4670727669496832e-001
      2.9612188994969056e-002 -1.0068144892633947e-001
      -2.4118431853267167e-001 3.6894600467210742e-002
      4.1890617437842131e-001 4.6987826511500125e-001
      -3.7294384832154848e-001 -3.8352026212837920e-001
      -1.1826539404246401e-001 -1.4490470063924791e-002
      -3.6610538054907421e-001 9.6714868959104572e-001
      -4.8931470000672652e-003 4.6906107382357970e-001
      -6.2233282398140799e-002 -3.1541685845387186e+000
      -6.0385614720542868e-001 -5.8314150979152565e+001
      -8.3941990972075786e-001 -2.0767943101942618e-001
      1.6920367787001986e-001 -7.2136991411937655e-003
      -7.1434765498550279e-001 3.2855814939640458e+000
      -5.4957667591041881e-001 3.1962816404526945e-002
      -1.0597975760107615e-001 -2.5156881461547886e-001
      4.6722910625494302e-002 4.1549247242193649e-001
      4.6205356538393810e-001 -3.6746298044384185e-001
      -3.7714426713701399e-001 -1.1273367504903205e-001
      -1.6776492498108222e-002 -3.6968746219966664e-001
      9.6929358742962735e-001 -8.5120143587145113e-003
      4.7361942590395462e-001 -5.2061758452539762e-002
      -3.1665813576130954e+000 -6.1202243494234787e-001
      -5.8313655554005742e+001 -8.3396769204207144e-001
      -2.0684220787719301e-001 1.7659895809048662e-001
      -5.4764280462647613e-003 -7.1565485312272492e-001
      3.2772122611238061e+000 -5.4764941103411779e-001
      3.3975716093124358e-002 -1.0871008987511845e-001
      -2.4630789235527209e-001 3.9925303319024358e-002
      4.0909511486036260e-001 4.5878521162869801e-001
      -3.7621746897289865e-001 -3.7973025516135306e-001
      -1.1802797301956276e-001 -1.6946709178021584e-002
      -3.6697941852709076e-001 9.7233487345880343e-001
      -9.1851822461301302e-003 4.7155400971555411e-001
      -5.3513526352206499e-002 -3.1649454842908180e+000
      -6.0259511797381005e-001 -5.8318803689448181e+001
      -8.3874274100832447e-001 -2.0626576658438053e-001
      1.7755047534941945e-001 4.2141251899665746e-003
      -7.1875237503336620e-001 3.2804718371876898e+000
      -5.4492705086724369e-001 4.2743949797998809e-002
      -1.1230505377851265e-001 -2.4849092194900921e-001
      4.4386320749655012e-002 4.0857302880694818e-001
      4.5931932627089989e-001 -3.7370453483371280e-001
      -3.8612548405116265e-001 -1.2651696365196244e-001
      -5.2866268104771229e-003 -3.6194439507818665e-001
      9.6700667603413559e-001 -1.1913351053452585e-002
      4.7944415174237759e-001 -6.3348640749363500e-002
      -3.1591591465137494e+000 -6.0467947012711887e-001
      -5.8309900602133574e+001 -8.3557247341153407e-001
      -2.0294173857998757e-001 1.6744389694477738e-001
      2.6823243270764153e-003 -7.1657094597852655e-001
      3.2803647456698841e+000 -5.5215957403205129e-001
      3.4352993552534267e-002 -1.0728907837189873e-001
      -2.4087174351073146e-001 4.4680430317501491e-002
      4.1312255908998435e-001 4.6257288574183392e-001
      -3.6793335154479689e-001 -3.8318139464074241e-001
      -1.2259853340433209e-001 -1.4520320776872177e-002
      -3.7379187750567106e-001 9.5757035558761405e-001
      -2.0722332120006325e-003 4.6992421086601183e-001
      -6.1393130389805615e-002 -3.1653281468415955e+000
      -6.0140649194712237e-001 -5.8320772461510096e+001
      -8.2866247818473604e-001 -2.0446197834978533e-001
      1.7048189617207524e-001 -1.4314166809630054e-003
      -7.1591949230795771e-001 3.2893637610098554e+000
      -5.4639211483436512e-001 3.3338020414477337e-002
      -1.0704305413182987e-001 -2.4395593813997787e-001
      3.3350430553042015e-002 4.1851504629905462e-001
      4.6699672195274244e-001 -3.6975223120442058e-001
      -3.7560806166560690e-001 -1.2437123636664386e-001
      -7.0931889676573356e-003 -3.6428311961865983e-001
      9.6926709142059408e-001 -1.2169198795359795e-003
      4.6776764937827126e-001 -5.3822727207516720e-002
      -3.1612273257493801e+000 -5.9932527363556820e-001
      -5.8321021629884136e+001 -8.2737801200371286e-001
      -2.0391197009165410e-001 1.6646709098358112e-001
      -5.9039234339881771e-003 -7.2715688490328434e-001
      3.2783579861488845e+000 -5.4734657507862094e-001
      4.2241520965416585e-002 -1.0455742739053393e-001
      -2.4969136230015851e-001 3.9033447916769354e-002
      4.1213449955272435e-001 4.7215181498856834e-001
      -3.7688742163104438e-001 -3.7772301624590277e-001
      -1.1824048552065620e-001 -1.3312337518059325e-002
      -3.7081449170564879e-001 9.6544154389997272e-001
      -1.3803509013087283e-002 4.7574657015298488e-001
      -5.2269076670153590e-002 -3.1616044933230190e+000
      -6.1258423704547582e-001 -5.8316207064514821e+001
      -8.2719543736957135e-001 -2.0695577160290177e-001
      1.7592128654527342e-001 -4.8632183510249217e-003
      -7.1571870518723979e-001 3.2833869381391181e+000
      -5.4187113575081736e-001 4.4319351124897904e-002
      -1.0791155751660443e-001 -2.4124101947815083e-001
      4.4803415423349563e-002 4.0912780241044960e-001
      4.6411273941266296e-001 -3.7271648687475190e-001
      -3.7877153658896745e-001 -1.1780660277188594e-001
      -1.2230503819562300e-002 -3.6427873609441086e-001
      9.6412472032989482e-001 -1.3179855529632871e-002
      4.7380845852776093e-001 -5.2084907338683338e-002
      -3.1621342027042876e+000 -6.0391341856116365e-001
      -5.8319281211172928e+001 -8.3127092206188369e-001
      -2.1031547270300496e-001 1.7849776551858662e-001
      -9.0447185855428939e-003 -7.2444221463246894e-001
      3.2899216838725782e+000 -5.5263228779193374e-001
      3.5215466214505969e-002 -9.6703131747120710e-002
      -2.5182830154547403e-001 4.1561136341072530e-002
      4.2068050454540257e-001 4.5800086511478255e-001
      -3.6460742036466154e-001 -3.7285168705860439e-001
      -1.2186960067390008e-001 -8.5694607682402259e-003
      -3.6884025840283097e-001 9.6514954885684368e-001
      -7.3530789615484536e-003 4.6980155860577316e-001
      -5.0942042407956599e-002 -3.1551011477732018e+000
      -6.0191464293987940e-001 -5.8320426261330432e+001
      -8.3366601461074974e-001 -2.1531681398085947e-001
      1.7861350002909096e-001 -2.0827126506556097e-003
      -7.1339991651207457e-001 3.2771050539699886e+000
      -5.4264377499512906e-001 3.4521946239761070e-002
      -9.7998881174971755e-002 -2.3833341427360377e-001
      3.6702571148462454e-002 4.1565420900180655e-001
      4.6558440313690036e-001 -3.7338976201643426e-001
      -3.7953669932006107e-001 -1.2630985428463284e-001
      -1.9132229374115444e-002 -3.7349880584786904e-001
      9.5934446231805226e-001 -7.7761793195805628e-003
      4.7534266606498371e-001 -6.4462042320042420e-002
      -3.1567763750911411e+000 -6.0065488002049927e-001
      -5.8312030139977274e+001 -8.2930271569955549e-001
      -2.1070816795785416e-001 1.7594669083889450e-001
      -4.8422368912698476e-003 -7.1681470324623975e-001
      3.2796400809628854e+000 -5.4620214940542600e-001
      3.2968649683185608e-002 -1.0043639214486029e-001
      -2.4698879108422864e-001 3.7505369519909154e-002
      4.1712655247518010e-001 4.6979197432535619e-001
      -3.7810005053938267e-001 -3.8323408830761985e-001
      -1.1962031307668809e-001 -1.2111617645169010e-002
      -3.6719929676224244e-001 9.6000802539787122e-001
      -2.1045035492287104e-003 4.7922695181255165e-001
      -6.3004835421075572e-002 -3.1668616559632161e+000
      -6.1302089116253733e-001 -5.8307508952282255e+001
      -8.3873841398899696e-001 -2.1548701299871112e-001
      1.7597121725042195e-001 -2.4134432023777846e-003
      -7.1786945493499399e-001 3.2864475423507415e+000
      -5.4344900080065606e-001 3.5293691448216757e-002
      -1.0839560626083845e-001 -2.3953018144423571e-001
      4.5528180810759961e-002 4.1088820995415615e-001
      4.6911178516929569e-001 -3.7636463212150462e-001
      -3.7398726834944307e-001 -1.2538913145461902e-001
      -2.0796482046429882e-002 -3.6451354667749836e-001
      9.6676104725083034e-001 -1.9081167038315727e-003
      4.7471002236917009e-001 -5.6163914730425958e-002
      -3.1650863115330421e+000 -6.0044774755546437e-001
      -5.8313423933898726e+001 -8.3101238186663207e-001
      -2.1205192045115720e-001 1.7097583266752289e-001
      -7.7039178933177100e-003 -7.2385292317272909e-001
      3.2817175153585532e+000 -5.3693355471517479e-001
      4.3438841594296757e-002 -9.8475182490726412e-002
      -2.4016646839343578e-001 3.4757258259224516e-002
      4.0725239202908942e-001 4.6104269411870274e-001
      -3.7599958366311370e-001 -3.8642921498522720e-001
      -1.1589342716779498e-001 -1.1860767451695026e-002
      -3.6171287827375931e-001 9.6255390482915359e-001
      -5.6839710421106833e-003 4.7619422531487748e-001
      -5.7995289005398964e-002 -3.1605268880118018e+000
      -6.0563892417571819e-001 -5.8318352989439454e+001
      -8.3002947393545978e-001 -2.1044836716127999e-001
      1.8080001229844153e-001 -8.6937504962194458e-003
      -7.1919707818848044e-001 3.2835253263744630e+000
      -5.4568763578018953e-001 3.1145422045605518e-002
      -1.0235804461479527e-001 -2.4176594890160247e-001
      4.5547162365839361e-002 4.1356614544521669e-001
      4.6499066067509881e-001 -3.7106133116055595e-001
      -3.8660960278579659e-001 -1.2082126120022284e-001
      -1.5672263891241777e-002 -3.6975159447425515e-001
      9.6735178701082380e-001 -4.0361709501282204e-003
      4.6764278019402777e-001 -6.2831129783471912e-002
      -3.1554258312533965e+000 -6.0198146569369915e-001
      -5.8317876887645888e+001 -8.3366760955662012e-001
      -2.1332013970797978e-001 1.7231103690380181e-001
      -5.0905850673374862e-003 -7.1619411927955867e-001
      3.2862098794514636e+000 -5.3773340122661017e-001
      3.4940147428951684e-002 -1.0184091474489788e-001
      -2.4804951211648832e-001 3.6069123964809796e-002
      4.1379171969753864e-001 4.7168648596398011e-001
      -3.7500029776509547e-001 -3.8218830621070488e-001
      -1.1486729405027850e-001 -9.4844399417440030e-003
      -3.7468626072198341e-001 9.7103735973908789e-001
      -6.2439001138982131e-003 4.7759492840066003e-001
      -5.7535380477825145e-002 -3.1604360034339662e+000
      -6.0675380164769410e-001 -5.8314642078888873e+001
      -8.2774507859274016e-001 -2.0281948474313358e-001
      1.6740512038553698e-001 3.2628251903885908e-003
      -7.1713179985301956e-001 3.2844817305043761e+000
      -5.5221557905838858e-001 4.1640673589093152e-002
      -1.0712032625060759e-001 -2.4994385343359252e-001
      4.0114843630419200e-002 4.1536331809871668e-001
      4.6544491090832191e-001 -3.7726645724914476e-001
      -3.8679052774922495e-001 -1.1279094527896734e-001
      -1.9452257884847373e-002 -3.7179053220965314e-001
      9.6447655985857839e-001 -9.8610644720020270e-003
      4.7550931306661420e-001 -5.1341410658234686e-002
      -3.1571737829840751e+000 -6.1150364179731731e-001
      -5.8310925806942187e+001 -8.2794107901273117e-001
      -2.1162841305318839e-001 1.6913542818399316e-001
      6.7272397417293562e-003 -7.2205310722601102e-001
      3.2756097430554614e+000 -5.4400278019292359e-001
      3.6176401766964739e-002 -1.0010626191976714e-001
      -2.4994060255853132e-001 3.4526829641842310e-002
      4.0935347683123396e-001 4.7268242242101294e-001
      -3.7217449665050617e-001 -3.8622599303374960e-001
      -1.2514369915980003e-001 -9.4544837945067829e-003
      -3.7304643554733702e-001 9.6034584472383211e-001
      -1.0764820771534376e-002 4.7961776643382098e-001
      -6.3135692103082106e-002 -3.1580195494345502e+000
      -5.9962296843938467e-001 -5.8320551651072329e+001
      -8.3059239574392074e-001 -2.1522641224681119e-001
      1.7162673332174574e-001 -6.1955671038521464e-003
      -7.1473594150333564e-001 3.2888418168946862e+000
      -5.4393523218177009e-001 4.2562940067279148e-002
      -1.1138372641169460e-001 -2.4842574140620671e-001
      3.5799049051327275e-002 4.1341593302855179e-001
      4.7215749611044294e-001 -3.7411502771271044e-001
      -3.8275816283863562e-001 -1.2162142706531033e-001
      -1.4025808716128952e-002 -3.7366920653455410e-001
      9.6361374158270274e-001 8.0064127378010096e-004
      4.6837871238351253e-001 -5.0506067869351488e-002
      -3.1625628949561744e+000 -6.0571167453976160e-001
      -5.8320642205344491e+001 -8.3762847577723554e-001
      -2.0290310778860196e-001 1.8109538570341951e-001
      2.8330372351854068e-003 -7.1334430978851127e-001
      3.2828144131545911e+000 -5.4476037302445690e-001
      2.8954090777275225e-002 -1.0513683292785626e-001
      -2.4888333213655833e-001 4.2124006620551296e-002
      4.1813779504857457e-001 4.6920176489237808e-001
      -3.7106373836075168e-001 -3.8037345145507928e-001
      -1.1409500436732574e-001 -1.3969667465979142e-002
      -3.6473212994440218e-001 9.6819064041543723e-001
      2.4758134818490428e-004 4.8081160192702416e-001
      -6.2422736374245662e-002 -3.1675114134428202e+000
      -6.0917020768762753e-001 -5.8317745870312812e+001
      -8.2997975617942998e-001 -2.0247305863404233e-001
      1.8034134039942371e-001 -8.1790073520850576e-003
      -7.1433962258577099e-001 3.2761531851774666e+000
      -5.3758738071472612e-001 4.2650937132846206e-002
      -1.0935051587375140e-001 -2.3927874813623984e-001
      3.4382437101857205e-002 4.2141569171476051e-001
      4.6121734383447716e-001 -3.7634710696595131e-001
      -3.7363797588404102e-001 -1.2128418598716602e-001
      -1.8385608857728480e-002 -3.7521488514853518e-001
      9.7212121407270846e-001 -1.9514090535893826e-003
      4.6906379842463680e-001 -6.2864975127105122e-002
      -3.1614008635272377e+000 -6.0879746060994389e-001
      -5.8313769813226621e+001 -8.3116914386268170e-001
      -2.0754890297053016e-001 1.7785881761843500e-001
      1.6805412390706982e-003 -7.1247652263149441e-001
      3.2830649480544278e+000 -5.5301759576670717e-001
      3.0982750521130052e-002 -9.9487643834824460e-002
      -2.5079365751323029e-001 3.8680670075146889e-002
      4.1390523372389393e-001 4.6827080096836277e-001
      -3.6929159758785890e-001 -3.7452868728861832e-001
      -1.2262492750819416e-001 -1.8712977517442424e-002
      -3.7500829021563453e-001 9.6431327574437564e-001
      -4.6419536445719287e-003 4.7539650760803448e-001
      -5.6021638183061155e-002 -3.1581076188458099e+000
      -6.1281010892109167e-001 -5.8315787198682820e+001
      -8.3274331158045078e-001 -2.0171417066447819e-001
      1.7251711310446230e-001 -8.9361561424309687e-003
      -7.1675292145498726e-001 3.2863143200286840e+000
      -5.4958994967170050e-001 3.4106020096718870e-002
      -9.8253950187479913e-002 -2.4873068081715757e-001
      4.5958991803900756e-002 4.1128290658478178e-001
      4.6664539727763632e-001 -3.7859913736078865e-001
      -3.7873721224362267e-001 -1.2624860653964401e-001
      -6.8439477237526971e-003 -3.6496788864110419e-001
      9.6950504630356515e-001 -7.9198481390741968e-003
      4.7043598791686175e-001 -5.2201478465994287e-002
      -3.1621561354617640e+000 -6.0835462875578161e-001
      -5.8321463184052867e+001 -8.3401496537480346e-001
      -2.0627249942412759e-001 1.7760545196843122e-001
      3.5784941539192820e-003 -7.2059089512201147e-001
      3.2783151491149138e+000 -5.4121567091917822e-001
      3.9142398863351635e-002 -1.1014045341683100e-001
      -2.5180647872786316e-001 4.3901560773985909e-002
      4.1080225799834830e-001 4.7260051746866349e-001
      -3.7749753038719980e-001 -3.7627400961685076e-001
      -1.1108727272067394e-001 -6.0195118329527163e-003
      -3.7147392491219383e-001 9.6683671241151881e-001
      -5.8400598217459255e-003 4.6949602868945789e-001
      -5.2935159582014800e-002 -3.1624964425951152e+000
      -6.0495637199474184e-001 -5.8313640197900263e+001
      -8.3505430212200782e-001 -2.0679094176140597e-001
      1.6948392838871715e-001 -6.1698282309945451e-003
      -7.2602481814488651e-001 3.2866851626196838e+000
      -5.4684050217834368e-001 3.2712003654167238e-002
      -1.0566274392428583e-001 -2.4030310315577832e-001
      4.4374606175664938e-002 4.0789449453690135e-001
      4.5924694859371462e-001 -3.6509884088197553e-001
      -3.7330656047996191e-001 -1.1322842439096291e-001
      -6.8745736749240066e-003 -3.6255130324772439e-001
      9.6276377169726779e-001 -1.3468197064632360e-002
      4.8017471460667055e-001 -6.4828609895565464e-002
      -3.1607004149753894e+000 -6.0036760793566746e-001
      -5.8316930947515964e+001 -8.2583882949582299e-001
      -2.1476113584359138e-001 1.7856562602146062e-001
      -3.9752211784392175e-003 -7.1374626814435671e-001
      3.2785673393568762e+000 -5.4422657104992167e-001
      3.9555995949554112e-002 -1.0528578397335493e-001
      -2.4996022366994142e-001 4.7539813434104988e-002
      4.2027717796383629e-001 4.7312237680875086e-001
      -3.7478755351464688e-001 -3.8461184155054617e-001
      -1.2507004086393878e-001 -5.1375170298355909e-003
      -3.7403441164337492e-001 9.6044267559495233e-001
      -7.5877682578468905e-003 4.7696306534227356e-001
      -6.4765570895370050e-002 -3.1569830741021443e+000
      -6.1116280471854878e-001 -5.8317597953785118e+001
      -8.3210431507607396e-001 -2.1002705931991719e-001
      1.7336289523354539e-001 6.3502476644415311e-003
      -7.2778464307525526e-001 3.2813733290413434e+000
      -5.5014904774451623e-001 3.2032023042991659e-002
      -9.9245551256876854e-002 -2.3850355427987591e-001
      4.3131782775586297e-002 4.2112102717884586e-001
      4.6379331350953673e-001 -3.7112928534978706e-001
      -3.7700523342817938e-001 -1.2315436774469675e-001
      -1.9213845700248571e-002 -3.7345305676928237e-001
      9.7242896470105600e-001 -4.6293708102039495e-004
      4.7439752563429421e-001 -5.8536955117369630e-002
      -3.1642061623582545e+000 -6.1015927700813044e-001
      -5.8308078648431412e+001 -8.2824393899948567e-001
      -2.0870551000558477e-001 1.7961940076342106e-001
      -4.2182077943305508e-003 -7.2453455505693998e-001
      3.2759193373790096e+000 -5.5075720800996686e-001
      2.9214650194830154e-002 -1.0372279568059707e-001
      -2.4738123282315147e-001 4.3397333080790218e-002
      4.1154951402700907e-001 4.7234920305295064e-001
      -3.7002726637009786e-001 -3.8392729746726473e-001
      -1.2066859538143722e-001 -6.0516482950472615e-003
      -3.7032815231885335e-001 9.7248510195287174e-001
      -2.9350109526280047e-003 4.7157242162634588e-001
      -6.3152057053828523e-002 -3.1564269397527478e+000
      -6.1109357923843033e-001 -5.8321873717450011e+001
      -8.3035819086309881e-001 -2.1016127484220717e-001
      1.7463589161156087e-001 6.3048980768501909e-003
      -7.1985740828426903e-001 3.2897669754973253e+000
      -5.4592424263494532e-001 3.5406071410091944e-002
      -9.9552626797601032e-002 -2.3941108361391616e-001
      3.5456564366758508e-002 4.0688473496702010e-001
      4.6821734996849534e-001 -3.7307835859260852e-001
      -3.7873967642706907e-001 -1.2418745103148725e-001
      -9.9444754842471957e-003 -3.7005569742476713e-001
      9.6690830529976313e-001 -2.2111654272654198e-003
      4.7207607285627268e-001 -5.5670622435510492e-002
      -3.1537328321136679e+000 -6.0060905981745261e-001
      -5.8318853872874193e+001 -8.2910323924127005e-001
      -2.0914053210764347e-001 1.7091024153260878e-001
      -5.2718435682545060e-003 -7.1237694956574327e-001
      3.2758528538679754e+000 -5.4037624679370033e-001
      3.5662983327401865e-002 -1.0010713139972906e-001
      -2.3909336610874471e-001 4.2234100322520979e-002
      4.1979317449549763e-001 4.6661582829100551e-001
      -3.7534508957570145e-001 -3.7498746289884421e-001
      -1.2295298299306863e-001 -1.7944059227891541e-002
      -3.6321547659648906e-001 9.7177092970103907e-001
      -1.5219402909515717e-003 4.7601975661288604e-001
      -6.1678947189215218e-002 -3.1577028562449359e+000
      -5.9882785303639441e-001 -5.8309985656802091e+001
      -8.3897553043634654e-001 -2.0612633306666459e-001
      1.7891622999667681e-001 -4.3143741695571064e-003
      -7.2015911310266056e-001 3.2773402627959141e+000
      -5.5276702740860828e-001 3.1870137169115915e-002
      -1.0159352230474429e-001 -2.4749150536146394e-001
      3.3963549721410385e-002 4.1616734303535979e-001
      4.6256164798035315e-001 -3.7940322476140398e-001
      -3.7926872409029777e-001 -1.2047710404293417e-001
      -1.4014831461923439e-002 -3.7260738820581440e-001
      9.7275963720671188e-001 -1.0916700047844261e-002
      4.7868631875896567e-001 -5.5866053164537355e-002
      -3.1541341655452082e+000 -6.0951673583783839e-001
      -5.8316172038596427e+001 -8.3463941953081189e-001
      -2.1446697391137418e-001 1.7185358453586799e-001
      -2.0395512439538134e-003 -7.1668606652869182e-001
      3.2872854261181197e+000 -5.4534204897385319e-001
      3.5526693186291369e-002 -1.0394895392979205e-001
      -2.4398994219915124e-001 4.1300090406698381e-002
      4.0952607319692408e-001 4.6542841883107056e-001
      -3.6501927287831082e-001 -3.8497700610287999e-001
      -1.2428503245761939e-001 -1.4215640578639416e-002
      -3.7417563332254561e-001 9.6716105339425895e-001
      -6.4568384641975488e-003 4.7186131988073715e-001
      -6.0981861765243388e-002 -3.1523231059271035e+000
      -6.0335663633350578e-001 -5.8309731659520544e+001
      -8.2748909667398107e-001 -2.1469056599886313e-001
      1.6915219294914188e-001 6.0735789301348767e-003
      -7.1784588839979446e-001 3.2858509460785243e+000
      -5.4966362145365955e-001 4.1516113766070256e-002
      -1.0035768195408563e-001 -2.4303190792768961e-001
      3.9306463948220266e-002 4.2044413420878651e-001
      4.7044889115778887e-001 -3.7631496453548019e-001
      -3.8442254858887404e-001 -1.1247733056080457e-001
      -1.9071613975497708e-002 -3.6050730272720394e-001
      9.6767991074859294e-001 -3.6792505770105637e-003
      4.7836440741530711e-001 -5.3574777339621328e-002
      -3.1538173052128178e+000 -6.0166876530424318e-001
      -5.8315842074568344e+001 -8.4077624837902021e-001
      -2.0296469942318404e-001 1.7305853381664690e-001
      -2.9968711523858790e-003 -7.2057366996325656e-001
      3.2780953539035482e+000 -5.3766825891155834e-001
      2.9245062577025131e-002 -1.0873872926161328e-001
      -2.5050734112646600e-001 3.6194406067494050e-002
      4.0805480779226760e-001 4.7305975352061097e-001
      -3.6499816838817190e-001 -3.8336231843484081e-001
      -1.1966704583691636e-001 -1.2343593971062373e-002
      -3.7271815245282702e-001 9.6648667639353181e-001
      -4.2697861862384954e-003 4.7713643831367719e-001
      -6.1203903456160967e-002 -3.1644212600509145e+000
      -6.0098509954272994e-001 -5.8320835682188196e+001
      -8.2813424528653246e-001 -2.1079877039877162e-001
      1.6988791002837852e-001 -2.4612255966496284e-005
      -7.2127887970262017e-001 3.2884352891894459e+000
      -5.4580120952943778e-001 3.9755874960601123e-002
      -1.0221465901708156e-001 -2.3986691136973337e-001
      4.4301811805341013e-002 4.1053227574942169e-001
      4.6046871655566740e-001 -3.7186807790550636e-001
      -3.8125334456317417e-001 -1.1847478786878481e-001
      -1.1803193985569050e-002 -3.7384489243121172e-001
      9.5703921771318945e-001 -3.6605938397140632e-003
      4.7557164029494531e-001 -5.1534698476513117e-002
      -3.1653933318133229e+000 -5.9901951434549505e-001
      -5.8315567602910200e+001 -8.3567653961102684e-001
      -2.0435718913052195e-001 1.7552955912972687e-001
      3.5661940397471487e-003 -7.2719757877270119e-001
      3.2774671297712055e+000 -5.4200787709561371e-001
      3.2802804956759718e-002 -1.0177207399687573e-001
      -2.4834683524610773e-001 3.6629708171837888e-002
      4.2198359397945012e-001 4.5989769737231162e-001
      -3.7677830905574883e-001 -3.7501797699925465e-001
      -1.2624026140939507e-001 -5.9928914269501742e-003
      -3.7104010761608008e-001 9.6172613935981921e-001
      -1.3226339128838699e-002 4.7658689030165752e-001
      -5.1914164487503377e-002 -3.1662321586306725e+000
      -6.0191236252499192e-001 -5.8318560578576061e+001
      -8.2689571933156891e-001 -2.1531060264964161e-001
      1.6867742405389749e-001 -6.8511959704503460e-003
      -7.1805000761400439e-001 3.2894120162986833e+000
      -5.5287048030206098e-001 3.7248098285317999e-002
      -1.0123765980409834e-001 -2.4737189864722961e-001
      3.6710687537592129e-002 4.1133717097486650e-001
      4.5878459506868263e-001 -3.6908717837895799e-001
      -3.8501371569539367e-001 -1.1406956123797614e-001
      -1.7859045458717675e-002 -3.6264204678349948e-001
      9.6666506047965661e-001 -3.8663789660542888e-003
      4.7515962024040476e-001 -6.3374884324104847e-002
      -3.1592317792836728e+000 -6.1029964020833305e-001
      -5.8313564685304634e+001 -8.3511914818347599e-001
      -2.0324349544545886e-001 1.7630992961775580e-001
      -1.8567075023630448e-004 -7.2144015934511452e-001
      3.2815611950982633e+000 -5.3881315426010201e-001
      4.4669998909741354e-002 -1.0032558091838630e-001
      -2.4551117547951554e-001 3.7571381866491033e-002
      4.1150374833111253e-001 4.7137723201963044e-001
      -3.7437776588467098e-001 -3.7609574678541990e-001
      -1.2069710558878573e-001 -7.4194840755656176e-003
      -3.6246688614993516e-001 9.6397843817740991e-001
      -1.1286622165501799e-002 4.7169203827262668e-001
      -6.3137859476847066e-002 -3.1573486712709413e+000
      -6.1171211606580134e-001 -5.8319435219000134e+001
      -8.3305409462139646e-001 -2.1337852557664996e-001
      1.7762175497211932e-001 -9.0229868321930456e-003
      -7.2546030154040797e-001 3.2786410839218632e+000
      -5.5187652213080585e-001 3.0484011374819230e-002
      -1.0371694633317514e-001 -2.4787971142207138e-001
      4.3791863835440453e-002 4.1004279997785847e-001
      4.7362746338022182e-001 -3.8022107606739486e-001
      -3.7585705954947413e-001 -1.2440501532937280e-001
      -5.7663661160786460e-003 -3.6309952284793989e-001
      9.7260568585539342e-001 -1.1624497614230324e-002
      4.7338342970434605e-001 -5.9010507610083140e-002
      -3.1521754149895651e+000 -6.0869297646287679e-001
      -5.8317565716423481e+001 -8.3911467328281519e-001
      -2.1513057241554454e-001 1.6731248688960429e-001
      -2.6541641785841064e-003 -7.1280670070994279e-001
      3.2782022860134181e+000 -5.5002059492902033e-001
      3.1875777276427285e-002 -9.9111886787388095e-002
      -2.4418400313194136e-001 4.4584897313450972e-002
      4.1832215231602649e-001 4.7190582734151948e-001
      -3.6931308102277893e-001 -3.7454119108158690e-001
      -1.2264280070655838e-001 -1.5692290765432881e-002
      -3.6976664412775490e-001 9.6100219050574132e-001
      -9.1608662086834700e-003 4.6774146409036760e-001
      -5.0509309947510982e-002 -3.1612645596002609e+000
      -5.9877567540669052e-001 -5.8309374399652832e+001
      -8.4091097933019043e-001 -2.1127399264471322e-001
      1.7243684967604203e-001 5.4492764064375098e-003
      -7.1788845796874123e-001 3.2883239741788537e+000
      -5.4118977133786961e-001 3.8777831904717508e-002
      -1.1007156337323877e-001 -2.4860131969106655e-001
      4.0478721587335592e-002 4.1191213592883819e-001
      4.6400182383774419e-001 -3.7592580403675080e-001
      -3.7571143761834036e-001 -1.1130428082225043e-001
      -2.0710985143919915e-002 -3.7496197123090386e-001
      9.6953880357590383e-001 -1.0029207645708184e-003
      4.7480724359236298e-001 -5.3515417605094463e-002
      -3.1564286768653247e+000 -6.0525589780798150e-001
      -5.8310841658393137e+001 -8.3510840407931175e-001
      -2.0643920143564168e-001 1.7009238494976495e-001
      -6.5063473259641905e-003 -7.1698136042424232e-001
      3.2908020730108070e+000 -5.3878458912802685e-001
      3.7366334794304346e-002 -9.8844021134891449e-002
      -2.4657368972059021e-001 3.7426032391715408e-002
      4.1832920448353644e-001 4.7115015141674960e-001
      -3.6974950826463548e-001 -3.8153055897453758e-001
      -1.1209549519069685e-001 -1.9770357821714404e-002
      -3.6198912145976653e-001 9.6788967668476500e-001
      -5.6904232734961398e-003 4.6950501687282270e-001
      -5.1941326979694578e-002 -3.1555764547037559e+000
      -6.1251291447042588e-001 -5.8321469070816455e+001
      -8.3551306034611761e-001 -2.0283491559618758e-001
      1.7786278344637116e-001 -7.9394798493751092e-004
      -7.1701511425490283e-001 3.2764549570408215e+000
      -5.3652717625942725e-001 3.0022700264819145e-002
      -1.1097670321316279e-001 -2.4606623387487611e-001
      4.0026038463488539e-002 4.0698676929823935e-001
      4.6975809161353643e-001 -3.7409586708693532e-001
      -3.8694408831070737e-001 -1.2211140674539823e-001
      -1.4402127643639819e-002 -3.7082933621953479e-001
      9.5860798292991722e-001 -3.0919886801832812e-003
      4.7642297673823703e-001 -5.3367087626839178e-002
      -3.1606043231919094e+000 -6.0972398058537292e-001
      -5.8320205201038682e+001 -8.4077924862527853e-001
      -2.0332260076323991e-001 1.7896754759997355e-001
      3.9445039981386770e-003 -7.2657788372498877e-001
      3.2901531525848005e+000 -5.4425805254296700e-001
      3.8056584072313659e-002 -1.1218952437992714e-001
      -2.4442002865418669e-001 4.3247480898577245e-002
      4.2066656123135776e-001 4.7133301241778175e-001
      -3.7216879482708409e-001 -3.8377526789357275e-001
      -1.2576189552083153e-001 -8.5484878437789881e-003
      -3.6285856722945697e-001 9.6159245580176755e-001
      -5.8511669571225345e-003 4.7517560669153863e-001
      -5.1098684953838534e-002 -3.1562006256418442e+000
      -6.0882307639861799e-001 -5.8321454449904969e+001
      -8.2880526482069405e-001 -2.1210799911312675e-001
      1.7489700746456618e-001 1.1285594906411218e-003
      -7.2060953086867241e-001 3.2849704153859780e+000
      -5.4544351986812190e-001 3.7146698616215446e-002
      -1.0829217161255890e-001 -2.4629357148659439e-001
      4.1095720807237918e-002 4.1781158702638682e-001
      4.6157682698896146e-001 -3.6989619687769193e-001
      -3.7488716766626962e-001 -1.2115249288295500e-001
      -5.5506664938662952e-003 -3.7433317959873075e-001
      9.6996220327494043e-001 -3.8706491876240312e-003
      4.6870653022454928e-001 -5.4375851476666133e-002
      -3.1575715088268925e+000 -6.0205226536809042e-001
      -5.8319722110802097e+001 -8.3420466349872291e-001
      -2.1122380272902050e-001 1.7892647407449205e-001
      2.5643108973756341e-003 -7.1835275675314181e-001
      3.2909684436014559e+000 -5.5039909665799025e-001
      3.8690841149661426e-002 -9.6826199251507997e-002
      -2.4983567798616835e-001 4.5643397093542287e-002
      4.0891718404617644e-001 4.6921359364069010e-001
      -3.7900780538889689e-001 -3.8648061595527849e-001
      -1.2087053067012139e-001 -8.8981865138891315e-003
      -3.7365717053243591e-001 9.7275411188740313e-001
      -2.8206116557837322e-003 4.7458605332120202e-001
      -5.5310759213499212e-002 -3.1529141579698856e+000
      -6.0045511858928713e-001 -5.8311239219698287e+001
      -8.3461207040543506e-001 -2.1551797274916254e-001
      1.6689085799421935e-001 -3.2591515410207994e-003
      -7.1396609128440902e-001 3.2791796784078353e+000
      -5.4181578296523447e-001 3.8673667144993762e-002
      -9.6863026312260805e-002 -2.3687340569847501e-001
      3.9663526446390512e-002 4.1925906429172183e-001
      4.6470950806171757e-001 -3.7843973145646581e-001
      -3.8160356045724253e-001 -1.2565170416601015e-001
      -1.1089430924293795e-002 -3.6275040661360375e-001
      9.6312792918367385e-001 -1.1241856094875709e-002
      4.7709616923469006e-001 -5.5328669713766217e-002
      -3.1583371143134245e+000 -6.1004378121809621e-001
      -5.8308214432460922e+001 -8.3440702586486060e-001
      -2.0230256421466072e-001 1.7334860279618627e-001
      2.7923940315562829e-003 -7.2763399686371155e-001
      3.2862337407814306e+000 -5.4980264870685713e-001
      4.3305094951076289e-002 -9.7901831662100605e-002
      -2.5017940070475436e-001 4.4386790411276161e-002
      4.1828264244347174e-001 4.6470977915764838e-001
      -3.6468903501989813e-001 -3.7550413561220786e-001
      -1.1695665101516252e-001 -1.8094114090409109e-002
      -3.6871725771201186e-001 9.6671116158114911e-001
      -9.1400956205263291e-003 4.7137007123065450e-001
      -5.8527993700095995e-002 -3.1581232773864456e+000
      -6.0590980758514212e-001 -5.8310402319979282e+001
      -8.3624647940239294e-001 -2.1002390850574246e-001
      1.7449096057384697e-001 -3.6631118713244429e-003
      -7.2112656662361152e-001 3.2834027947392728e+000
      -5.4421150787513939e-001 3.5608052053513695e-002
      -1.1003410378360630e-001 -2.5195087439819186e-001
      3.5946038554292153e-002 4.1926607295566437e-001
      4.7349449990166248e-001 -3.8035536068143538e-001
      -3.7848779500558483e-001 -1.1521837797257624e-001
      -1.6786856874489966e-002 -3.6510730642083777e-001
      9.6855700626981656e-001 -2.6292746421850322e-003
      4.7497854971912662e-001 -5.6120881545187844e-002
      -3.1583668250949040e+000 -6.1312086975229663e-001
      -5.8307353370960961e+001 -8.2745371580572280e-001
      -2.1513865386674033e-001 1.7932454301526848e-001
      -8.7433718928063339e-003 -7.2582170244369504e-001
      3.2819981184246205e+000 -5.4541970572575860e-001
      3.5788257185115524e-002 -1.0890459795651371e-001
      -2.4047066801375891e-001 3.5141119568990492e-002
      4.2208969936537871e-001 4.6044254924933453e-001
      -3.7311130771540713e-001 -3.7959669928564099e-001
      -1.2334481074922916e-001 -1.2201502783523933e-002
      -3.6799519138387932e-001 9.6939293572189889e-001
      -2.1984574547989221e-003 4.7970285260861850e-001
      -5.8223046902898805e-002 -3.1578600583165666e+000
      -6.0113736000482598e-001 -5.8317336125343637e+001
      -8.2781663865532773e-001 -2.1034882489404580e-001
      1.6939587129963765e-001 -8.9326844277342454e-003
      -7.2755906430864514e-001 3.2784245195437616e+000
      -5.4247083664188978e-001 3.1482092777631476e-002
      -1.0974309160829450e-001 -2.4143151601914803e-001
      3.7459901775868581e-002 4.1595599017557122e-001
      4.6793396455834357e-001 -3.7631785338859958e-001
      -3.7660418900083659e-001 -1.2486739147433459e-001
      -8.2815015406800876e-003 -3.6037044966063497e-001
      9.6126154541738296e-001 -5.4840335234942203e-003
      4.6756409087098122e-001 -5.9569247297069777e-002
      -3.1650063648099742e+000 -6.1284829107310801e-001
      -5.8316026462316948e+001 -8.2980586257610311e-001
      -2.1071934233954218e-001 1.6707467418241631e-001
      -2.6179111078940293e-003 -7.2647942309383251e-001
      3.2828694057464891e+000 -5.4163542515171403e-001
      3.0373370217323246e-002 -1.0283488532924341e-001
      -2.3768743345746954e-001 4.5911281325290126e-002
      4.1609053517654232e-001 4.5846456435536226e-001
      -3.7682869095021920e-001 -3.7344276415421596e-001
      -1.1969039043900177e-001 -6.4779672584655617e-003
      -3.7204252681835531e-001 9.6289799583083313e-001
      -3.9239562450482353e-003 4.8131483980870921e-001
      -6.0992573454353209e-002 -3.1608068041795181e+000
      -6.0683855517765539e-001 -5.8307902167104295e+001
      -8.2694374440155871e-001 -2.0929722984158447e-001
      1.7029337037632955e-001 -5.3345417572652730e-003
      -7.2025925870930330e-001 3.2805126619322347e+000
      -5.4493864869492115e-001 3.9634634921103307e-002
      -1.1207027833192502e-001 -2.4011184544024236e-001
      4.3973958972792354e-002 4.0784326326617076e-001
      4.6590466891218996e-001 -3.6987849259206951e-001
      -3.7528545419188353e-001 -1.1609094063084772e-001
      -2.0107493248496058e-002 -3.6947924656569847e-001
      9.5969852595724892e-001 -8.3961401457089725e-003
      4.6923275423261407e-001 -5.8740007115849105e-002
      -3.1617978511349585e+000 -6.1153301795622095e-001
      -5.8315658573083120e+001 -8.3497751938563358e-001
      -2.0927466227130612e-001 1.6782693270255963e-001
      -3.0422607540431957e-003 -7.2015163189458042e-001
      3.2808740056807886e+000 -5.4990971589608562e-001
      3.1645133243175035e-002 -1.1062336896705006e-001
      -2.3698106894296342e-001 3.7379173769090307e-002
      4.1225332005340315e-001 4.5926682593914320e-001
      -3.7933324567441074e-001 -3.7904750714748536e-001
      -1.1315694113455303e-001 -1.7822949505347390e-002
      -3.7033617341886160e-001 9.6421483692938792e-001
      -1.3994244853563572e-002 4.7410236429941605e-001
      -5.0859174034853315e-002 -3.1614700664836950e+000
      -6.0195762845585810e-001 -5.8318187401935326e+001
      -8.3314724137749663e-001 -2.0140569107013470e-001
      1.7632730950896972e-001 -5.2718210162535726e-003
      -7.1303897542415440e-001 3.2772590368692307e+000
      -5.4788727821106886e-001 3.4029519480191839e-002
      -1.0292454260218199e-001 -2.4476316158834183e-001
      4.6361446233288334e-002 4.1980289229013140e-001
      4.7114011902277142e-001 -3.7747271470957955e-001
      -3.8475856517391405e-001 -1.2394123558795750e-001
      -1.7982830433586439e-002 -3.7055768991635957e-001
      9.6607526341305239e-001 -1.2581410606426660e-002
      4.6725812147327833e-001 -5.3176781055376009e-002
      -3.1659864354811629e+000 -5.9965138224882741e-001
      -5.8320314279541869e+001 -8.2564343306464383e-001
      -2.1233253073905298e-001 1.6673672591668579e-001
      -2.2471621233727227e-003 -7.1971711652677972e-001
      3.2786102143213349e+000 -5.4622634814346538e-001
      4.0951681704523235e-002 -1.0028211107801867e-001
      -2.4397648207984099e-001 3.5670489023498259e-002
      4.1665822252171819e-001 4.7096189268230121e-001
      -3.6575124950166660e-001 -3.8256594691291812e-001
      -1.2175334754224311e-001 -1.6528377490555659e-002
      -3.7271950614638893e-001 9.5877602090637515e-001
      -9.4880056329514906e-003 4.7682412580931227e-001
      -5.4346837868063942e-002 -3.1569477332005436e+000
      -6.0306904229040348e-001 -5.8322009121088335e+001
      -8.3163238274123141e-001 -2.0898975735875322e-001
      1.6964672429273006e-001 -4.2779675954830233e-004
      -7.2067993841451550e-001 3.2778399334549326e+000
      -5.4234246132600616e-001 3.2861774732691057e-002
      -1.0880765886485678e-001 -2.4185312160754457e-001
      4.4957896912633993e-002 4.2105661433877356e-001
      4.6968226606196928e-001 -3.7490764946300748e-001
      -3.8473779632641436e-001 -1.2453339435761333e-001
      -1.9552241393052654e-002 -3.7578721682995342e-001
      9.6279915760739232e-001 -1.4285879031614558e-002
      4.7538218030225216e-001 -5.1693575473247898e-002
      -3.1615745337629675e+000 -6.0523782901835776e-001
      -5.8309549561861310e+001 -8.2642821666157096e-001
      -2.0788236296351539e-001 1.7178685420873821e-001
      -5.5705308048846003e-004 -7.2237881587243913e-001
      3.2896929979729621e+000 -5.4461857284511572e-001
      3.7109028286248846e-002 -1.0590616510802366e-001
      -2.4960007516450058e-001 4.4829613689910813e-002
      4.0788824121059802e-001 4.6522654573781347e-001
      -3.6599273178888503e-001 -3.8479873054531044e-001
      -1.2346210123090436e-001 -1.6715003085525672e-002
      -3.6731644403041813e-001 9.7098793385171256e-001
      9.0447522793357942e-004 4.7868530359059608e-001
      -6.1379727432451188e-002 -3.1576913904411730e+000
      -6.0355727864626507e-001 -5.8311594059608957e+001
      -8.2558315800700210e-001 -2.0043218988351760e-001
      1.7780043283272637e-001 -8.5744839366458086e-003
      -7.1848578545141994e-001 3.2770150043762905e+000
      -5.5311200486715073e-001 2.9766322150799544e-002
      -1.0071812573422491e-001 -2.3897613847555615e-001
      4.2698870030751263e-002 4.1106850066191331e-001
      4.6544912578628989e-001 -3.6858585817688050e-001
      -3.7371453150125167e-001 -1.1250505068408757e-001
      -1.3827681449522549e-002 -3.7452538249290024e-001
      9.6834872425340601e-001 -5.6813933198976126e-003
      4.7245905984065489e-001 -5.3925462624448063e-002
      -3.1570792382861232e+000 -6.0909857500248243e-001
      -5.8317221938510166e+001 -8.2860063589098198e-001
      -2.0174425185046382e-001 1.7743492343231779e-001
      -8.2147705786061592e-003 -7.2384225739274299e-001
      3.2853486270161452e+000 -5.4071235088849579e-001
      4.3822958359306191e-002 -1.1125560889638665e-001
      -2.3863047333681281e-001 4.8232098648831961e-002
      4.1357961533545257e-001 4.5853468406680098e-001
      -3.8020359059619857e-001 -3.7586953523224542e-001
      -1.1318299195382946e-001 -1.0606891400514715e-002
      -3.6287583057594280e-001 9.6314502608145769e-001
      -9.2824288632574817e-003 4.7137717729036782e-001
      -5.7917518126829451e-002 -3.1610594548536470e+000
      -6.0255633696067556e-001 -5.8309100353926191e+001
      -8.2732386903515365e-001 -2.0421587246784736e-001
      1.7328176128661496e-001 -8.9390321865801556e-004
      -7.1653143286728582e-001 3.2761064100991724e+000
      -5.4267454522779124e-001 3.3415185908701101e-002
      -1.0087821836893802e-001 -2.4355336913670725e-001
      4.8262686286884821e-002 4.1798188629003891e-001
      4.5885531010271291e-001 -3.6895347027523873e-001
      -3.8159939593822878e-001 -1.1134906382120337e-001
      -1.2051921854422904e-002 -3.7183563388238577e-001
      9.5805163803081750e-001 -2.2230638592812420e-003
      4.6981071673380642e-001 -5.6281034180100324e-002
      -3.1550109111517517e+000 -6.1161349298027889e-001
      -5.8315173976858198e+001 -8.3059406041286776e-001
      -2.0835253707811466e-001 1.7742067283394172e-001
      5.9140958687008381e-003 -7.2349856637990451e-001
      3.2798265070278156e+000 -5.4851855633042224e-001
      3.1082014182297966e-002 -1.0775407948416084e-001
      -2.3808553519146650e-001 3.3718200213224164e-002
