<?xml version="1.0"?>
<opencv_storage>
<my_nn type_id="opencv-ml-ann-mlp">
  <layer_sizes type_id="opencv-matrix">
    <rows>1</rows>
<<<<<<< HEAD
    <cols>4</cols>
    <dt>i</dt>
    <data>
      258 40 50 2</data></layer_sizes>
=======
    <cols>3</cols>
    <dt>i</dt>
    <data>
      256 25 7</data></layer_sizes>
>>>>>>> 59f70f38b725ef6302e1c042cda95869edc56f42
  <activation_function>SIGMOID_SYM</activation_function>
  <f_param1>6.6666666666666663e-001</f_param1>
  <f_param2>1.7159000000000000e+000</f_param2>
  <min_val>-9.4999999999999996e-001</min_val>
  <max_val>9.4999999999999996e-001</max_val>
  <min_val1>-9.7999999999999998e-001</min_val1>
  <max_val1>9.7999999999999998e-001</max_val1>
  <training_params>
    <train_method>BACKPROP</train_method>
<<<<<<< HEAD
    <dw_scale>1.0000000000000000e-002</dw_scale>
    <moment_scale>2.9999999999999999e-002</moment_scale>
    <term_criteria><epsilon>2.0000000949949026e-003</epsilon>
      <iterations>50000</iterations></term_criteria></training_params>
  <input_scale>
    1.8163813406137649e-001 -7.8104397646391888e-001 1. 0. 1. 0.
    5.3868646311151680e-002 -4.1478857659586793e-001
    1.0648555859460360e-001 -1.7969438012839356e-001
    2.3580462837445526e+000 -2.0632904982764835e-001
    5.8031518386125885e-002 -2.7782589427357768e-001
    2.3588518329085633e-002 -4.3343902429694853e-001
    4.6379157400450378e-002 -2.5856380250751088e-001
    3.4910992519365934e-002 -2.4175862319660910e-001
    2.1300426210882312e-002 -4.1109822587002864e-001
    3.6568281148049608e-002 -3.5196970604997746e-001
    6.2772790785718319e-002 -2.3304398579197924e-001
    1.8374874473568392e-002 -3.7530681112263442e-001
    2.9146414319923913e-002 -4.3209559229287198e-001
    1.0161067293781025e-001 -1.9433041199356210e-001
    5.3034926219502836e-002 -2.4992708980940714e-001
    1.9805432155042324e-002 -4.9835418660125252e-001
    9.9661801567044239e-002 -2.0804401077120485e-001
    8.3317468724203370e-002 -1.9058870970661521e-001
    2.3582282287883300e-002 -5.2352666679100923e-001
    6.8223336134149840e-002 -2.0296442499909578e-001
    6.9605334256056292e-002 -2.6798053688581674e-001
    2.9252844612357585e-002 -5.2143195521527397e-001
    1.0135485798516368e-001 -1.9510810162144010e-001
    3.6913380680137241e-002 -2.7362043429151728e-001
    4.2257359021173335e-002 -4.4898443959996670e-001
    6.6921453206568698e-002 -2.6099366750561792e-001
    5.5830117575431236e-002 -4.2221526416419874e-001
    6.6471600238610595e-002 -3.3568158120498348e-001
    4.4460372069582400e-002 -3.8291495444927848e-001
    7.6371523314107514e-002 -3.4462649895491015e-001
    7.7094370247084223e-002 -3.1705059764113386e-001
    3.8983762551199293e-002 -3.4305711045055381e-001
    6.5486273392529368e-002 -4.0110342452924236e-001
    9.4098698986340462e-002 -2.8582479817100914e-001
    5.1900978125967966e-002 -4.0482762938255012e-001
    6.2769061523269859e-002 -3.6406055683496519e-001
    1.1584960030734992e-001 -2.1721800057628110e-001
    8.5253164849375188e-002 -3.6232595060984457e-001
    5.1052489259062556e-002 -5.0095255085455137e-001
    6.2913304567381312e-002 -1.8559424847377487e-001
    7.8728908638475967e-002 -3.9659687726632264e-001
    5.4007239632511424e-002 -3.6387377702404572e-001
    6.3577017755963666e-002 -3.1788508877981836e-001
    9.0825622234206899e-002 -3.5876120782511728e-001
    3.7346762738985059e-002 -4.1314856280002221e-001
    4.8016889550097870e-002 -2.6169204804803342e-001
    1.6758603832047556e-001 -2.7442213774977869e-001
    3.0220086155481534e-002 -3.2751018371003116e-001
    3.4929452689744921e-002 -3.5584379927677640e-001
    6.0640107138550822e-002 -2.1678838302031919e-001
    3.5144880269500071e-002 -2.9170250623685062e-001
    3.3526318779104641e-002 -2.5940989155332217e-001
    4.9802359698086142e-002 -3.3678845745830754e-001
    7.0380689962460746e-002 -3.0175720821405044e-001
    2.7945146652594257e-002 -3.3394450249850133e-001
    4.5121335164032286e-002 -3.8296733220472406e-001
    4.8799215666269609e-002 -2.8547541164767720e-001
    3.3373594237061793e-002 -3.0995725647671141e-001
    2.8327652856033336e-002 -4.1145915773388420e-001
    7.7615198683720160e-002 -2.6971281542592757e-001
    3.2883822087272856e-002 -3.1116316650081943e-001
    2.8696828417072127e-002 -2.9306636020934912e-001
    2.3872112196968016e-002 -3.6733212643084534e-001
    3.4394460738347121e-002 -2.9106312399826251e-001
    2.5843709816566220e-002 -3.6278107655004832e-001
    2.6485305605415035e-002 -3.7377387535641970e-001
    4.4448292680813420e-002 -2.6724535974339070e-001
    3.0452663867191136e-002 -3.3421798594242269e-001
    1.9651054995671349e-002 -4.2569097884373064e-001
    3.3062695490585825e-002 -2.7524693995912697e-001
    2.4696835525226762e-002 -3.4452085557691331e-001
    2.2615306577698814e-002 -3.4403535131324320e-001
    2.2371421510051708e-002 -3.9625380349679085e-001
    2.6758929962945894e-002 -3.6994220673772699e-001
    2.3044690296700709e-002 -3.3702859558924786e-001
    2.8002117075083308e-002 -3.5247664868261114e-001
    2.5698875205406500e-002 -4.0347234072488203e-001
    2.5608531807566545e-002 -2.9737907561536653e-001
    2.7875823433633005e-002 -3.5611364436466164e-001
    2.9272162227472791e-002 -3.9956501440500364e-001
    3.4819435407327813e-002 -3.2730269282888147e-001
    3.1876732574933175e-002 -3.4785484422395824e-001
    2.7051002439138966e-002 -3.5098675664782808e-001
    3.2076665031629988e-002 -4.3303497792700485e-001
    3.0876316578868492e-002 -3.3462208092348728e-001
    2.7742486618668877e-002 -3.7383000718656312e-001
    3.7700634400981571e-002 -2.9217991660760717e-001
    3.1433032108373699e-002 -3.7326725628693769e-001
    3.4438880583223405e-002 -3.3319616964268645e-001
    2.6810652648402499e-002 -4.5142436396747704e-001
    4.6591195699239640e-002 -3.4710440795933534e-001
    3.2604225409011735e-002 -3.8513741264395113e-001
    2.8994834169690550e-002 -4.3854686681656957e-001
    4.4624858047473751e-002 -3.2631927447215181e-001
    1.9193840287731544e-002 -3.6276358143812615e-001
    4.0725364266985128e-002 -3.5125626680274674e-001
    2.1248929096003691e-002 -3.3228012873875767e-001
    2.3415848848888771e-002 -4.0392339264333132e-001
    6.3524902783154397e-002 -3.3271167832677112e-001
    3.0695658440774709e-002 -4.0134573411312929e-001
    3.7087373171534446e-002 -2.7630093012793161e-001
    3.4206783839540233e-002 -3.5959881511316666e-001
    3.8757583834522831e-002 -3.3379969077482791e-001
    2.6258073832837167e-002 -4.7494291045144221e-001
    3.2888756978845725e-002 -3.7616515794554800e-001
    1.8995957082884433e-002 -3.1129624669576861e-001
    3.0512311865687661e-002 -4.3480044408604918e-001
    2.7219804146170326e-002 -4.1238003281448044e-001
    4.2268806215677815e-002 -2.8055920125656153e-001
    4.1756838457568321e-002 -3.7163586227235806e-001
    5.1282093427115795e-002 -2.8333356618481481e-001
    2.3695935050812984e-002 -4.6947571319423226e-001
    3.6487861324661967e-002 -3.7856156124336793e-001
    2.3595346334660872e-002 -2.4598148553883961e-001
    2.6056033331912736e-002 -4.5923758747496196e-001
    3.6142809318437670e-002 -3.6413880388325948e-001
    2.1295499945081488e-002 -2.6166845557518875e-001
    2.4637455666410891e-002 -4.6318416652852479e-001
    2.1728081803399149e-002 -3.3352605568217691e-001
    2.5707090850624451e-002 -3.4479635603400044e-001
    3.0671025196977553e-002 -4.0217381789536821e-001
    1.9799971988566319e-002 -2.8536709628521206e-001
    3.3694444738086672e-002 -3.7021771155972732e-001
    2.9484355435434820e-002 -3.7408275958707926e-001
    3.5615178664426247e-002 -3.4457685357832396e-001
    2.7456447980081396e-002 -2.1999478944040216e-001
    1.1114294920736336e-002 -5.0903470736972423e-001
    3.3147289708775028e-002 -3.4348878960718127e-001
    2.6903649433642995e-002 -3.6857999724090901e-001
    3.2667279551414442e-002 -3.7649039683005148e-001
    1.4637688202329831e-002 -2.6055085000147099e-001
    2.6281017485743602e-002 -4.0308510568759248e-001
    2.3358112259633381e-002 -3.6643038607299866e-001
    1.8681793263283231e-002 -3.3977511497596374e-001
    1.9752185685229354e-002 -4.8442235393024990e-001
    2.3190280189133456e-002 -2.9915461443982161e-001
    2.7973813242271366e-002 -3.6296022681847095e-001
    1.6035358141682034e-002 -4.7765323064535359e-001
    1.7816541229540923e-002 -2.4720450955988030e-001
    1.7628997019827390e-002 -3.2040702083536282e-001
    9.8350765652737062e-003 -3.9733709323705774e-001
    3.4931420528696619e-002 -3.0390335859966056e-001
    1.8347280401517615e-002 -4.1648326511444983e-001
    2.0759695050218557e-002 -1.7593841555060227e-001
    1.5852371357251829e-002 -4.2286200595469253e-001
    1.9894480983090101e-002 -4.5956251070938137e-001
    9.5980600748955675e-003 -3.2285474576929968e-001
    1.9676996795357830e-002 -3.4434744391876204e-001
    1.2100296905640507e-002 -4.8128930942185116e-001
    1.7818021119683378e-002 -3.0580178746656600e-001
    2.5009184746595910e-002 -4.1265154831883250e-001
    2.1738693816063737e-002 -3.0868945218810506e-001
    1.6416512152993987e-002 -3.8127349475328537e-001
    2.8302645628897911e-002 -3.6368899633133817e-001
    8.3129088131328709e-003 -3.4872652471092397e-001
    1.8702848045179594e-002 -3.7943402971658102e-001
    2.4342739055050879e-002 -4.0378518407565644e-001
    9.2441480287655288e-003 -3.6884150634774460e-001
    2.4731640765734409e-002 -3.5026186234471357e-001
    1.5207685717333530e-002 -3.7467935686080484e-001
    1.5061881896013971e-002 -4.8235676771984737e-001
    2.6802092845738913e-002 -3.9901615724093803e-001
    1.5200624214289554e-002 -4.6703917898404657e-001
    7.5611394652695370e-003 -3.2701928187290746e-001
    2.2623077403014554e-002 -4.5755174047596942e-001
    2.0718906786981166e-002 -3.5895506008444872e-001
    1.8819356535568064e-002 -4.1802495704630560e-001
    2.4847223702067971e-002 -4.0159325308467364e-001
    8.8705089619723690e-003 -4.2445385383037787e-001
    1.7312588701382168e-002 -3.4733381082147974e-001
    2.3500841861134374e-002 -3.8952645384830220e-001
    5.8748350815878538e-003 -2.1964539661286589e-001
    1.6257363554325222e-002 -4.9015951116290540e-001
    1.9631600375194600e-002 -4.1103663285563696e-001
    2.0065319232369431e-002 -3.3082695084369101e-001
    1.3444092569752679e-002 -4.3642885504559631e-001
    1.6039908499498202e-002 -5.2991847705217188e-001
    2.7642286249170280e-002 -3.3067084925569951e-001
    1.1422792025388796e-002 -4.1093494311336198e-001
    6.6296953924075792e-003 -2.7877869125073867e-001
    1.7823011451048795e-002 -4.5359564142919184e-001
    1.4925424046768885e-002 -3.7947890638909892e-001
    1.4433216433899672e-002 -3.5541795468477944e-001
    8.4857038083924960e-003 -3.7644703519981210e-001
    1.6041856153127552e-002 -4.3974738179760908e-001
    1.2623375090602185e-002 -2.9412463961103091e-001
    1.1245977867416539e-002 -4.3873371155258772e-001
    7.3911945025373453e-003 -2.8520771786665983e-001
    1.2771084832323955e-002 -3.4098796502304957e-001
    6.2974355776555628e-003 -3.9681715933702116e-001
    1.6296288707011348e-002 -2.9781467612063234e-001
    1.0748794416119777e-002 -3.2877874920306366e-001
    9.8744451319938576e-003 -3.3745916238589008e-001
    9.0014060281672498e-003 -4.7212374617737229e-001
    7.7478419334167494e-003 -3.3402883535442957e-001
    6.0922749321083765e-003 -2.9935915947647534e-001
    6.7706624872469401e-003 -4.4864102306120041e-001
    1.8125181219529933e-002 -3.9195704387233482e-001
    8.0303544512482106e-003 -3.4751358887776629e-001
    8.5727568447691964e-003 -4.3603184501707321e-001
    1.4983111494726361e-002 -3.6071840923553711e-001
    1.1102205612567558e-002 -3.4985825436603518e-001
    1.3682997475521220e-002 -2.8648775964372553e-001
    1.3766994040462317e-002 -4.6480813629110901e-001
    8.0179244214545840e-003 -4.0721033655462469e-001
    1.4511213938477090e-002 -2.8042920936106974e-001
    1.8220484093718976e-002 -3.2591890922639816e-001
    1.0125208224724553e-002 -4.7461913553396345e-001
    8.3412522764196410e-003 -3.7066439803339779e-001
    1.3755376151900879e-002 -3.5695201114182779e-001
    1.0657184569730355e-002 -5.1820559970313851e-001
    1.4729295993202701e-002 -2.3806224649013866e-001
    7.8549119894419737e-003 -2.1188625091519725e-001
    9.6583662664909680e-003 -5.1623967694394224e-001
    1.4872006563506044e-002 -3.5283835571918093e-001
    2.8795494801986007e-002 -2.6779810165846990e-001
    1.6069003516138745e-002 -4.0714837659016540e-001
    1.2312330194178121e-002 -4.1985045962147394e-001
    1.9618490622861549e-002 -2.5798315169062941e-001
    1.2171826524872470e-002 -3.8036957890226469e-001
    8.6931169142285478e-003 -2.8165698802100492e-001
    1.1777488745756412e-002 -3.1210345176254495e-001
    2.0175098535824786e-002 -3.6037769759617028e-001
    8.6303160709756497e-003 -3.5093022723604739e-001
    2.8337140998901937e-002 -3.8538511758506633e-001
    1.0365899353723580e-002 -4.4353091859744770e-001
    1.4190640757260486e-002 -3.2904548255897753e-001
    3.1603188695062671e-002 -3.9187953981877716e-001
    1.2937364539968209e-002 -3.2165522587495959e-001
    2.1304801353663711e-002 -2.4047794527947913e-001
    1.6759443741137577e-002 -5.3881611627757309e-001
    4.5075494596122256e-002 -3.0538647588872830e-001
    3.5631453082968126e-002 -2.3962152198296063e-001
    1.7480769474267251e-002 -5.8866491204594962e-001
    2.8102203734851665e-002 -2.0444353217104588e-001
    3.1898192874049408e-002 -2.4760972218480853e-001
    2.2258429347058902e-002 -5.4727913157081076e-001
    1.7080622934512388e-002 -2.8311132513954279e-001
    2.0121202925695150e-002 -3.0081198373914247e-001
    2.1432572041848535e-002 -4.3534911960004835e-001
    2.4393527309348090e-002 -3.8907676058410201e-001
    5.1812439148390996e-002 -3.0634104646486177e-001
    4.2853634496081164e-002 -3.8836106262073555e-001
    2.2652766942761599e-002 -3.7065589910093666e-001
    3.2645600225597822e-002 -2.9625882204730020e-001
    5.9750828302765575e-002 -3.0024791222139702e-001
    2.6548721946333512e-002 -3.3318646042648559e-001
    8.4944262995565109e-002 -4.1622688867826907e-001
    1.1138658780479858e-001 -2.1024218448155732e-001
    2.5005006386245260e-001 -2.8443194764353980e-001
    5.5669623865856332e-002 -4.8223811673798045e-001 1. 0. 1. 0. 1. 0.
    4.7812390501532104e-002 -7.8340348041360182e+000
    4.7812390501532104e-002 -7.8340348041360182e+000</input_scale>
  <output_scale>
    5.2631578947368418e-001 4.9999999999999994e-001
    5.2631578947368418e-001 4.9999999999999994e-001</output_scale>
  <inv_output_scale>
    1.8999999999999999e+000 -9.4999999999999996e-001
    1.8999999999999999e+000 -9.4999999999999996e-001</inv_output_scale>
  <weights>
    <_>
      -6.3444742430201387e-002 -8.7335610390071906e-003
      9.4603625678257794e-003 1.9939480719955451e-003
      -5.0596031385688987e-003 2.0278444618229510e-003
      4.2090968202619364e-006 7.3192105557336271e-003
      -1.0916995351416010e-002 -9.8210368303067192e-003
      1.0683075235168918e-003 1.7026600588047530e-002
      7.1631008998770352e-003 -4.7463357463248248e-003
      9.9317469916608662e-003 -2.0406987172142377e-003
      -7.5272678296018159e-003 -1.7622871993003362e-002
      -5.5411958055070088e-004 6.4551850924951222e-004
      -7.3090717931098741e-003 3.3482092175714613e-003
      -1.5177258335006350e-003 -1.3027625116913976e-002
      1.2167127302894149e-003 -1.2711799172364317e-002
      2.6450812967351389e-004 -4.3488487348893410e-003
      -6.2624187368409473e-004 -2.0375531822857279e-003
      4.0583994986052238e-003 1.2291834731494521e-002
      4.8128195067822857e-003 8.6319006439292863e-003
      -5.9569582901120455e-003 -3.5601098017660716e-003
      1.3244980052237053e-002 8.4891028057269297e-003
      4.0590386823334632e-003 1.2110836653102466e-002
      6.0153011750657299e-003 -3.5917166962283679e-003
      5.4037015598480094e-003 -6.2836899065512389e-003
      -6.8669918742221177e-003 -4.1476905488333085e-003
      4.8772110850708057e-003 4.9968121080057040e-003
      -4.2022088887154127e-003 -5.0273543156407639e-003
      3.5925409788917376e-003 -1.9116776338413603e-003
      -7.5399229826687147e-003 7.8171095792077313e-003
      4.9989065129317388e-003 -1.5351028622662562e-003
      5.9308850469278586e-003 3.0160425617998237e-003
      3.9713779159265064e-003 -1.0316150359867414e-003
      -4.9897967206851933e-003 2.0748942638136986e-003
      1.5825911879268225e-003 -7.3362172256080452e-003
      -4.4594590370500313e-003 5.8838933718023496e-003
      -1.2382932404183769e-003 -5.2702946059278943e-004
      5.0501131687017376e-003 -3.1773440533067934e-003
      -2.3079242582784085e-003 2.4319323748570524e-003
      -6.5033090554218248e-003 1.6136739321175051e-003
      -3.4706497450036522e-003 -8.5831868906181082e-004
      2.0978197133086234e-004 6.8070049658828808e-003
      -5.5876631180135838e-003 -1.5298819512964628e-004
      6.5563511086394344e-003 5.2211163982687995e-003
      4.4930640936642688e-003 6.6178901581243794e-003
      3.1661484043957644e-003 -4.1846429339931325e-003
      8.1611961466649774e-004 -1.6625455152484653e-003
      5.9497862795355955e-003 7.2343312799047306e-003
      -4.8711887196068483e-003 -4.2274320975883841e-003
      2.8922940297600207e-004 7.4187842326012103e-004
      4.7444391433676820e-004 -9.6227819524417522e-004
      -7.5662533339084081e-003 -7.7142220263997953e-003
      6.2501450924659935e-003 -5.9485461474902942e-003
      -5.2131879813115713e-003 6.2652027453160442e-003
      6.5757842743507889e-003 7.0207350542417701e-003
      5.8136613043738607e-003 6.4666403772774819e-003
      -7.4639394893484100e-004 -4.2514930275695641e-003
      -4.1467839854834208e-003 -3.6711774720041375e-003
      -2.7800836449073689e-003 2.6359244367032664e-003
      3.9085768961005553e-003 3.3983783648556315e-003
      2.6524946949642567e-003 4.7031325586217526e-003
      5.9907363557146712e-003 -2.1564035122041262e-003
      -3.5387082851979397e-003 5.4070066291595517e-004
      6.6412294757467377e-002 4.1348234801236068e-002
      -2.2931527945560828e-002 -1.6207829532115008e-002
      2.0471571941369896e-002 -1.6998350284737507e-003
      -2.1868925183284284e-002 5.6552576822509366e-003
      2.1714473496659243e-002 2.7789322838272124e-002
      3.0557081382682860e-003 -2.4867534139940056e-002
      -1.5932780667675332e-002 5.5192091753412829e-003
      -1.1470322173116783e-002 2.4433030067241438e-003
      7.8470853017883965e-003 2.5675191612502788e-002
      5.0982863069869233e-003 -1.0804171029188207e-002
      1.5862417201038145e-002 -3.9627902597565753e-002
      -7.2989528429555257e-003 2.1758904021794971e-002
      -9.5244250222543039e-003 2.3129182938955332e-002
      -3.9447832824400578e-003 -4.9874764236337399e-004
      -2.6417861353872081e-003 1.2938751146756692e-002
      -1.1800604082546375e-003 -1.9676380280438058e-002
      -2.1559872899425393e-002 -3.0533496783818441e-002
      4.3659305351197658e-003 2.3951865137740998e-002
      -4.0582772005576979e-002 -1.1040591099542052e-002
      -7.2259659335365484e-003 -9.5428326527372230e-003
      1.8383421794265167e-001 7.3912791008659579e-002
      -3.8466202236965924e-002 -3.6026297326372206e-002
      3.7561475623507957e-002 -5.8642361999761625e-003
      -3.4384678070819186e-002 -1.2919962600689868e-002
      2.7153236998412159e-002 4.9681451671170683e-002
      1.1486418393513597e-002 -5.9563210761142800e-002
      -2.9956770000289075e-002 2.5134138910445455e-002
      -3.3220323512902092e-002 2.3465786870848802e-002
      1.5361136779157311e-002 6.6616108184545719e-002
      3.1979751664492240e-002 -1.9132773531500499e-002
      2.9816725364988948e-002 -7.2272461551756706e-002
      -2.4843052413360038e-002 3.0528561642891885e-002
      -3.8822610724624242e-003 3.2493869171978419e-002
      -9.6669813002751900e-003 9.7859168340283364e-003
      -1.2524828000433042e-002 1.4888879787779108e-002
      5.4800247527634900e-004 -2.8962481081912496e-002
      -3.9435494415567408e-002 -5.1881515483036364e-002
      1.7676747168631282e-002 5.0902388483531763e-002
      -5.7286265634184569e-002 -1.0593122137247833e-002
      -1.6348487096211072e-002 -2.6323320389464038e-002
      8.1927513509506389e-002 1.6595465446753808e-002
      -1.3645598422088930e-002 -9.9032151408174531e-003
      1.9291211838296764e-002 -1.9691366886034232e-003
      -1.0904526577774479e-002 4.1283358407492345e-003
      1.4458832205344951e-002 3.4057934100319162e-003
      -2.5277881552533189e-004 -1.6432272606359901e-002
      -7.7827182128085278e-003 -1.4083654815107681e-003
      -9.7715512565506955e-003 1.0433025422837174e-002
      6.7976949221759493e-003 1.9956263384564101e-002
      1.1914737467299784e-002 -1.3257827664103473e-002
      3.3614719639736210e-003 -6.0932039530395693e-003
      -1.6341870545957973e-003 3.5552038639221845e-003
      -8.4528930603488366e-003 1.2203283296184701e-002
      -4.9998663422328067e-003 -4.6813771319061505e-003
      -6.8310200459880989e-003 -4.4166309214885430e-003
      -1.4068581681546870e-003 -1.4130809637072717e-002
      -1.7273218034810252e-002 -1.0763683752161376e-002
      9.5720049947488860e-003 4.5306730389426094e-003
      -1.1897505920618875e-002 -2.4756539616176028e-003
      2.4790826091693392e-003 -2.5058079883073948e-003
      1.9902243018598546e-002 2.0317404571374917e-002
      -1.6455699702231062e-003 -6.6782616179561754e-003
      3.3928011884440537e-003 -8.7576176514837199e-003
      -1.8751810793326312e-003 -5.3854388221569833e-003
      1.3480154296773817e-002 1.0583523523742608e-002
      -2.6065539653985551e-003 -1.4670170700407353e-002
      -5.5699851379940784e-003 9.8273412506331721e-003
      -5.1084965599289909e-003 -2.4755449511843983e-003
      3.7799862437004690e-003 1.7409640682826914e-002
      -2.8202985953315091e-003 -7.3296782133047038e-003
      8.9289481441829998e-005 -1.5758876145915725e-002
      -2.6399027236928331e-003 1.8696546717200571e-004
      -2.4712301358541843e-003 5.7062771227678038e-003
      6.0810235715616360e-004 -2.7631052891654287e-003
      2.0534084967176814e-003 1.0733282340667503e-002
      -4.8090834012670591e-003 -8.4682705092572422e-003
      -1.4590464889989481e-002 -1.3757349693746640e-002
      4.2426235983893928e-003 1.8921163175367475e-002
      -1.2911577843944085e-002 -6.7936553936648282e-004
      4.7747328697421709e-003 3.3710110326913979e-003
      1.5820266700818542e-003 2.3602695912264233e-002
      -7.7489451610439552e-003 3.3010277365558017e-004
      7.9409525481077617e-003 -3.6986053206142710e-003
      -4.3330794529590922e-003 -1.5325334479271110e-003
      3.5507236127914348e-003 7.1103210943033370e-003
      3.6498763988596894e-003 -1.1456133469243851e-002
      -4.6806030387215080e-003 3.1684730362059751e-003
      -8.8368647727452010e-003 4.9384320186294664e-003
      4.8413624237362337e-004 1.0352717963297462e-002
      3.7599054371710064e-003 -6.5085550361389912e-003
      5.6651428018310388e-003 -1.1520448261053539e-002
      -4.7253565899260368e-003 8.7232990183272272e-003
      3.2603305854758272e-003 3.7301923125277288e-003
      -7.7426080594401783e-003 -3.3260686521296321e-003
      2.6983783330001855e-004 8.0235605879455003e-003
      -2.5785359150674707e-004 -5.5970746105612618e-003
      -3.1012450571204302e-003 -1.9212280004189158e-002
      -2.2569092179831481e-003 1.3372490934941422e-002
      -1.5483123457243862e-002 -7.5941696799390031e-003
      -4.6616533084503980e-003 -3.4931883087071782e-003
      1.1966466331889061e-001 6.5403517668156441e-002
      -3.0405975335776759e-002 -2.4918740959681357e-002
      2.0642556499881549e-002 4.9573440180098885e-003
      -2.5279268569267401e-002 -4.3925200937378270e-003
      2.8128585362156098e-002 3.8461033222669770e-002
      2.6557282432375252e-003 -3.4620820634941311e-002
      -3.2232613468595829e-002 9.7760223352935365e-003
      -3.0245209875649614e-002 1.9887314257324561e-002
      1.6277954131543523e-002 5.7820986447332752e-002
      1.6331299362518127e-002 -2.2832895522990445e-002
      1.9296741458070924e-002 -6.5340261741193353e-002
      -9.2638175116160053e-003 2.6261867419821418e-002
      -8.8120704399288086e-003 3.3692186975766765e-002
      -3.6497934591578386e-003 -9.3814888346989726e-005
      -1.5431734523374114e-002 1.1067845983677223e-002
      9.2163781041753115e-003 -3.0163759743940054e-002
      -2.8903794609075426e-002 -4.5263232518041194e-002
      1.8967480482729702e-002 4.3028359941066470e-002
      -5.9101840894473262e-002 -1.7067473472860424e-002
      -1.1299095425953365e-002 -1.2389044867582428e-002
      -2.2845644879663906e-002 4.7514580298703571e-003
      9.4696005666962957e-003 -2.5863880974620569e-003
      -4.7463008175288469e-003 -4.3950401264288225e-003
      4.0958658985059378e-003 6.5239855629599386e-003
      -1.2457170569722571e-003 3.7715691268845092e-003
      -3.0468865827053765e-003 -1.4600669193974105e-003
      2.7571554582887436e-003 -2.4314504803394634e-004
      -3.1681333366127039e-003 3.2424330958912774e-003
      6.9815798855953444e-003 -5.2061399848759475e-003
      -4.6540410799244169e-004 2.1411998245609871e-003
      -6.5525004581388126e-003 -8.7825947064708082e-004
      1.0542814846789346e-003 -1.1312060994061184e-003
      -3.2782856095778380e-003 5.9615719246629987e-003
      -3.6881349599547672e-003 3.2699227415008318e-003
      6.2369271063307027e-003 -4.9284866253730894e-003
      1.0221324622893926e-003 5.4873952417273291e-003
      7.2603950780299534e-003 6.0045349658493091e-003
      -7.0583494240712740e-003 -7.4647190860328378e-003
      -2.1888654306338219e-003 4.7355845279644379e-003
      -4.2508468578939191e-003 1.5469132379141216e-003
      -6.3629343063503541e-002 -1.1474432455300632e-002
      5.4856794257366346e-003 1.3164240102152846e-002
      -8.4218007112095948e-003 9.4567335554586723e-004
      7.8848254166631153e-003 -6.5537946657205619e-003
      -9.4772683673268136e-003 -9.5690771687131550e-003
      -1.0673780088731396e-002 1.3272950319677094e-002
      6.1243388795236553e-003 -7.4252652992957109e-003
      2.7120385589559704e-003 -1.6638476431715035e-003
      -6.6147499808228549e-003 -4.9693678067245454e-003
      -1.1656143648931219e-003 1.2746350064631328e-002
      -9.5025583714521134e-003 9.1494440087265920e-003
      1.0893988800156150e-002 -1.1058769787878592e-002
      -1.5348114772373513e-003 -9.8684846806955592e-003
      8.2561343677849345e-003 -7.1903250010325638e-003
      -4.9008020695561936e-004 2.0028138441614612e-003
      -5.9583823214467441e-003 3.3297700664509052e-003
      4.8446805678536674e-003 8.6329153022344264e-003
      -1.0475295317675170e-002 -2.8951463572149064e-003
      1.3967677195625271e-002 2.6877994401742901e-003
      -3.0168712669971585e-004 2.1067603907172747e-005
      -2.2002619820057478e-002 4.0939266487920768e-003
      -2.6670295027425056e-003 4.3832048763658093e-004
      -2.6564326035525775e-003 -4.1074279854775471e-003
      -1.4385863005393022e-003 -1.2653724024040637e-003
      -1.3115455197273665e-003 -1.6815744342715407e-003
      -5.1626198472474460e-003 4.4707864643711475e-003
      -8.0315996597058632e-003 1.8434415677204847e-003
      -2.6719072566084084e-003 -2.8341680889127094e-003
      3.6593466034819258e-003 7.8161615743110313e-003
      6.4485892242618888e-003 9.8189910296726697e-003
      5.3313591021933076e-003 -4.4568190513368869e-003
      4.1680666026333345e-003 1.4665057558441608e-003
      4.7885826436517348e-003 5.9594295208933940e-003
      -9.6162830555544278e-004 3.4932182306742277e-003
      -1.0596910325043017e-003 -2.7604696666812976e-003
      -6.6120697645865052e-003 -1.0848524282828869e-003
      -1.7688284887364342e-003 -8.1232646176841415e-003
      3.4163812696450997e-003 -1.7205111410183937e-003
      -5.8885950779956706e-003 -6.2877653580317846e-003
      1.2336137787429425e-003 6.1120337909100712e-003
      1.3818126324842095e-001 5.7046218762803226e-002
      -3.4921206115037053e-002 -2.1875033998233474e-002
      2.9078358579433101e-002 -8.4582665646956746e-003
      -2.2931785548420170e-002 -5.2610601704763922e-003
      3.1413667170256274e-002 3.1830110436169665e-002
      1.2472954605516078e-002 -3.5673290667676362e-002
      -2.4880742898970784e-002 2.1016198118856539e-002
      -2.5441150618902012e-002 1.0883856469062298e-002
      1.4545248339504097e-002 4.6263181461032463e-002
      2.0885516302517317e-002 -2.1757997901634810e-002
      2.8480464637332670e-002 -5.7541938857722248e-002
      -9.4519377378466021e-003 2.4790376988967126e-002
      -6.6245127124094066e-003 3.3755341042905819e-002
      -1.6490479856187550e-002 3.1499487810868745e-003
      -1.3652598015430388e-002 1.4408231029415583e-002
      -1.8919495171229716e-003 -2.5580482601265612e-002
      -4.0263724112453492e-002 -4.6952001292066330e-002
      1.1472119583258663e-002 4.5735324514989566e-002
      -5.4904674386794659e-002 -1.2577825506402301e-002
      -1.4257439557872911e-002 -1.0483566538063203e-002
      -5.2867962213131364e-002 -4.2765086501684105e-003
      -1.3707372214275923e-003 -7.1750961674193429e-004
      -3.0987877002826344e-003 1.0277412829204141e-003
      -5.8801626023943408e-004 4.1721596644526274e-003
      -9.4559002491564903e-003 -6.8847603071452998e-003
      -2.9727584830343142e-003 2.2811089291788320e-003
      9.7132032488276947e-003 -4.0685147472443734e-004
      1.2003858595346056e-002 -3.8778737572450024e-004
      1.2705368181378427e-003 -9.0031411007473663e-003
      3.0652217219944589e-003 1.3291544970315912e-002
      -6.2716148669922757e-003 -5.3720591030043726e-003
      6.7017258770914693e-003 3.5397485570146372e-003
      -4.6131402756715454e-003 -7.9315300736570362e-003
      8.7926026018980887e-003 2.5864628835644931e-003
      -1.6717647726693246e-003 -4.2300427415989817e-003
      -8.0864568099668303e-003 -1.8722220340304334e-004
      -7.0819412785758670e-004 1.9474940973657833e-003
      -3.8432098559442428e-003 3.0134695376540961e-003
      3.8799805326066444e-003 1.1277525706742076e-002
      2.8437736531493028e-005 -2.4120340207204622e-003
      -2.3908982365038748e-002 1.5823663247658097e-002
      1.0596800484336429e-003 6.2319293880363415e-005
      -6.7733492842866443e-003 2.3577630616138921e-003
      -7.2474845534001775e-003 -3.2512894601025052e-003
      -2.8852425929795232e-003 -3.7990474047118056e-003
      -3.7362710687968070e-003 -1.8973590174924070e-003
      -2.6369199023853086e-004 -2.5236351488842771e-003
      4.3182212234435628e-003 4.2948132032822241e-003
      -1.6961080387733916e-003 1.3292353002392142e-002
      5.1934397514389382e-003 5.5219276048909206e-003
      5.1667257421474204e-003 -1.2583099447075367e-002
      2.3621232101250392e-003 -4.9400136032219958e-003
      1.0485415872090325e-003 -2.2005312952633146e-003
      -1.9038065692534782e-003 4.2471128817514045e-003
      2.4694809229956144e-003 1.2546309392151955e-003
      -7.5710902268391030e-003 -6.7935000185867433e-003
      -9.9015910612083539e-003 -2.5633516105466924e-003
      -2.0992253568201864e-003 8.4344108987299913e-003
      -8.3890724639947029e-003 3.9752519591225899e-004
      5.6920229810453809e-003 -5.2733345960421910e-004
      -3.9662466478340465e-002 -9.1598944433237510e-003
      1.1835622792723323e-002 3.5764702817934384e-003
      -7.0544204277300029e-003 -6.8786023835912093e-003
      1.2224187557759902e-002 2.1434065051416594e-003
      -3.6028837046872000e-003 -8.7176594536804587e-003
      1.1227222419743859e-003 6.7105500595011653e-003
      1.2871692227879119e-002 -7.0090208719327538e-003
      5.0617410630165822e-003 -2.9818131784571044e-003
      -3.8108458258106223e-003 -1.2990540229504133e-002
      -3.1719573877818583e-003 9.2703016880576264e-003
      -1.2812781960403884e-002 1.3429532406932053e-002
      -2.2581661118589325e-003 -4.3274735378862799e-003
      -5.0928549872579377e-003 7.4866328747573983e-004
      -1.8628230707129435e-003 -4.4391157538280542e-003
      -1.5476829621118265e-003 3.2444866133148629e-003
      -9.9496136625895713e-004 5.9374084994631314e-003
      1.2600025183102626e-002 6.4995037822672417e-003
      1.0772468499162620e-003 -1.3497260541747708e-002
      1.2543226691626158e-002 3.9168534643811270e-003
      7.0254658420630762e-003 6.5911531785780028e-003
      9.5202302005811493e-002 4.1271231881420636e-002
      -2.9263498497484965e-002 -1.6363413144650008e-002
      2.7351666441783072e-002 -3.8368792715651541e-003
      -1.9266572618418524e-002 -1.2306815234415784e-002
      2.5275193422888444e-002 2.1531964206079866e-002
      2.0099006114886000e-003 -4.2404016532792618e-002
      -2.0862081693369360e-002 1.5882110643438856e-002
      -2.2710895161220351e-002 6.0572358899151219e-003
      6.1524642122548550e-003 3.5435548768443029e-002
      8.9002015031672873e-003 -9.2312295766881752e-003
      2.5579564813191964e-002 -4.3810999446340759e-002
      -1.7622992646709211e-002 2.3870404630138495e-002
      9.2285871012961975e-004 2.8593181963287605e-002
      -5.2609770873219448e-003 6.5912344946952523e-003
      -1.6618529965508774e-002 4.9652084701028408e-003
      2.7246593493570467e-003 -2.1728987624095676e-002
      -3.3092388357157596e-002 -3.8473510063363588e-002
      1.8110838898085693e-002 4.0682092909280425e-002
      -5.0926426642759516e-002 -1.3588527584854957e-002
      -8.8094053266994654e-003 -3.5417116125411922e-003
      -8.9740889751863825e-002 2.7029656812912491e-004
      6.4206203742433379e-003 1.1973648728010213e-002
      -7.2988136822712242e-003 3.0354646117321167e-003
      1.2251467664327819e-002 7.0367618614483986e-003
      -1.5960901064700810e-002 -4.2158335152989420e-003
      -6.7284040051548474e-003 9.1966051068024281e-003
      1.2481474461779812e-002 -4.9025243321933979e-004
      1.8757551360749573e-002 -8.9446548590335073e-003
      -3.8163348352574507e-003 -1.7092862362668788e-002
      -8.8259711466010665e-004 1.1363080098554402e-002
      -4.4278608817546116e-003 3.3269570789808225e-003
      5.7662936228985752e-003 -1.3725111524580003e-002
      1.7505786636485593e-003 -1.1414241019626108e-002
      3.6736185833901019e-003 -2.8372725194564887e-003
      6.2135976827139509e-003 -8.7663711630840743e-003
      -3.4265782191128013e-003 3.6070390953760138e-003
      2.0546063799881504e-003 1.2456775315744338e-002
      -5.2339095894018001e-003 -6.0485141585202371e-004
      7.1300521658016237e-003 2.3669785093209509e-003
      -4.6621609399865189e-004 8.5734808959079013e-003
      -3.5926854101888853e-002 1.4205683485989717e-004
      4.0898060805167067e-003 8.0286382378051760e-003
      -2.4598906325966744e-003 -2.3369997337970893e-003
      9.9042715055376474e-003 2.6553752905110499e-003
      -2.0585838244365274e-003 -9.3897306971744560e-003
      -6.3064268244241474e-003 1.4997693770237082e-003
      3.7424293472501462e-004 -4.7317184825849991e-003
      1.0531934434303983e-003 1.9133032177326705e-003
      -2.6116203845125716e-004 -7.6020134328725749e-003
      -6.3662652152078128e-003 3.9151948790527901e-003
      -1.2583267599913763e-002 7.4029572302312134e-003
      -2.0530494958840911e-003 -7.8736320079946954e-003
      5.0715797868210498e-003 -7.2102588107081107e-004
      -3.9314536618280712e-003 3.6004513263237989e-003
      1.7536923481742905e-003 3.2824728960010540e-003
      -5.2631793717249535e-003 -2.7030621874109782e-003
      1.1350526909812709e-002 -1.8378712884671265e-003
      -8.5246877312835870e-003 -9.4340903895411814e-003
      8.1400135222113278e-003 5.1174459782184481e-003
      -4.5655427813808174e-003 2.9932153712975654e-004
      4.4528116737505959e-002 1.5437283878481615e-002
      -8.3749588188431531e-003 -1.4171233786974262e-002
      1.1082469661826135e-002 3.4911932874517049e-003
      -1.0965628709320446e-002 5.9297356639660586e-003
      1.6703167880538591e-002 1.1767995390145362e-002
      1.0415224197553941e-002 -1.4161233454066530e-002
      -3.6904735958100225e-003 1.3047924234655217e-003
      -3.0682993865663753e-003 7.1151966968763082e-003
      3.8136999472743551e-003 1.5091653782750819e-002
      2.3865286806463897e-003 -1.2669095433932206e-002
      9.7770146314318136e-003 -1.6903800513736189e-002
      -6.4989596329310067e-005 9.9693555534381157e-003
      5.1605107344880235e-003 5.4845068325453895e-003
      -3.3980633827671995e-004 1.7974437494759413e-003
      -4.2736535881225229e-004 5.3037920147241888e-003
      5.0293687205181185e-003 -3.0194313839192965e-003
      -8.0783516319210512e-003 -1.8629688000452845e-002
      6.1040875589564465e-003 1.3308046038949606e-002
      -1.9710976271886588e-002 -6.3567458099057436e-003
      3.0735806703713060e-003 3.1908928051611754e-004
      -4.3872611820774586e-002 9.7280250399941256e-003
      -3.0515242022559424e-003 -3.5633955071234674e-003
      -6.6631358951891049e-003 -3.5036816433065871e-003
      -5.7420528495492860e-003 -1.4334671675643219e-003
      -1.0969705585070957e-002 -4.4359323162746845e-004
      4.0458966588832936e-003 -2.1284533778993166e-003
      -7.4549685997539871e-003 -7.6202941850584249e-003
      9.2710728212513204e-003 2.0014997211764501e-003
      -3.7238353321239859e-003 -2.4083411317882648e-003
      4.1815681037344525e-003 1.0458801075955234e-002
      -4.1122121259492862e-003 -1.4218339950723137e-002
      7.3306732561220708e-003 -7.0529531705943796e-003
      -7.0160769584715508e-003 -3.1922465353479688e-003
      -4.2949695917918031e-003 -5.6629880105759453e-005
      6.2477963168494155e-003 -8.2712347263865448e-004
      4.8245990665762165e-003 -7.9506785925259303e-003
      7.4215364622520425e-003 -3.0749465495013522e-003
      -9.7389302615850312e-003 8.0468243467714685e-003
      -2.5722486099719615e-003 -3.1195893989229098e-003
      2.2990815462927529e-003 -1.2333751363120869e-003
      -5.2823236614436414e-002 -9.6577937688976326e-003
      8.5530499070664272e-003 1.1160875807667857e-002
      -5.5956637298943904e-003 -7.5692609451533744e-003
      1.3278488656239412e-002 -5.5123159521221308e-004
      -7.6283018936252646e-003 -8.3929648620325505e-003
      2.5822645648637898e-003 1.1919137441894070e-002
      1.1678891314261414e-002 -6.1682851473598126e-003
      9.2014274621825837e-003 -5.0713150717354577e-003
      4.3399674394383001e-003 -6.8157797140690635e-004
      -6.0690279011273692e-003 1.7255102049085685e-004
      -1.1914510003713730e-002 8.1952936182081246e-003
      -1.5480767863149329e-003 -5.5877992585627641e-003
      2.4316745078392181e-003 -5.1417053476361723e-003
      7.5623595149384064e-003 1.6515059952506017e-003
      2.1448526910768043e-003 -4.4318269407067502e-003
      -2.2222034328294922e-003 1.0627450408351578e-002
      -2.1546418507774128e-004 2.5356842214036383e-003
      -2.4627257851953326e-003 1.0034786567570829e-003
      1.6333000426052676e-002 7.8073910907710004e-003
      -3.8426841906857748e-003 1.1060271370713082e-002
      -6.0224214461276106e-003 -6.8197197862011807e-003
      6.6735091247606846e-003 3.0351118096390147e-003
      4.0815940746821962e-003 5.2887001988407801e-003
      5.6717710469590191e-003 6.5652577925074274e-003
      -3.8157266301756575e-003 6.6792877729427175e-003
      -7.2048571469838516e-003 -7.1350006853496770e-003
      4.6431556526357245e-003 -3.1168732715731143e-003
      2.5829430377049766e-003 -4.5911055875331478e-003
      7.3922007301607017e-003 5.9226396450674937e-003
      4.6353841512093629e-003 5.8865908544728932e-003
      1.2387464621980270e-003 -2.1542638572531114e-003
      -3.5588125315336892e-003 -8.7546752313139920e-004
      3.9585852909441747e-003 -1.1317883334524851e-003
      -3.5389478011389869e-003 -9.9297589080423322e-004
      -4.3776974231735181e-004 -6.9194139327047495e-004
      3.8314493910786632e-003 4.7867177435619484e-003
      6.7571825242466483e-003 4.5933641658242146e-003
      1.1343493819576268e-003 4.5313041231404916e-003
      4.0141049901535487e-003 -7.5330851128586071e-004
      -6.7607745794295761e-003 -3.9743070588010021e-003
      -6.8015628519875942e-002 -6.5389049929125828e-003
      1.3838006623770537e-002 2.7680490281514368e-003
      -6.3856260841027856e-003 -3.2323130133104830e-003
      4.3077658478079634e-003 -8.3221143345825130e-004
      -1.4617369993956137e-004 -8.4354490951918746e-003
      -3.0330614239912992e-003 6.0458513680088381e-004
      7.4777122552605281e-003 -1.1826678280158636e-002
      4.5935278017484801e-003 -1.6713263684781825e-003
      4.1447629667879012e-003 -1.2359644720866175e-002
      -4.9930378376201725e-003 8.8406463418623342e-003
      -1.0189522186204125e-002 6.6755222019107031e-003
      9.4727697276323283e-003 -7.4951349155698765e-003
      5.5902304441700756e-003 -1.8309699459425439e-003
      2.3764408034857901e-003 -3.7985061960861461e-003
      -1.3755204151633996e-003 -6.5548917419548641e-003
      2.4791835961033206e-003 3.7632674843733538e-003
      1.7443822047448175e-003 2.3194159931307747e-003
      1.2067274898649532e-003 1.3027160450523951e-004
      4.4963752145668083e-003 1.1334130349292048e-002
      6.4474505186158972e-003 -7.4890561946609931e-004
      1.1633434555545775e-001 5.8119302864571412e-002
      -2.8804856651965385e-002 -1.5408330144407284e-002
      2.0864925408675003e-002 1.9754507147887825e-003
      -2.6718734067920150e-002 2.5214302781315450e-003
      2.0567874490616353e-002 1.9701934424647956e-002
      5.7655161698430511e-003 -3.5998573785024829e-002
      -1.7769862492147983e-002 1.9077680436818539e-002
      -2.5217363026088145e-002 1.6464974026781046e-002
      9.7288246634055827e-003 5.2996376294137254e-002
      1.7921409135107508e-002 -1.4301507288946171e-002
      1.6711458261638109e-002 -5.7081990772683569e-002
      -7.0133321659099556e-003 2.4951962715273904e-002
      -1.0679554349098912e-002 2.9281832590125460e-002
      -1.3919606912634578e-002 1.1448488416870160e-002
      -4.5943626326665696e-003 1.4508380397555441e-002
      6.7491812887667249e-003 -1.6914526364412610e-002
      -2.9101450347219650e-002 -3.6633314641449657e-002
      9.1925517084374686e-003 3.5927904965704867e-002
      -4.4026589266224776e-002 -1.5445766306639713e-002
      -1.2691467670336812e-002 -1.1589642399700145e-002
      1.4715298308804972e-001 5.2131879544326180e-002
      -2.6985780576014130e-002 -2.2745259031581189e-002
      2.0470521810031252e-002 4.9484104942733951e-003
      -2.4521107460866158e-002 -1.2488158407668102e-002
      2.1900829051942263e-002 3.4623398256287914e-002
      1.5008858125646759e-002 -4.3938332480833585e-002
      -2.5400238830487549e-002 1.8721772356492340e-002
      -3.2807624990471025e-002 2.1400866802292223e-002
      1.4291162200773731e-002 5.9934643356354879e-002
      2.6278391621349984e-002 -1.8299750702547926e-002
      2.1159257638067034e-002 -7.3730803366856001e-002
      -1.0064427562450915e-002 2.7948319631832749e-002
      2.4871588614670485e-003 3.4762953888049675e-002
      -6.5279128419028524e-003 1.0847327328196798e-002
      -1.9891908597200976e-002 1.2070661324357553e-002
      -4.0872199414124424e-003 -3.6581523920891180e-002
      -3.0968580192031449e-002 -4.5768036560188803e-002
      1.9809925354998890e-002 5.2551010999453064e-002
      -6.6757290865519847e-002 -1.1694071057457667e-002
      -3.5553111552532545e-003 -1.9635674603461120e-002
      -5.1941714074964285e-002 -1.2566236539435266e-003
      1.0708020152257709e-002 -1.0882745489832130e-003
      -8.7153911964348019e-003 -9.1228555375164337e-004
      2.0347602563016202e-003 -6.2937446546761774e-003
      -4.1757283150703093e-003 -1.0632321655485406e-002
      -2.1111630978568967e-003 7.2486798641462589e-003
      -2.0206320820538456e-003 -7.5190327677796577e-003
      9.5243308929128575e-003 -1.0654779966515230e-002
      5.0163660249150531e-003 -7.0814857532777225e-003
      -1.9669514680303543e-003 1.6295142725614612e-002
      -1.5828046893320423e-003 -2.9333256592996432e-003
      1.0540840387261418e-002 -9.7722321201434009e-003
      8.1439069664766839e-005 -1.1211382307883598e-004
      -2.1288917180622797e-003 2.6584339782587643e-003
      -1.0924989945230606e-003 3.6950832908925831e-003
      8.6807431185594269e-004 -5.0609996349778195e-003
      4.6996704408322426e-003 5.7461506987027296e-003
      -7.5586852912461495e-003 -2.3917334528369624e-003
      4.8050544710753571e-003 1.0475621010871249e-002
      -4.3976203282678778e-003 6.9405053863387496e-003
      9.6152037756605607e-002 4.0451504515196419e-002
      -1.7757793282489186e-002 -2.2063566283500903e-002
      2.2204123805554477e-002 -1.8433465897793003e-003
      -8.8968038032826661e-003 -3.7539865882192905e-003
      7.2230980945101929e-003 2.1055512080976634e-002
      -1.5929454555891245e-003 -1.8549017056060338e-002
      -1.6245773490798015e-002 1.5939811645513974e-002
      -1.5883522920636481e-002 2.9495273485250096e-003
      4.2115987521680618e-003 3.6229985584773625e-002
      1.0027692401250586e-002 -1.0812319900712731e-002
      2.0723217707925137e-002 -3.6475871603358252e-002
      -1.5531889487631107e-002 8.8264904029830490e-003
      1.8092324630349398e-003 2.3223222218833699e-002
      -4.4251399681733972e-003 6.2759793435980581e-003
      -1.1818175826731246e-002 7.6311440595840350e-003
      6.7528222027724179e-004 -1.1649854931839903e-002
      -2.3834438098471990e-002 -2.7021116903900813e-002
      8.3784454131899770e-003 2.2886631959611419e-002
      -3.7250843052784630e-002 -2.2315436896925009e-003
      -6.0535159230793566e-003 -4.7743551117338662e-003
      -1.6263915155575109e-002 1.5961298360344760e-002
      5.5961271962421885e-003 5.4318059030545565e-004
      -4.4702605587211234e-003 -7.2484931598743108e-003
      -3.2092803947810530e-003 8.7996785740788921e-004
      -2.3617646096492396e-003 4.7247427528418597e-003
      -1.6096613930305567e-003 -8.3220709395498190e-003
      -3.9438277775088380e-004 -1.5396579095007271e-004
      3.1432861079774819e-003 4.6231301642847807e-003
      6.8875832606040297e-003 6.4426599261043563e-003
      1.9506495508263065e-003 -4.1290153449078442e-003
      -7.9455905602268846e-003 -1.6521594917136916e-002
      -5.2741535686890838e-003 1.2370695085776799e-003
      -1.5569531101725619e-003 6.0412752567474718e-003
      5.5661663728902213e-003 2.0558881831251319e-003
      -6.9362091988284611e-003 6.4730149044682711e-003
      2.6789258451951001e-003 1.0806977826626478e-003
      3.2410724064709348e-003 -4.3110566458323387e-003
      2.2318403307503023e-003 1.9512125187633883e-003
      -1.0662789191486881e-002 2.5063010563178344e-003
      3.8270308022994100e-003 -1.2586078116556275e-004
      -2.8584449849662760e-003 7.4628194222871079e-003
      2.8416584198512145e-003 -5.3977520679434126e-003
      7.4531322579331222e-003 -2.4372055864729969e-003
      4.8353575317148616e-003 -3.5593305603953854e-003
      5.5731718376613466e-003 -6.4769815348013148e-005
      -2.5956993519199311e-003 -1.1016662248592926e-002
      -1.1793560654042843e-003 -1.3508901786666238e-003
      -9.0926585233815703e-005 -7.1517588124007173e-003
      3.0471479449763771e-003 1.6471869437730902e-003
      6.7516950379624407e-003 6.5252371978689987e-003
      -6.2702629260900757e-003 -5.1627267736389492e-003
      1.7002104988149611e-003 6.1063725357977964e-003
      -6.1720267613514833e-003 7.3848456292082809e-004
      -5.3213396086650372e-004 -2.6184173526371452e-003
      -2.3818495734150855e-003 -3.4586565032656098e-003
      -5.3217687218518606e-003 3.8708012439896797e-003
      -4.9524436563621313e-003 -6.3826431135050789e-003
      8.3349523650738545e-003 1.3048219952918508e-002
      -5.5152860313491319e-003 -3.3392305927140947e-003
      -1.1042701621296921e-003 -3.3237165281996433e-003
      -2.2755553474705807e-002 -5.7567861979215384e-003
      3.0488491054971359e-003 -4.9008489003521567e-003
      -7.3218905666006476e-003 1.1606397409042938e-003
      -1.4928318589721361e-003 -6.5145841870895673e-003
      -2.5063577458295043e-003 6.6064291163864936e-004
      -3.5925584630417126e-003 -2.2305579443516483e-003
      2.1351820853911952e-003 -5.1399798683090647e-003
      1.0342570428457220e-003 -3.0816505016372639e-003
      6.3675246428208140e-004 -5.0176249229839107e-003
      -7.5802699978389310e-003 5.1716828071223528e-003
      -3.0198934875124163e-003 3.5616288075495410e-003
      1.6032714654460735e-003 -1.3976281403581619e-003
      6.2902636237759700e-003 -4.6942929468067829e-004
      6.8777561087812094e-003 -4.3155429499906698e-003
      4.0778066306976319e-003 2.9181196858566990e-003
      -3.7991390608548649e-004 5.3710680822013088e-003
      1.8173709976467894e-003 -1.6941970406101601e-003
      -4.4936347139664604e-003 -3.8836171525992820e-003
      -7.2055549909485865e-003 7.5889161245126175e-003
      -4.5864692223707478e-003 -3.9311997675589728e-003
      4.8396879378044044e-002 2.9995166929950096e-002
      -9.7508833312014969e-003 -1.8806467543353998e-002
      1.7209308512979693e-002 2.8992250680967952e-003
      -1.9415482594831147e-002 -8.4435019435485873e-003
      1.2776396725552872e-002 1.4798398117196455e-002
      -1.5331465254272791e-003 -2.9170914151992425e-002
      -1.9277829944186163e-002 8.3049279508339447e-003
      -1.6208068000165707e-002 3.2774439928095634e-003
      1.4765981757406942e-002 3.8573699435848499e-002
      1.3861047973958091e-002 -8.7639556598084686e-003
      9.7937322326235293e-003 -3.7669676078505687e-002
      -1.2229640752707834e-002 1.5238464522567854e-002
      -2.4048729784834637e-003 1.5172158435240437e-002
      3.0837804588585311e-004 5.0183455359811835e-003
      -8.3763133421699849e-003 6.6313631618866997e-003
      2.9341635437845500e-003 -2.2854660610244330e-002
      -1.4295415158138433e-002 -2.6710721891950801e-002
      1.1433179669013773e-002 2.1673395885002195e-002
      -2.1213685275432052e-002 -1.1161329885097689e-002
      -9.0486961044189754e-003 -1.0119844256704711e-002
      5.9610519889042805e-002 2.2384994341187001e-002
      -2.0156676534503037e-002 -1.1215707509655400e-002
      1.4431955975473473e-002 9.6485322220076462e-004
      -1.4176855549014830e-002 5.8943774076903209e-003
      1.2399976913549647e-002 7.9031963777375959e-003
      5.9896352232249621e-003 -2.0364033072262828e-002
      -8.8259556778573656e-003 8.7115773736233335e-003
      -6.7590232952773003e-003 2.7982701938192873e-003
      7.4306930178021828e-003 2.1443280802881142e-002
      6.0068611363349031e-003 -8.9168567904484679e-003
      1.5651030170029435e-002 -2.3755899869020373e-002
      -6.5761054959995232e-003 1.2540215694662031e-002
      -5.2130692821921263e-003 1.8384188649278030e-002
      -7.1476195331543757e-003 4.0072070399852101e-003
      -9.3810840645598848e-003 6.3834232409552194e-003
      3.2630191059620341e-003 -7.4284001463347680e-003
      -1.5479355489871416e-002 -1.5447897260763581e-002
      6.9903873576954044e-003 1.4655550422879046e-002
      -1.5077587003744904e-002 -6.0153653350626841e-003
      -1.0215445275239125e-002 -1.1987302742194800e-002
      8.2319653816767771e-002 2.9834296537520365e-002
      -1.3152395854121986e-002 -1.9230658922459329e-002
      1.9228470492099668e-002 6.6397436469099380e-003
      -1.9651622778934719e-002 -3.9723710717123328e-003
      1.3532230971262726e-002 1.9017330643219948e-002
      1.4091343470014352e-003 -3.5444210319086747e-002
      -2.6384871158131162e-002 5.7068592695620843e-003
      -1.7006647060617837e-002 1.0920103710839691e-002
      3.8266290512731491e-003 4.6289996239308524e-002
      1.7384315842726570e-002 -1.7295771014010659e-002
      2.0740816651420673e-002 -5.6132159177779986e-002
      -2.6053367342920202e-003 1.3173757879022785e-002
      -4.6614014378220823e-003 2.4675239819944100e-002
      -1.2343743398925992e-003 9.9875961842346601e-003
      -4.2055154015994758e-003 5.4327439565826597e-003
      2.8824026502722025e-003 -2.1138644594527432e-002
      -3.1906209002309401e-002 -3.2776538264386187e-002
      1.3034481321413180e-002 3.0180934503405640e-002
      -3.8374960527178842e-002 -1.3072242046271139e-002
      -1.0452005490472953e-003 -7.5445791613177682e-004
      3.0406917139580185e-003 1.9639549506248893e-002
      -4.4903269644574351e-003 -7.2040307176022495e-003
      1.7812457861214760e-003 3.6624449666292688e-004
      -8.3598203251985092e-003 5.1762525341080400e-003
      4.7512139142916942e-003 9.3015178409100365e-003
      8.2096573537978959e-003 -5.4946921181443587e-003
      -1.1892106689658872e-003 -9.5152531008021980e-004
      -2.6690124861462067e-003 1.7578493989608636e-003
      -6.2827497531766936e-004 1.1324366686708342e-002
      2.1464760984983436e-003 -5.0284745047534645e-003
      3.8534667349939804e-003 -1.4245051947907140e-002
      -7.0432977088808416e-003 -3.5247607303319256e-003
      -7.7717291780189535e-003 9.7154740802374350e-004
      -1.7983586705677223e-003 -2.3242620266840748e-003
      -2.3858384274359685e-003 4.8068768447911353e-003
      -1.1912365383502363e-004 -3.0036450180597990e-003
      -4.1945591477014809e-003 -3.2906019391272896e-003
      5.8542085696135348e-003 1.7552994555378829e-002
      -4.7708575278967340e-003 -4.1323903995548099e-003
      -7.4858473382221893e-003 4.8576313193929759e-003
      -3.2469892443115281e-002 8.3966995967726669e-005
      6.8316405482547887e-003 3.2910948713887117e-003
      -7.3905975700681035e-003 4.7394553686836722e-003
      8.4780083554337731e-003 2.6570025822125168e-003
      4.4771191806304905e-003 -4.4811411646036746e-003
      -1.4295390068976752e-005 6.5084324982677428e-003
      1.7466070516644460e-003 -6.5927756493898849e-004
      9.7860987911456560e-003 -8.3980799952591192e-003
      -6.1961797104773267e-003 -3.0734864151523138e-004
      -8.0303581598370286e-003 6.5712494718652278e-003
      -1.1387027662942363e-003 3.1501264614737850e-003
      9.4230963722732927e-003 -3.3042364642940809e-003
      -2.6297164761711800e-003 -2.9102701665754791e-003
      -6.1472278961409721e-003 -3.4382611717964765e-003
      -1.7241834665532856e-003 -5.1786596815631787e-003
      1.2253958051049807e-003 4.3772275502033308e-003
      6.1055207137339952e-003 -5.1923205561409331e-004
      -5.1853854062300087e-003 1.3563341921619531e-003
      7.8069714051712787e-003 2.5534897571683471e-003
      -2.5328545834391778e-003 8.7993275916246668e-003
      -2.8555186524993423e-002 9.7369188300150192e-003
      -6.0081796423525850e-003 1.7125658226258959e-003
      -4.2665698082149858e-003 2.8225660115099292e-003
      -3.2563674343232805e-003 -1.0340253210968108e-004
      -8.8976052380840634e-004 5.6864236264054522e-003
      -5.6376098919208662e-003 -8.0141707422219429e-003
      -1.0497531488886885e-002 3.1042731279601323e-003
      -1.0496216272615009e-003 -4.0258554216065683e-003
      2.6504007085621914e-003 8.7938778943403764e-003
      8.0809131520792642e-004 2.2580876979475255e-003
      -5.8192043596840069e-004 -2.7654687812606066e-003
      -3.8069579994714090e-003 3.3962841096651089e-003
      4.8857171919360911e-004 -4.5014769346807537e-003
      2.2710945881659694e-004 7.3293219643908490e-003
      5.2567192629676095e-003 8.4850035125145998e-003
      -4.5511310584652421e-003 -6.0391188890942058e-003
      2.9107806849798384e-003 1.7069675858176730e-003
      -5.6102812664054532e-003 8.0889311435047642e-003
      -1.2887836810586103e-002 2.8738550257074065e-003
      7.9452463080733953e-004 8.3559559442554672e-003
      -2.2497669673254557e-003 2.1561182635701809e-002
      3.3848249869728795e-003 -6.9610011559068262e-003
      8.1284824102576658e-003 -4.6515058192177277e-003
      -2.5135417676004053e-003 4.3587610017169938e-003
      8.3911286760201299e-003 4.3193008336887585e-003
      7.8771303908727972e-003 -1.2015470805821427e-002
      -7.6335378990876205e-003 -2.8789454543749903e-003
      -2.8710336125995868e-003 5.3222448012076413e-003
      3.2830057465723932e-003 3.4742609769310199e-003
      5.6239139403304206e-003 2.2618268280729320e-003
      -9.3528608980784781e-004 -2.0836928447719321e-002
      -6.2082994563294218e-003 7.3929888667364097e-004
      4.8597862761163247e-003 7.0814017846057278e-003
      5.9843172327542077e-003 -6.2613512232961343e-003
      1.1062807992137452e-003 4.7620971050499929e-003
      1.9098322664186308e-003 2.7838515830789514e-004
      -1.0110484794342690e-002 -1.5298729577385334e-002
      3.2858878148722123e-004 1.0770822168810179e-002
      -6.5132101404372506e-003 8.4575645070174385e-004
      -5.7739638958016334e-003 -5.1508307440810072e-003
      -5.2507868632913540e-002 -4.0144662277422074e-003
      8.6830592338149829e-003 1.0486605126146855e-002
      -4.7518230940090085e-003 -3.5082780276466676e-003
      1.0145383439569599e-002 5.2910198363079492e-003
      -1.0362834705339885e-002 -7.3304195413294729e-003
      -5.7273172565365134e-003 6.3577229109885352e-003
      9.4606610226673788e-003 -1.0711850595610830e-002
      1.2511956305602635e-002 -1.9915810350888924e-003
      -5.5416419143170005e-003 -4.9963835500091841e-003
      1.5182035546624313e-003 1.3284508837769930e-002
      -1.0828733403304466e-002 1.4382616435517510e-002
      5.8515913231606933e-003 -7.0961575033850885e-003
      -5.0210442266026079e-003 -5.6133122685386554e-003
      4.5591693096879221e-003 -3.5641627493111822e-003
      1.6646398114110964e-003 8.6800016674555829e-004
      -6.0720987873692546e-003 7.4054072855997445e-003
      1.0048843001570579e-002 9.1868359198218098e-003
      -9.9074396020870023e-003 -2.0887768501850722e-004
      7.8708703178846130e-003 1.7381690214680939e-003
      5.7167838023435965e-003 -5.8239101005516094e-004
      -1.8146833369150843e-002 -4.3121876817700713e-003
      -4.6666752969325197e-003 7.9118062223571799e-003
      1.1594684867542765e-003 -8.9299310306895411e-004
      2.2909477624618283e-003 -2.6883440578116314e-003
      -3.4229907874512317e-003 3.3720521685242500e-004
      1.7429636104830551e-003 2.7829806439029501e-003
      2.1197026910963297e-003 -7.8173437139529046e-003
      4.8471783570053287e-003 1.3512624673051940e-004
      -7.7679741685040870e-003 -1.0105747053702522e-002
      -3.1332552943287612e-003 2.8429515214687495e-003
      5.6484256465558699e-003 -1.5575381525340067e-003
      6.8901956295287815e-003 -1.6973930313918916e-003
      -4.0638106355953265e-003 -8.2339883889432058e-004
      -5.7066621279715452e-003 3.1440779377586623e-003
      -4.8515212901847592e-003 -3.8276694931464487e-003
      7.1816861726734975e-003 1.4625169638045963e-003
      2.8319024338681669e-003 -3.7376272974796567e-003
      -9.4313423511752092e-004 -4.2435609941939480e-003
      2.4733329640990696e-003 -1.3191559065154996e-003
      6.1187114485237015e-003 7.5394112787493899e-004
      -8.6132689547853192e-002 -9.1124386184081776e-003
      6.2452348347595710e-003 1.3533603274394524e-002
      -6.1369608507629040e-003 3.3162389246847285e-003
      2.5869198876462716e-003 7.5108652679494285e-003
      -7.9041129156597820e-003 -1.8016521071745326e-002
      -1.2862396094319350e-003 9.4979912907673884e-003
      2.8714901352562363e-003 -1.0241383019262985e-002
      8.8014835343860256e-003 1.0953720057292382e-004
      -5.5374730370312706e-003 -1.3478215820276704e-002
      -1.5311214168272788e-002 8.5374488892558751e-003
      -4.0184671539083752e-003 1.1775973318038853e-002
      1.2034514038974802e-002 -5.9523612110196546e-003
      -4.0773793950413190e-003 -2.5900715604410636e-004
      1.0128849236190473e-003 -1.0443959656068012e-002
      1.4818572993263873e-003 -1.0274388539287674e-002
      7.4415953387107050e-004 7.3113154698772811e-004
      1.1779353362041653e-002 1.3634749372831193e-002
      -1.9203400439182069e-003 -1.5005676946872267e-002
      2.1253207540503336e-002 9.6197959433530784e-003
      8.4236879360215320e-003 8.3124789608553587e-003
      9.4228553625092970e-002 3.0964642773471988e-002
      -1.6122445088443491e-002 -1.3978665464146634e-002
      1.3593669574835539e-002 1.2434950421257509e-003
      -1.5163034798874311e-002 -8.0704315169181624e-004
      1.4720664066854135e-002 3.1336207129091263e-002
      1.3923086239975825e-002 -2.5356694744864679e-002
      -2.6552595171276193e-002 1.1527522665201328e-002
      -1.5759598651340599e-002 9.1643162094871312e-003
      4.3157794051097960e-003 3.8384694014143649e-002
      1.0511018970740455e-002 -1.6302261001217504e-002
      2.2095838010122028e-002 -5.1398082894125389e-002
      -1.6786546864040353e-002 1.1289295587028767e-002
      3.8770245364793932e-003 1.4349852579801980e-002
      -1.1209971056883308e-002 1.3179002677052286e-002
      -7.2419703951272923e-003 1.8387524702583871e-003
      3.1950992254395840e-005 -2.1121793864970248e-002
      -2.8441746622204427e-002 -4.1260825282500704e-002
      1.0567929768505077e-002 3.4276637222028061e-002
      -3.7702893291484102e-002 -9.6472807993809237e-003
      -6.2051284831685961e-003 -1.6030304402841679e-002
      -1.1431095732118636e-001 -2.7321536750460420e-002
      1.8360603810934777e-002 1.5874844638070013e-002
      -1.4300356031377793e-002 -6.8614883457444225e-003
      1.3377004031116503e-002 1.7231204193206345e-003
      -1.0060318729046110e-002 -2.7851477134286311e-002
      -3.2569090465497581e-003 2.1435705893576303e-002
      1.3584377968036842e-002 -4.2322918935680494e-003
      2.7040565804906914e-002 -1.3689991845490483e-002
      -5.3846238565473286e-003 -2.0271382426139885e-002
      -1.8229942807458675e-002 2.0893798598570733e-002
      -1.5231398372146130e-002 1.8989608524315926e-002
      3.7818457086395045e-003 -1.0592430895304233e-002
      9.1782445884004762e-003 -1.1606889501141688e-002
      1.1721547422395265e-002 -5.7957514098544707e-003
      4.6522936781686621e-004 -5.0310309344184418e-004
      -3.0095791105256360e-003 1.9067393959153280e-002
      1.7387834350265158e-002 1.4766426364029256e-002
      -9.5528542336219182e-003 -2.0387939246608179e-002
      2.4808103245895094e-002 5.9906907295169043e-003
      1.0696790083629467e-002 9.8635556863328148e-003
      8.2675406135109986e-002 4.9395729265275919e-002
      -1.9482248771460309e-002 -2.3904424122016921e-002
      2.7424525416128661e-002 3.9718510077819029e-003
      -1.5627691903153117e-002 4.0222522526466402e-003
      2.5885017107040116e-002 3.0779971212584332e-002
      -1.0099460951997574e-003 -2.8022956135958878e-002
      -1.9150175083093978e-002 8.0116843702895072e-003
      -1.7129537453529867e-002 1.5579577110078317e-002
      1.0627026447846430e-002 3.2821654975103441e-002
      8.4298594149836790e-003 -4.6096342835635976e-003
      1.5249578898926679e-002 -4.2786106203650733e-002
      -1.0938596687640989e-002 2.3935549458048835e-002
      -7.0307931158885770e-003 2.2272450742202764e-002
      -1.4673989246865287e-002 -6.0030049338272195e-004
      -1.3647345911483165e-002 2.0917805701788023e-003
      8.0546115945220442e-003 -2.1053390434633550e-002
      -2.3395057631640109e-002 -3.8536478154563743e-002
      6.3094027426013775e-003 3.0200799252190099e-002
      -4.2628182200637042e-002 -1.2683330275363690e-002
      -8.0412506829117998e-003 -9.0567573112126515e-003
      2.9483401891371112e-002 2.5207429947807811e-002
      -4.8531880565689609e-003 -3.8741210438026159e-003
      1.4373339073692292e-002 -2.1818877868627212e-003
      -5.7165772958913796e-003 4.5068383214498641e-003
      3.6936379907183026e-003 1.3968377866921903e-002
      8.7903119118419430e-004 -7.9633261893265785e-003
      -1.1271681701203738e-002 -4.0212476839263135e-003
      -1.2848963830977988e-002 -2.3889680468905405e-003
      8.3423526171652867e-003 1.8492927107775416e-002
      8.9313046966444758e-003 -5.5365883749773524e-003
      7.9549461514349454e-003 -1.4885326252778492e-002
      -9.4537335483160113e-003 9.0519692853578120e-003
      1.4776060140608855e-003 1.4004981506387270e-002
      -8.1698852114646548e-003 7.7056936064703223e-003
      2.4887078500515939e-003 4.5024646349007876e-003
      -5.3835077100191937e-004 -1.5656150857591273e-002
      -3.7694798003747652e-003 -7.4091619909559137e-003
      1.1779276934646683e-003 8.8466747376788613e-003
      -9.3012824381339294e-003 -6.2560518824954781e-003
      2.3032047931910368e-003 -9.8063188663787357e-003
      2.3047353771548460e-002 2.6500452990494177e-002
      -8.8186580671213224e-003 -1.5083223908381713e-002
      1.2871466111994323e-002 -3.7863416468113232e-003
      -7.7215916784216711e-003 2.9539170719815365e-003
      6.2990084855825256e-003 9.1724043657335323e-003
      -1.6625578909903063e-003 -2.0435969150048455e-002
      -1.5710931383905610e-002 3.4347380242521507e-003
      -9.6227050868246244e-003 -3.0142456231247706e-003
      1.1549331634639570e-002 1.8823593874237966e-002
      -1.3361539778437002e-003 2.4161709474651498e-004
      -9.5471977070020020e-004 -2.3351234068942850e-002
      -1.9936884191509375e-003 1.3370238802241266e-002
      2.5177911895530613e-003 9.8951280761490398e-003
      -8.0521313907185692e-003 6.7892786803609882e-003
      -2.1233477148179156e-003 7.3803522860943710e-003
      6.2522247581245109e-003 -1.0908324532210717e-002
      -1.2172798886932852e-002 -1.5939409447154509e-002
      -2.9473172318948762e-003 1.7737941110675094e-002
      -1.7499374933055398e-002 2.1370839694797479e-003
      -3.0861495799732134e-003 2.2233034957088267e-003
      -6.0869031879723194e-003 4.9435025159882493e-003
      -6.3934799669298137e-003 -8.7288215645103025e-003
      8.9000923848516923e-003 5.0306637851786178e-003
      -4.6926797021501999e-003 8.8660542691193001e-004
      -6.3482354579115661e-003 -2.4512008291860816e-004
      3.3899042715599681e-003 -6.8973419141447169e-003
      2.3706539963496251e-003 3.9079612415754399e-003
      -2.2970538644676171e-003 -2.4125144923202524e-003
      -4.0327631954596510e-003 5.2262292411904068e-003
      -6.5557777269407581e-003 5.0658151713857185e-003
      -7.9540972545143153e-004 -1.1710100630039588e-002
      -3.5334958911860262e-003 9.4127674024247019e-003
      4.4498019024068599e-003 9.3201514406743887e-004
      4.0246810553110253e-003 4.4913423309465824e-003
      -5.6540492394879542e-003 -5.0976274766342030e-003
      -3.4771652858612803e-003 -1.0175057729043218e-002
      -9.0604043786819462e-003 -1.0538781267633782e-002
      7.5734961733622212e-003 1.1448623797447811e-002
      1.3966627796778348e-003 7.1436980106360315e-003
      -7.6884754610422124e-003 7.0019387245325391e-003
      5.2868613698752870e-002 2.6885507265211207e-002
      -1.4664174366161520e-002 -1.5531982033909826e-002
      1.0967934619315906e-002 4.5502730627724310e-003
      -1.1860854340830772e-002 -8.5565674094409631e-003
      4.2012761651953586e-003 5.2663756964274862e-003
      3.9558964480414368e-003 -1.1221589854095403e-002
      -1.0223042721378695e-002 8.1907827450617161e-003
      -7.8199920377518325e-003 -1.6002874528122536e-003
      2.8782150941844037e-003 1.3812649476882374e-002
      1.0316117276835568e-002 -8.6830159379197649e-003
      1.5150566049129297e-002 -2.4813837843387851e-002
      -3.4813659940960899e-003 1.4690770266841324e-002
      5.5355012373150816e-003 3.9212723295924574e-003
      -8.7006671202149496e-003 3.1819139784229765e-003
      -1.0522398531883959e-002 6.9586794691027121e-003
      -5.9874001818348670e-003 -1.3310301992670139e-002
      -1.8386152446421979e-002 -1.8863646982546996e-002
      8.6419831921781265e-003 1.8223342315484208e-002
      -1.2229830803671880e-002 -5.2101609169369033e-003
      -6.6635367410489360e-003 -4.6013859090689967e-003
      1.1115600760312443e-001 5.3447446801295505e-002
      -2.7247452950536384e-002 -2.1243124438305051e-002
      1.9912484600631431e-002 -8.1603862159207088e-003
      -2.7189033430240570e-002 -6.6459473162264072e-003
      1.9744184407043598e-002 2.8904765534884694e-002
      2.9152171426889530e-003 -3.7467632499350249e-002
      -2.6880540920301239e-002 7.3236886713662422e-003
      -2.4483384068646454e-002 6.5377125805639296e-003
      1.9244312253078922e-002 4.5996261143316571e-002
      1.5151108355661998e-002 -2.1654829497710946e-002
      2.4877151410309821e-002 -6.4432004123381709e-002
      -1.7095609277324834e-002 1.7234560989349026e-002
      1.3919772347000662e-004 2.9771654110861957e-002
      -1.1455284855740216e-002 -4.8627642592623808e-004
      -7.6482463023974526e-003 1.3444369031042624e-002
      9.6368176814787775e-004 -2.6955636802090226e-002
      -2.8692401494338802e-002 -3.9455810666456953e-002
      8.2239599682410354e-003 3.8439871516143254e-002
      -4.6256886890224204e-002 -3.2466065734718607e-003
      -9.0722254602879551e-003 -1.0556900387283451e-002
      2.9370505997461771e-002 2.2540297349810473e-002
      -5.8991826553751858e-003 -5.2655231969147825e-003
      3.6386272664487001e-003 -7.4852009905393164e-003
      -9.8713536952765042e-003 -6.9339037948193908e-003
      1.3591396443024760e-002 9.5317695900754562e-003
      5.9920983140207681e-003 -2.1328767713833852e-002
      -1.4874051301934284e-002 3.5765124436719577e-003
      -1.0988080934179028e-002 6.7889885464311349e-004
      3.5248119790906099e-003 3.0159697329677427e-002
      1.1999045354018655e-002 2.4736057415123019e-003
      1.1813578901020002e-002 -2.3183299790174715e-002
      3.8186584498269937e-004 2.7011301747797878e-003
      -5.3586297968264652e-003 1.6084625371897816e-002
      2.7083808907797423e-003 4.1064823660318271e-003
      -9.8686105845165704e-003 2.4434833158652584e-004
      3.6539866874454405e-003 -1.4432886124295987e-002
      -7.7380840324690475e-003 -1.2323215856099313e-002
      -1.6787104206697522e-003 1.9655818241871650e-002
      -2.9193120432748743e-002 3.1837560401278861e-003
      -5.2459795993101297e-003 4.0641071834706362e-003
      -4.8323210561543040e-003 1.2180381485312534e-002
      2.5863201474426566e-003 -2.0580303347969343e-003
      3.8731125424747669e-004 2.9629042090267418e-003
      3.2604288989038868e-003 -2.9766764049889284e-003
      -9.4363113097129176e-004 4.6515689904280165e-003
      -7.0847675147140401e-003 -9.1712440736878495e-003
      -1.1190598323103021e-002 6.4270312478005541e-003
      2.2523994017333951e-004 -1.3155840066463976e-005
      -1.4945638262437210e-003 1.3521290127300507e-002
      -4.9391437841208152e-003 8.3802972451183476e-003
      6.6600581759943831e-003 -1.2346969557311092e-002
      -3.8836677553595921e-003 -3.7119114102043462e-003
      -6.3593479588445641e-003 8.2501476274818315e-003
      2.4850905318387581e-003 6.9901169141344064e-003
      -2.5673151376205999e-003 7.6783060891696666e-003
      -7.8774360182936910e-003 3.1400543903170393e-003
      -3.3022501790317287e-003 -5.8596613443553285e-003
      3.4156280783539097e-003 3.3204965999817531e-003
      -8.8348846014813485e-003 7.4785204094321616e-003
      -7.7648352936805004e-003 -2.4656924506648906e-003
      2.6033262082606791e-002 2.1992905671751214e-002
      -1.0117369995622414e-002 -7.2434382205692162e-003
      1.6184256630025549e-003 -3.7901258297564789e-003
      -4.3418132561197937e-003 -9.4863070397780260e-004
      2.0780158479188500e-003 4.7416293297496770e-003
      7.9659504638400717e-003 -4.1252651249543320e-003
      -7.8965525119569693e-003 2.4737084846384130e-003
      -7.3479363276495865e-003 9.4633636508200964e-003
      -4.1232358269217076e-003 1.8704485843039454e-002
      -1.0809272744322564e-003 -1.9169743738179986e-003
      1.0775462365852932e-003 -1.1188149156377065e-002
      2.9960238451404420e-003 5.8969113846166687e-003
      -3.7602863486059413e-003 9.0882541095623926e-003
      -3.3522901663097927e-003 -3.7591108956556334e-003
      -8.4119185202145372e-003 2.2879765944352356e-003
      -2.1882956922455966e-003 -8.4890942428968198e-003
      -1.4323707940143557e-002 -7.5186912361276774e-003
      -4.1215873141970663e-003 1.1376205577428897e-002
      -9.8407417839247724e-003 3.1546573061778061e-003
      -4.5846497843730922e-003 2.6995019263989094e-005
      3.5912980531355103e-002 2.4215646522098549e-002
      -4.1164821102583045e-003 -1.2764086681354583e-002
      1.0232304039186462e-002 6.6097256111166498e-003
      -1.5866421752203343e-002 -8.9802398819101587e-003
      1.3849301956141745e-002 1.9740469062817598e-002
      2.5561613240598289e-004 -2.1736664332007102e-002
      -1.1707126710952375e-002 1.1263466950860879e-002
      -6.4164540701473144e-003 9.6161255335789984e-003
      1.3529484266311904e-002 2.9391503634918107e-002
      4.0797410740552251e-003 1.8281614485540806e-003
      7.6588401470065667e-003 -2.1398654868540104e-002
      1.5325672983409414e-003 1.1217129143473847e-002
      5.4115409075364586e-003 1.6431362821279164e-002
      -1.0022643419011720e-003 7.8879841169284155e-003
      1.3946808939058212e-003 -2.3970267975743083e-003
      3.8137196025844942e-003 -8.9319124230507665e-003
      -7.2737680696283316e-003 -1.5580910876320591e-002
      8.2285610124714220e-003 1.3017121668851632e-002
      -1.4200770569572752e-002 1.0951375465912906e-004
      -4.0843567300939696e-003 -5.1384556583654482e-003
      4.8477782067470665e-002 3.3920292397457343e-002
      -1.6251885700485306e-002 -1.1131253745349880e-002
      1.2781037258249995e-002 4.6988583895655484e-003
      -1.5932806451553871e-002 -3.7857077983206823e-003
      1.8934081042890516e-002 2.3718167746005700e-002
      8.6792179064124897e-003 -1.6520981610854385e-002
      -1.3960581017908324e-002 1.2657428827059797e-002
      -1.3777487553157178e-002 7.3133703263912175e-003
      1.3844320918203744e-002 1.9162049175338581e-002
      7.0739668621291824e-003 3.0516100938385773e-005
      1.3828727319887697e-002 -2.8319361398646731e-002
      -1.2175165734896260e-002 1.9153300815699908e-002
      -1.2949918234242560e-003 1.6002685340616142e-002
      -1.2365586856448278e-002 4.0983444990478485e-003
      -1.0091906725000592e-002 3.7562371498141567e-003
      -9.1006085030877302e-004 -1.2200222029236468e-002
      -1.5210724546428071e-002 -2.7334492440338806e-002
      1.3364855354544082e-002 2.9088285333483524e-002
      -3.2423882413734437e-002 1.0108878275734894e-003
      -9.1117416364200031e-003 -1.2240332018414693e-002
      -9.6720462075138430e-003 -2.7928548715555486e-003
      5.4587706605404226e-003 2.9342783630056718e-004
      4.1180276421099945e-004 4.4500961247637060e-003
      -2.1670509822268600e-003 -2.1122430068015552e-003
      -3.0222513939222196e-003 3.6919238318577569e-003
      3.6710430235538409e-003 -3.6715879319804048e-003
      -5.2182050032511234e-003 2.3437377360204406e-003
      4.6767770831079693e-003 2.7358782818224596e-003
      -6.8801173545830173e-003 7.4682238485809195e-003
      3.6594758936626293e-003 4.4397618036047951e-003
      1.4951672885277938e-003 -1.4146457687356187e-003
      -4.1559095185570933e-003 -2.2739000976253415e-003
      -6.5534932106720047e-003 -2.7268202871569697e-003
      -6.3064847511235880e-003 -8.3884638518434771e-004
      7.7452031526194101e-003 -2.9492083183805728e-003
      1.1879675783585417e-003 -9.9664907994360236e-004
      3.1137953178081539e-003 2.0760406667130558e-003
      1.6402665132212205e-003 -5.2955147381345798e-003
      -3.4369129616491894e-003 -5.4581268501873743e-003
      -3.1870046017766062e-003 1.4221734721346572e-003
      4.5422104971032204e-002 1.0663710848723192e-002
      -3.9838309158545847e-003 -1.0733776305914189e-002
      2.7555841361709644e-003 5.3365130589044015e-004
      -2.1700776406065369e-003 1.8139355891684909e-003
      5.2780831956148388e-003 6.6337423437891800e-003
      5.4432532855443819e-003 -1.2243851802228077e-002
      -9.4238019546403623e-003 -5.6891644862333795e-004
      -1.3623937986679047e-002 1.0804851254425651e-002
      1.5880901294566077e-007 1.8409843289793705e-002
      1.1228726041047673e-003 -2.6964779651447728e-003
      1.0034366723093588e-002 -1.5373458377794916e-002
      -5.5750016481266396e-003 1.0353635203884689e-002
      -5.1415455349442963e-003 3.6111639720557594e-003
      -7.3636855897152680e-003 3.7446039856070825e-003
      -7.6317272486040571e-003 -2.6607395760915005e-003
      1.8727470504737153e-004 -3.5388757827809225e-003
      -9.2450057908387406e-003 -1.8843973500174242e-002
      1.1231464330144813e-002 1.1334273624823534e-002
      -1.6368735389625213e-002 -9.4709127854631335e-003
      -3.1683993559239185e-003 -8.5628831631615349e-003
      1.6190745949251437e-002 2.2559960211940122e-002
      1.8363227750646664e-003 -9.5505501124566860e-003
      8.3643862023885930e-004 2.7444812362816544e-003
      -1.0706042293839644e-002 -8.6273863062888978e-003
      5.7034801081349239e-004 1.3690201030692404e-002
      -2.4418155446461380e-003 -1.7262152797139111e-002
      -3.8108069181246101e-003 4.5544874577522461e-003
      -8.1687155405704703e-003 -2.7729593618606788e-003
      2.1121330067402507e-003 9.9878968287900969e-003
      -2.9625003967181100e-003 6.4039900266511188e-004
      -2.7936845059248852e-003 -2.0652940259623435e-002
      5.3925342660680678e-003 9.6248846847323214e-003
      -4.1414922300063552e-003 1.1427177226741036e-003
      -7.6296448759280502e-003 -5.8536776705027833e-003
      1.0279631541459085e-003 1.3312272089556734e-003
      -3.7463192757557101e-003 -9.0613340723212574e-003
      -1.4701264687512261e-002 -6.2727237498070914e-003
      3.0490465950680943e-003 1.9039536817673453e-002
      -8.1854708923954217e-003 -5.9705876573690631e-003
      -8.6483194601959558e-003 2.7582545080060521e-003
      3.7422967722629775e-003 1.1174124060299242e-002
      -2.9550106410529318e-003 -1.0041282598077423e-002
      9.7268678012392192e-003 3.6966128083755407e-003
      -4.9082817718363245e-003 1.5045620215977092e-003
      2.1416824997800119e-003 8.9987152126106175e-003
      -4.2813107835639750e-003 -1.2780012945793749e-002
      1.0211133266619048e-005 2.5578598959605423e-003
      4.5958969076524692e-003 4.7721633422682166e-003
      -2.0269166684956427e-003 9.3036633790886062e-003
      1.0708601448860985e-002 -8.7059562667917197e-003
      6.1833634127907372e-003 -1.5721231480496076e-002
      2.1219993236283384e-003 3.4195534917716057e-003
      3.0893339245044119e-003 1.5293004880185047e-003
      4.3371001137870275e-003 7.9573010349180528e-003
      5.0983046971345199e-003 -6.6341489870635833e-004
      2.5736439818639933e-003 -2.1175968784249715e-003
      -6.9062286648189199e-003 -8.2674992537368867e-003
      -3.1188085810655033e-003 4.5942938059230897e-003
      -5.0737616889332694e-003 -5.7582205258650300e-003
      1.1902393914047997e-003 -8.6063520396075423e-003
      -1.4305893365895788e-003 -2.2911933734462509e-003
      -5.7745111238009525e-003 1.5607389488322273e-003
      2.1823521927792702e-003 -6.7795093484255215e-003
      5.8425900252108602e-003 -1.8470284894459830e-003
      6.5588207308963850e-003 4.3015580878788765e-003
      -5.2084112345548630e-003 -1.2276598882982623e-003
      -2.1163138314148665e-003 6.8739076504664483e-003
      -9.2964487638068046e-004 -4.5224905529121220e-003
      -3.2831618265965284e-003 3.9546649491810975e-003
      -4.1734543290165302e-003 -2.3071741124607074e-003
      -4.2587646950046649e-003 -1.2228160971355378e-002
      6.0948971085060576e-003 3.7853730199120367e-003
      5.9672097469762138e-003 9.8226473560958909e-003
      -3.1813728441458839e-003 5.6503798571950602e-004
      -5.6090505927193128e-003 -5.1480962322780531e-003
      7.3678750399259656e-003 -5.4490178958423283e-004
      -3.7937970120348599e-003 1.9031028994050355e-003
      -4.4615414459548627e-003 -3.2595146495725705e-003
      2.3950906570230994e-003 1.6712797005968296e-003
      7.4946646614435014e-003 6.8097842214712824e-003
      2.4650317457142884e-002 9.3498252527083395e-003
      -5.0750263108595931e-003 -1.4814722824731754e-003
      5.5360097574163498e-003 3.6938292637353348e-003
      -1.1326789224174906e-002 7.0854168984061750e-004
      -7.8541522006267482e-004 4.0931129966178146e-003
      -2.5528759223729294e-003 -1.5105733520052475e-002
      -8.8285237407703457e-003 -4.0725028254178777e-003
      -3.5606305579662075e-003 3.6127639266834810e-003
      1.3169504606078673e-003 5.9267025494309893e-003
      -2.5673696270624392e-003 -1.1207393970345974e-003
      -5.2972463047712144e-004 -1.1813490931410290e-002
      2.1939387022085906e-003 7.1827986924959961e-003
      -5.2316205293518724e-003 6.3646720992265289e-003
      1.9952341341516618e-003 -3.6927771877574823e-003
      2.3909559838687700e-003 3.5729596148257646e-003
      6.2136088006474301e-003 -7.3736755439582410e-003
      -7.6047016226914559e-005 -2.4255333256210342e-003
      -2.1686768848594240e-003 1.5605151305429150e-002
      -1.1484138338475825e-002 2.4799672829256937e-003
      -5.4001677711817903e-003 -7.4894798587200346e-003
      -2.6130156325501395e-002 8.0974781186390725e-003
      2.5705245720258644e-003 -6.8345681735133869e-003
      -6.0453019454846093e-003 -4.5322665145396523e-003
      -3.1313033116660890e-003 8.5032429060580249e-003
      -3.4148279877527425e-003 5.4106017255229006e-003
      -5.3825352953174917e-003 -3.0857280790473457e-003
      -5.0373012247465331e-003 5.9490523676350585e-003
      5.5742074427618752e-003 3.5270518755828976e-003
      -4.8849602562739134e-003 2.6813251653901803e-003
      -4.3258040508336142e-003 3.0691000653851400e-003
      -4.1029258707282867e-003 -1.1032026391584977e-002
      8.0090804744961924e-003 6.5107851185702958e-003
      -2.7727300923510186e-004 3.9760865506179291e-003
      3.8576292530446798e-003 3.7827758385529809e-003
      6.4239456433072157e-005 -6.4884038580429997e-003
      -5.5460335531106629e-003 6.0908985814126376e-003
      -8.0247270577425908e-003 -1.6034471621848116e-003
      1.8732938996399969e-003 -3.8858752119154769e-003
      -3.7000702440710808e-003 -2.6429454844441548e-003
      1.0315306823087827e-003 5.4554956419448496e-004
      6.4962455582130603e-003 6.2768045947060565e-003
      -3.6153637263968228e-003 -9.0641824501631035e-003
      1.3856282012599625e-003 6.1596315123410841e-003
      -2.0312755814409270e-003 -1.8161817432167894e-003
      9.4283287155634797e-003 6.2310101990397792e-004
      6.8211895546468121e-003 -2.3791845570966608e-003
      -1.2499044394311858e-002 1.6739520127977549e-004
      -3.6718115502279549e-003 2.7622032364483461e-003
      9.6964653642578110e-003 1.2583974216616639e-002
      8.9325465859188824e-003 5.6560116049482051e-003
      9.3597583132310289e-003 -1.0406189241149192e-002
      9.1520749580954665e-004 6.3661650206943829e-003
      -8.4039707726154007e-003 1.3403046755735286e-003
      -4.8019638453495935e-003 8.9843105419633879e-003
      -6.5417239477364901e-003 -9.0584853727688813e-004
      -4.5681813087115348e-003 -1.4308336462024961e-003
      -2.8566004701461303e-003 -1.6557462754451826e-002
      6.5448590349665679e-003 1.5973192441235469e-002
      -1.6152625592252050e-002 1.5990605750396587e-003
      5.6527026029858768e-004 -9.2906080781680314e-004
      7.2972268674485516e-002 3.7120300794360489e-002
      -1.2105762124154222e-002 -2.3896859466071042e-002
      9.3184949718907745e-003 1.8828809505443953e-003
      -1.8802564332658818e-002 4.3611771244980507e-003
      1.4139100039570486e-002 2.0008275518997604e-002
      -1.1673763820523265e-003 -2.2060595452650607e-002
      -1.3096785181745037e-002 1.4259022093590821e-002
      -1.7611630447239856e-002 3.1950861016024137e-003
      8.3427108388599448e-003 4.0444472253388979e-002
      1.7060066979104675e-002 -1.4061264355813261e-002
      1.4768247890228674e-002 -4.0180241837282284e-002
      -5.8823717379607298e-003 1.5902901452365410e-002
      2.2447374326691372e-003 2.5456149267720832e-002
      -8.8739907846439401e-003 2.1973921672485039e-003
      -7.2555994482398425e-003 3.8531116044135286e-003
      -4.3761463066876788e-003 -1.9593808769722762e-002
      -1.8544857919802871e-002 -3.1352150120662690e-002
      7.5204738981946391e-003 2.4231429049014784e-002
      -2.6308660628373986e-002 -1.0385048710760788e-002
      2.6224538828066850e-004 -5.4461203705704940e-003
      4.9988867737147816e-003 5.9642297817584485e-003
      5.9863977953611837e-004 -1.5912729355066000e-003
      1.7801960773823251e-003 1.5266879027757158e-003
      -2.9127303430392143e-003 -7.6149951668034324e-003
      8.0165846625060311e-003 4.6299590491452803e-004
      -3.9213849566251627e-003 -3.3038536554943917e-003
      1.9240532550322735e-003 3.5177682582093368e-003
      -7.9274859982873067e-003 -3.6786473499632864e-003
      2.8925671482188751e-003 4.8480867034052973e-003
      6.6497130263071420e-003 4.5491720983356831e-003
      5.6162163694763560e-003 -1.7289795591274415e-002
      1.6139155589235451e-003 4.7523298597999617e-003
      -7.8457839495526070e-003 3.8055105895617356e-003
      -3.8690193092420391e-003 4.4776646228182329e-003
      -6.0647426445562249e-003 -5.2111610334562783e-003
      -7.1139261594588624e-003 -6.0588903326313703e-003
      -1.4902985386108247e-003 -7.5656020203901759e-003
      -1.6866165963651660e-003 4.9674854870818373e-003
      -9.1683937699053430e-003 3.0096732017337040e-003
      -1.1518467912633209e-003 4.3587122724996147e-003
      -8.7379322978593105e-002 -2.9394365871412781e-002
      2.0003272367435886e-002 1.8340258472543225e-002
      -1.9200361539280217e-002 -2.6522485219330791e-003
      1.7750180667308855e-002 3.7578672717254258e-003
      -2.1705201603487868e-002 -1.1776647753265816e-002
      -1.2489010501705851e-002 2.8622966024909081e-002
      1.1888435524736231e-002 -7.2406497301774966e-003
      2.2560495456853707e-002 -1.1657348913523661e-002
      -1.5120288522849534e-002 -2.0516174987104740e-002
      -1.2997711174160405e-002 1.6173763685559724e-002
      -1.2428733398929045e-002 3.0213437411616043e-002
      7.9641885365926614e-003 -1.0429328553342174e-002
      1.0628026473481745e-003 -7.6588600831332797e-003
      1.0752203388806123e-002 -1.1180837598184208e-002
      1.3081685926459228e-002 -6.3928200683707401e-003
      8.5216344235677737e-004 1.0568486474321317e-002
      1.1850337824798393e-002 2.5685222739489550e-002
      -5.5084291851707091e-003 -2.0884652562079664e-002
      2.4883182163323744e-002 7.6992680166290293e-003
      2.3974320704509616e-003 8.1157137730219250e-004
      8.4324987120981992e-002 4.8957745932935226e-002
      -1.8730703195495826e-002 -1.4641523451947172e-002
      1.8496866504557410e-002 -6.3934201042639130e-004
      -1.8655462620082365e-002 -2.3816986946953410e-003
      2.2954562590137360e-002 3.0020226773167125e-002
      1.0008080238588726e-002 -2.6673217879617964e-002
      -2.9169304202869072e-002 5.8355893793870144e-003
      -2.0802964754457195e-002 8.0801686561491337e-003
      1.5372800995542675e-002 4.6345872814318019e-002
      6.3144832276175993e-003 -1.8238841298692569e-002
      1.8837794719236946e-002 -4.6052588492725394e-002
      -7.9677648464740129e-003 1.1428012874610710e-002
      -8.7069816150891696e-003 2.6745787092577803e-002
      -1.2770456106204168e-002 1.2008940282950095e-002
      -1.3431605935399752e-002 5.8063799215206128e-003
      4.4508363700608037e-003 -1.3959736193119432e-002
      -2.0194820382312833e-002 -3.5317095373590110e-002
      1.2643793387879207e-002 2.7156418764151348e-002
      -3.4965584237107210e-002 -1.0392751073405870e-002
      -2.7345190225270660e-004 -1.3121755397686147e-002
      -2.3585578262718294e-002 4.6016905233941668e-003
      6.5427410565102454e-004 3.5287773733556826e-003
      -1.0757856691218448e-002 3.7877933813826744e-003
      -5.3122403758257743e-003 5.0364665322791605e-004
      -8.8452535096068905e-003 -6.8125325752602019e-003
      -6.8907083544504531e-003 3.0068266681887016e-003
      5.8914570384395546e-003 -2.1273840122855180e-003
      1.2168802339187875e-002 2.4090497391907337e-003
      -2.0936981027631805e-003 -1.4963306203742298e-003
      4.0005566693663485e-003 1.2467477240431948e-003
      1.0972397256264954e-003 -4.5574416383907142e-003
      1.9661179742254163e-003 -2.5672246860642951e-003
      4.2533253125005737e-003 -1.1236738167956281e-004
      -2.5095524119510470e-003 -6.3056865164214174e-003
      -5.4076207756705089e-003 4.6564731782267931e-003
      -4.7560400047821031e-003 4.8169843262050515e-003
      7.7074716232905151e-003 5.8136099088551309e-003
      -9.3302930420935907e-003 -2.7116236008263870e-004
      4.2272775417655098e-003 2.0838199213138488e-003
      8.0646511688001448e-003 -1.6607541498844405e-003
      -3.6878787722305580e-002 4.7972037077131258e-003
      -4.3150850980558817e-003 3.2759364675069673e-003
      -1.0353270661154709e-002 3.0078342369709884e-003
      7.4668107690483944e-003 7.6697805448371816e-003
      -5.2622584781006898e-003 -2.3821022540694461e-003
      4.9551951959450943e-003 -2.5366928657626084e-003
      2.4480841133507104e-003 2.8202916260293628e-003
      4.9607104472846174e-003 -6.8923355554060010e-003
      -5.8443784929111406e-003 -1.0143068409137054e-002
      -4.7718556152931820e-003 9.7096222598545522e-003
      -7.5251928026761191e-003 2.8449079872758442e-003
      5.7781034762839100e-005 -3.3514759697029356e-003
      6.3260623164451985e-003 3.1369505319983295e-004
      -2.6428476397945791e-003 -7.0023705938727313e-003
      2.5834599044770165e-003 5.5880329432812818e-003
      4.6625136441356329e-003 7.7483004581126744e-004
      1.1214050112100826e-003 -2.3828110758266261e-003
      -2.4043641644827564e-004 -4.2723120172789269e-003
      9.1880284428201044e-003 2.3083789522817537e-003
      -3.8992903262829622e-003 4.4121888408144676e-003
      -3.3747643254955877e-002 3.3041604359336611e-003
      1.7414758827131048e-003 -7.0638210175370439e-004
      -8.0285959436729639e-003 -1.9250878452710459e-003
      2.6368482381038628e-003 -7.2483093613872054e-003
      -1.4363219832139340e-003 -4.0855505208628809e-003
      -4.6700557755501217e-003 6.4298013409526140e-003
      -2.8656333892534145e-003 4.6881720284806345e-003
      -3.4416778937881599e-004 1.4918297011038500e-003
      -5.9855761058117294e-003 -8.2294370821151298e-003
      2.1516131225701265e-003 1.1712344467222946e-002
      -5.9548240588638522e-003 3.0333754259454096e-003
      -5.3008439562008379e-004 -4.5899931739781536e-003
      2.9573548338006910e-003 -2.9474682556858245e-003
      7.1784605554347939e-003 -6.4412067119169270e-003
      -8.5791362707967039e-004 -6.1388015604727092e-003
      1.9124573150600640e-003 9.6996545284691264e-003
      5.4576831933515159e-003 4.7556885105695607e-003
      -9.9346124157827075e-003 3.8337418444160730e-003
      1.2266594551809879e-002 4.2765446482730292e-004
      7.2743036090052709e-003 3.5030616007223308e-003
      4.5920572808494493e-002 2.2022585757736000e-002
      -1.8497007948663130e-002 -3.7135645934263327e-003
      1.5610922065609467e-002 4.5928585564673288e-003
      -1.8350455344719085e-002 -6.7810281898178426e-003
      5.5464032948476837e-003 1.8751864283756053e-002
      8.4287566173615359e-003 -2.3750146637404691e-002
      -6.2273163031462122e-003 -4.8274657361604251e-004
      -5.9876699251044966e-003 9.3280740195217163e-003
      1.3813249109651746e-002 1.9228018728269056e-002
      1.1756087421210956e-003 -7.4372654844323859e-003
      1.2894218666795109e-002 -3.0096217320220050e-002
      -6.1986618448610104e-003 3.5431802859615517e-003
      -8.8017992945003368e-004 1.5589146054599129e-002
      2.6115496951547397e-003 -1.8175854490690990e-003
      1.7223424309251215e-003 8.9333862301806417e-003
      7.2061641093861418e-003 -1.2658815526464038e-002
      -1.4164262361841413e-002 -2.0723583363857722e-002
      2.2691109465827696e-003 2.4522563291602163e-002
      -2.3072533455040598e-002 3.1274482243467058e-003
      1.3898627023872974e-003 -1.0972037555965664e-003
      -2.1973552326636881e-002 1.0978603290363155e-002
      -3.8841743258273601e-003 -2.9267942492729520e-003
      7.6199685181059639e-003 6.2019517745658037e-003
      -7.7807214781634455e-004 3.8369866355929287e-003
      2.3371728728277881e-003 3.0300387425856740e-003
      4.8342842091002279e-003 -1.9482686967367130e-003
      -8.5745665029286038e-003 -6.3991677466753811e-003
      3.1159715457209410e-004 4.4313322079115218e-003
      7.9497394857805416e-003 9.1842994516214398e-003
      -6.1188808155506315e-003 4.9645494575831324e-003
      3.7587006837911828e-003 2.4546213204343630e-004
      7.7235564454842930e-003 3.7929103428173349e-003
      1.7305824841189455e-003 -6.0442532258736319e-004
      -2.7861354484109016e-003 -2.0941464340761107e-004
      -2.5246267913350759e-003 -6.6496031738937584e-003
      -4.0977566222364275e-003 -4.2338610445255215e-003
      -3.1518995785498661e-003 -7.2906660876269314e-004
      -1.7203035488752227e-004 4.5233127184417313e-003
      -7.6136847273586281e-003 9.5037749926699219e-004
      -3.2452084471347262e-003 -4.1964679757659530e-003
      -2.4128744015899650e-002 1.0020779472559771e-003
      -8.8206809352150885e-004 -7.3232518979945453e-003
      -6.5080952496261307e-003 5.2417329959523673e-003
      3.2069608883287136e-003 -1.4266181456954921e-003
      -5.9671290416681696e-003 5.4650067512479836e-003
      -3.9879279297379703e-003 -1.1241372807373330e-003
      -5.3974793813154768e-003 -8.2704194031710723e-003
      -5.5207413967944402e-003 3.1588652543332388e-003
      -3.1415627904201413e-003 1.0563883889951704e-002
      4.3679648069410836e-003 6.4237978838844346e-003
      -4.1954179793168687e-004 -1.3298833567328435e-002
      5.6088125809581136e-003 -2.0193564374230704e-003
      -3.5827880687295094e-003 -1.6597683739855811e-003
      4.9134051386086439e-004 1.4582652991899816e-003
      2.7541103395389483e-003 2.7997374112815111e-003
      7.4810674095128471e-004 -2.7560944920291494e-003
      2.6580851001005272e-004 4.3175498164622133e-003
      -2.7645530330344188e-003 5.3744520185093885e-003
      -4.2541993585470663e-003 7.3113525773878989e-003
      3.8869020562577739e-003 1.4565729247392409e-003
      4.5594138240621959e-002 2.6950683706875783e-002
      -1.6851380576996210e-002 -1.5860925685266966e-002
      1.5459739924084377e-002 6.5806463215882195e-003
      -1.6293403343470830e-002 -1.3910869094810067e-003
      2.3938948348507317e-003 1.8794072696480060e-002
      3.9952662028258602e-003 -2.2049287385105674e-002
      -5.2860356203754920e-003 1.0581027649737182e-002
      -5.6080714740535404e-003 3.5220075332645213e-003
      -3.1302276926646128e-004 2.6804109079632040e-002
      6.9068519396395973e-003 -1.1699393329082004e-003
      1.1572579478109763e-002 -2.6033579214033167e-002
      -1.8944449938063169e-003 1.2068098063570691e-002
      1.4203983515618918e-003 9.6510852190356058e-003
      -2.5512373473973674e-003 5.3040319639525730e-003
      -9.4499846626341730e-003 -1.5221900296174230e-003
      -8.6318979386605058e-004 -5.4864964575580977e-003
      -1.2198083522705223e-002 -1.5457354935527117e-002
      1.1965948552019741e-002 2.4683918334669860e-002
      -2.1034684404699439e-002 -2.9253378415221762e-003
      -3.4961277344537842e-003 9.8435532788571263e-004
      3.6842206118630244e-003 1.1764815982157383e-002
      3.7923198299609205e-003 -4.6039684197938741e-003
      -5.8150920787876405e-003 2.7272371865892232e-003
      1.4470189851207883e-003 -5.2698317021194702e-003
      -4.0808083120739589e-004 6.3257998649592639e-003
      1.2993538710185202e-003 -1.0677705611444282e-003
      -6.2269825755426602e-003 8.1292886773196744e-003
      -3.1628765217912433e-003 -6.8547941401155927e-003
      -4.9945368720336351e-004 8.7478823840119058e-003
      3.6259778830170196e-003 -2.0842031385946719e-003
      -1.0370405120806734e-003 -1.5750149401378460e-002
      5.9518777350418403e-003 4.8190176355552188e-003
      -6.4247682373289681e-003 2.1149484979579389e-003
      2.2645065253509445e-003 -6.8998572277249540e-003
      2.5134808834774004e-003 6.6069294636126701e-003
      -7.6175044462563606e-003 -2.4299358629432132e-003
      1.7724160038565169e-003 -5.1784171105851914e-003
      -6.6738503279802474e-003 1.3982000053861070e-002
      -1.3144218674594086e-002 1.1063088482952323e-003
      -6.2617427454004452e-003 7.5702968303307709e-003
      -7.6893605884608904e-002 -1.1117212031553129e-002
      7.9348475067200202e-003 1.4952024688127133e-002
      -9.4407687985602930e-003 1.7079686034520748e-004
      4.7222566536330498e-003 -4.2950449911971873e-003
      -1.1494136869720480e-002 -9.8115041353447098e-003
      -9.9162336315550461e-003 8.6049986124313305e-003
      4.1620917551625477e-003 -2.4877481062468972e-004
      1.4761504654333979e-002 -1.0213184071797827e-002
      -6.4463416684147450e-003 -1.6972398177623027e-002
      -7.5076512055284378e-003 9.1628646945114325e-003
      -1.7284451209405170e-002 1.1090298992488302e-002
      2.8977815181595291e-003 -9.4830032239767784e-003
      6.0462067968457501e-003 -9.2555717718345171e-003
      2.5258970153556582e-003 1.0074221306052243e-003
      1.9233815570682117e-003 -4.5755367683610925e-003
      1.8326377507650855e-003 8.0846588495936747e-003
      1.2131511789399427e-002 1.0445735318034770e-002
      -1.2240071577776221e-002 -1.0325500465640684e-002
      1.9336001217194074e-002 4.3247592342448459e-004
      8.3097889229741383e-003 1.9638781311323498e-003
      2.6734358628021065e-002 1.9283655417624352e-002
      -1.4476660317865755e-002 -6.1128877926400942e-004
      3.1229492503308327e-005 -6.4770691308790856e-003
      -8.8589925928441587e-003 -2.0783761089121135e-003
      1.5900986143357447e-003 1.3146841599906913e-002
      6.8230823095500126e-003 -1.4306495464748437e-002
      -1.1624968903781188e-002 1.3696096587194823e-003
      -7.4405479322684990e-003 8.2621515377079568e-003
      -2.9963208027591025e-003 1.0091384486981027e-002
      1.2178223847360094e-002 -8.4538800445244644e-003
      -2.6889363112644492e-004 -1.3018789770011162e-002
      6.0663924400969891e-004 1.0990767942683258e-002
      4.2605330885502396e-003 1.3096866406377042e-002
      -6.4286635117127573e-004 1.0484522997004299e-003
      -9.2344031989201793e-003 6.4692136559120657e-003
      -5.0946951033143742e-003 -1.2525080673993359e-002
      -1.1255128678753118e-002 -1.0601556378250231e-002
      1.1939698370611320e-003 1.9748317258051883e-002
      -1.2659731490758832e-002 1.6062116097910022e-003
      2.5113410979411394e-003 5.7528178310625548e-004
      -6.1278751527083525e-003 2.0183090815167941e-002
      2.3819455600045726e-003 -6.2594737322725148e-004
      6.9575939217086198e-003 5.7313424830103040e-003
      -1.0973587232160525e-002 4.2423156495249824e-003
      6.4282950218740855e-004 1.4837618505410405e-003
      -3.6570756412968469e-003 -9.9462273300999077e-003
      -2.2218250832975648e-003 5.8261232230058888e-003
      -1.3112463515779359e-004 -5.8460665248720681e-003
      4.4560463447320337e-003 1.1512999782725838e-002
      -2.4420248423032823e-003 4.3516620077718791e-004
      -1.2270086723141611e-003 -1.2654444819168194e-002
      -8.3839259517371801e-004 9.5968667896436273e-003
      -8.2905815274972559e-003 4.7543631935829693e-003
      -5.0965257586920686e-003 -1.4960186025506669e-003
      -6.9665740471217888e-003 -4.8952291075501225e-003
      -4.5910365730938698e-003 -8.0389615034041819e-003
      -1.0829165692079227e-002 -1.6647941423933006e-002
      4.6020503002101622e-003 5.1154772584683112e-003
      -1.3605305664371776e-002 7.2573246506414495e-003
      3.7978898216568685e-003 1.9820517993299576e-003
      -1.6786629751883685e-002 7.3202878967408725e-003
      6.6152396487576095e-003 -1.4148406980691781e-003
      -5.8575376717754941e-003 -7.6565543440441702e-003
      6.6628251721840611e-003 -7.9546627531767947e-003
      3.6567477755173544e-003 2.5677770973836058e-003
      -3.3063412593599124e-003 2.4310887402925834e-003
      -3.5684442204871837e-003 3.1619532018022298e-003
      4.1850271824657760e-003 -2.5287172914419879e-003
