<?xml version="1.0"?>
<opencv_storage>
<my_nn type_id="opencv-ml-ann-mlp">
  <layer_sizes type_id="opencv-matrix">
    <rows>1</rows>
    <cols>3</cols>
    <dt>i</dt>
    <data>
      256 25 7</data></layer_sizes>
  <activation_function>SIGMOID_SYM</activation_function>
  <f_param1>6.6666666666666663e-001</f_param1>
  <f_param2>1.7159000000000000e+000</f_param2>
  <min_val>-9.4999999999999996e-001</min_val>
  <max_val>9.4999999999999996e-001</max_val>
  <min_val1>-9.7999999999999998e-001</min_val1>
  <max_val1>9.7999999999999998e-001</max_val1>
  <training_params>
    <train_method>BACKPROP</train_method>
    <dw_scale>1.0000000000000001e-001</dw_scale>
    <moment_scale>1.0000000000000001e-001</moment_scale>
    <term_criteria><epsilon>9.9999997764825821e-003</epsilon>
      <iterations>10000</iterations></term_criteria></training_params>
  <input_scale>
    1.0260451849599712e-001 -3.9458766255889177e-001
    1.0260451849599712e-001 -3.9458766255889177e-001
    1.0260451849599712e-001 -3.9458766255889177e-001
    1.0260451849599712e-001 -3.9458766255889177e-001
    1.0260451849599712e-001 -3.9458766255889177e-001
    1.0260451849599712e-001 -3.9458766255889177e-001
    1.0260451849599712e-001 -3.9458766255889177e-001
    1.0260451849599712e-001 -3.9458766255889177e-001
    1.0260451849599712e-001 -3.9458766255889177e-001
    1.0260451849599712e-001 -3.9458766255889177e-001
    1.0260451849599712e-001 -3.9458766255889177e-001
    1.0260451849599712e-001 -3.9458766255889177e-001
    1.0260451849599712e-001 -3.9458766255889177e-001
    1.0260451849599712e-001 -3.9458766255889177e-001
    1.0260451849599712e-001 -3.9458766255889177e-001
    1.0260451849599712e-001 -3.9458766255889177e-001
    1.0260451849599712e-001 -3.9458766255889177e-001
    1.0260451849599712e-001 -3.9458766255889177e-001
    1.0260451849599712e-001 -3.9458766255889177e-001
    1.0260451849599712e-001 -3.9458766255889177e-001
    1.0260451849599712e-001 -3.9458766255889177e-001
    1.0260451849599712e-001 -3.9458766255889177e-001
    1.0260451849599712e-001 -3.9458766255889177e-001
    1.0260451849599712e-001 -3.9458766255889177e-001
    1.0260451849599712e-001 -3.9458766255889177e-001
    1.0260451849599712e-001 -3.9458766255889177e-001
    1.0260451849599712e-001 -3.9458766255889177e-001
    1.0260451849599712e-001 -3.9458766255889177e-001
    1.0260451849599712e-001 -3.9458766255889177e-001
    1.0260451849599712e-001 -3.9458766255889177e-001
    1.0260451849599712e-001 -3.9458766255889177e-001
    1.0260451849599712e-001 -3.9458766255889177e-001
    1.0260451849599712e-001 -3.9458766255889177e-001
    1.0260451849599712e-001 -3.9458766255889177e-001
    1.0260451849599712e-001 -3.9458766255889177e-001
    1.0260451849599712e-001 -3.9458766255889177e-001
    1.0260451849599712e-001 -3.9458766255889177e-001
    1.0260451849599712e-001 -3.9458766255889177e-001
    1.0260451849599712e-001 -3.9458766255889177e-001
    1.0260451849599712e-001 -3.9458766255889177e-001
    1.0260451849599712e-001 -3.9458766255889177e-001
    1.0260451849599712e-001 -3.9458766255889177e-001
    1.0260451849599712e-001 -3.9458766255889177e-001
    1.0260451849599712e-001 -3.9458766255889177e-001
    1.0260451849599712e-001 -3.9458766255889177e-001
    1.0260451849599712e-001 -3.9458766255889177e-001
    1.0260451849599712e-001 -3.9458766255889177e-001
    1.0260451849599712e-001 -3.9458766255889177e-001
    1.0260451849599712e-001 -3.9458766255889177e-001
    1.0260451849599712e-001 -3.9458766255889177e-001
    1.0260451849599712e-001 -3.9458766255889177e-001
    1.0260451849599712e-001 -3.9458766255889177e-001
    1.0260451849599712e-001 -3.9458766255889177e-001
    1.0260451849599712e-001 -3.9458766255889177e-001
    1.0260451849599712e-001 -3.9458766255889177e-001
    1.0260451849599712e-001 -3.9458766255889177e-001
    1.0260451849599712e-001 -3.9458766255889177e-001
    1.0260451849599712e-001 -3.9458766255889177e-001
    1.0260451849599712e-001 -3.9458766255889177e-001
    1.0260451849599712e-001 -3.9458766255889177e-001
    1.0260451849599712e-001 -3.9458766255889177e-001
    1.0260451849599712e-001 -3.9458766255889177e-001
    1.0260451849599712e-001 -3.9458766255889177e-001
    1.0260451849599712e-001 -3.9458766255889177e-001
    1.0260451849599712e-001 -3.9458766255889177e-001
    1.0260451849599712e-001 -3.9458766255889177e-001
    1.0260451849599712e-001 -3.9458766255889177e-001
    1.0260451849599712e-001 -3.9458766255889177e-001
    1.0260451849599712e-001 -3.9458766255889177e-001
    1.0260451849599712e-001 -3.9458766255889177e-001
    1.0260451849599712e-001 -3.9458766255889177e-001
    1.0260451849599712e-001 -3.9458766255889177e-001
    1.0260451849599712e-001 -3.9458766255889177e-001
    1.0260451849599712e-001 -3.9458766255889177e-001
    1.0260451849599712e-001 -3.9458766255889177e-001
    1.0260451849599712e-001 -3.9458766255889177e-001
    1.0260451849599712e-001 -3.9458766255889177e-001
    1.0260451849599712e-001 -3.9458766255889177e-001
    1.0260451849599712e-001 -3.9458766255889177e-001
    1.0260451849599712e-001 -3.9458766255889177e-001
    1.0260451849599712e-001 -3.9458766255889177e-001
    1.0260451849599712e-001 -3.9458766255889177e-001
    1.0260451849599712e-001 -3.9458766255889177e-001
    1.0260451849599712e-001 -3.9458766255889177e-001
    1.0260451849599712e-001 -3.9458766255889177e-001
    1.0260451849599712e-001 -3.9458766255889177e-001
    1.0260451849599712e-001 -3.9458766255889177e-001
    1.0260451849599712e-001 -3.9458766255889177e-001
    1.0260451849599712e-001 -3.9458766255889177e-001
    1.0260451849599712e-001 -3.9458766255889177e-001
    1.0260451849599712e-001 -3.9458766255889177e-001
    1.0260451849599712e-001 -3.9458766255889177e-001
    1.0260451849599712e-001 -3.9458766255889177e-001
    1.0260451849599712e-001 -3.9458766255889177e-001
    1.0260451849599712e-001 -3.9458766255889177e-001
    1.0260451849599712e-001 -3.9458766255889177e-001
    1.0260451849599712e-001 -3.9458766255889177e-001
    1.0260451849599712e-001 -3.9458766255889177e-001
    1.0260451849599712e-001 -3.9458766255889177e-001
    1.0260451849599712e-001 -3.9458766255889177e-001
    1.0260451849599712e-001 -3.9458766255889177e-001
    1.0260451849599712e-001 -3.9458766255889177e-001
    1.0260451849599712e-001 -3.9458766255889177e-001
    1.0260451849599712e-001 -3.9458766255889177e-001
    1.0260451849599712e-001 -3.9458766255889177e-001
    1.0260451849599712e-001 -3.9458766255889177e-001
    1.0260451849599712e-001 -3.9458766255889177e-001
    1.0260451849599712e-001 -3.9458766255889177e-001
    1.0260451849599712e-001 -3.9458766255889177e-001
    1.0260451849599712e-001 -3.9458766255889177e-001
    1.0260451849599712e-001 -3.9458766255889177e-001
    1.0260451849599712e-001 -3.9458766255889177e-001
    1.0260451849599712e-001 -3.9458766255889177e-001
    1.0260451849599712e-001 -3.9458766255889177e-001
    1.0260451849599712e-001 -3.9458766255889177e-001
    1.0260451849599712e-001 -3.9458766255889177e-001
    1.0260451849599712e-001 -3.9458766255889177e-001
    1.0260451849599712e-001 -3.9458766255889177e-001
    1.0260451849599712e-001 -3.9458766255889177e-001
    1.0260451849599712e-001 -3.9458766255889177e-001
    1.0260451849599712e-001 -3.9458766255889177e-001
    1.0260451849599712e-001 -3.9458766255889177e-001
    1.0260451849599712e-001 -3.9458766255889177e-001
    1.0260451849599712e-001 -3.9458766255889177e-001
    1.0260451849599712e-001 -3.9458766255889177e-001
    1.0260451849599712e-001 -3.9458766255889177e-001
    1.0260451849599712e-001 -3.9458766255889177e-001
    1.0260451849599712e-001 -3.9458766255889177e-001
    1.0260451849599712e-001 -3.9458766255889177e-001
    1.0260451849599712e-001 -3.9458766255889177e-001
    1.0260451849599712e-001 -3.9458766255889177e-001
    1.0260451849599712e-001 -3.9458766255889177e-001
    1.0260451849599712e-001 -3.9458766255889177e-001
    1.0260451849599712e-001 -3.9458766255889177e-001
    1.0260451849599712e-001 -3.9458766255889177e-001
    1.0260451849599712e-001 -3.9458766255889177e-001
    1.0260451849599712e-001 -3.9458766255889177e-001
    1.0260451849599712e-001 -3.9458766255889177e-001
    1.0260451849599712e-001 -3.9458766255889177e-001
    1.0260451849599712e-001 -3.9458766255889177e-001
    1.0260451849599712e-001 -3.9458766255889177e-001
    1.0260451849599712e-001 -3.9458766255889177e-001
    1.0260451849599712e-001 -3.9458766255889177e-001
    1.0260451849599712e-001 -3.9458766255889177e-001
    1.0260451849599712e-001 -3.9458766255889177e-001
    1.0260451849599712e-001 -3.9458766255889177e-001
    1.0260451849599712e-001 -3.9458766255889177e-001
    1.0260451849599712e-001 -3.9458766255889177e-001
    1.0260451849599712e-001 -3.9458766255889177e-001
    1.0260451849599712e-001 -3.9458766255889177e-001
    1.0260451849599712e-001 -3.9458766255889177e-001
    1.0260451849599712e-001 -3.9458766255889177e-001
    1.0260451849599712e-001 -3.9458766255889177e-001
    1.0260451849599712e-001 -3.9458766255889177e-001
    1.0260451849599712e-001 -3.9458766255889177e-001
    1.0260451849599712e-001 -3.9458766255889177e-001
    1.0260451849599712e-001 -3.9458766255889177e-001
    1.0260451849599712e-001 -3.9458766255889177e-001
    1.0260451849599712e-001 -3.9458766255889177e-001
    1.0260451849599712e-001 -3.9458766255889177e-001
    1.0260451849599712e-001 -3.9458766255889177e-001
    1.0260451849599712e-001 -3.9458766255889177e-001
    1.0260451849599712e-001 -3.9458766255889177e-001
    1.0260451849599712e-001 -3.9458766255889177e-001
    1.0260451849599712e-001 -3.9458766255889177e-001
    1.0260451849599712e-001 -3.9458766255889177e-001
    1.0260451849599712e-001 -3.9458766255889177e-001
    1.0260451849599712e-001 -3.9458766255889177e-001
    1.0260451849599712e-001 -3.9458766255889177e-001
    1.0260451849599712e-001 -3.9458766255889177e-001
    1.0260451849599712e-001 -3.9458766255889177e-001
    1.0260451849599712e-001 -3.9458766255889177e-001
    1.0260451849599712e-001 -3.9458766255889177e-001
    1.0260451849599712e-001 -3.9458766255889177e-001
    1.0260451849599712e-001 -3.9458766255889177e-001
    1.0260451849599712e-001 -3.9458766255889177e-001
    1.0260451849599712e-001 -3.9458766255889177e-001
    1.0260451849599712e-001 -3.9458766255889177e-001
    1.0260451849599712e-001 -3.9458766255889177e-001
    1.0260451849599712e-001 -3.9458766255889177e-001
    1.0260451849599712e-001 -3.9458766255889177e-001
    1.0260451849599712e-001 -3.9458766255889177e-001
    1.0260451849599712e-001 -3.9458766255889177e-001
    1.0260451849599712e-001 -3.9458766255889177e-001
    1.0260451849599712e-001 -3.9458766255889177e-001
    1.0260451849599712e-001 -3.9458766255889177e-001
    1.0260451849599712e-001 -3.9458766255889177e-001
    1.0260451849599712e-001 -3.9458766255889177e-001
    1.0260451849599712e-001 -3.9458766255889177e-001
    1.0260451849599712e-001 -3.9458766255889177e-001
    1.0260451849599712e-001 -3.9458766255889177e-001
    1.0260451849599712e-001 -3.9458766255889177e-001
    1.0260451849599712e-001 -3.9458766255889177e-001
    1.0260451849599712e-001 -3.9458766255889177e-001
    1.0260451849599712e-001 -3.9458766255889177e-001
    1.0260451849599712e-001 -3.9458766255889177e-001
    1.0260451849599712e-001 -3.9458766255889177e-001
    1.0260451849599712e-001 -3.9458766255889177e-001
    1.0260451849599712e-001 -3.9458766255889177e-001
    1.0260451849599712e-001 -3.9458766255889177e-001
    1.0260451849599712e-001 -3.9458766255889177e-001
    1.0260451849599712e-001 -3.9458766255889177e-001
    1.0260451849599712e-001 -3.9458766255889177e-001
    1.0260451849599712e-001 -3.9458766255889177e-001
    1.0260451849599712e-001 -3.9458766255889177e-001
    1.0260451849599712e-001 -3.9458766255889177e-001
    1.0260451849599712e-001 -3.9458766255889177e-001
    1.0260451849599712e-001 -3.9458766255889177e-001
    1.0260451849599712e-001 -3.9458766255889177e-001
    1.0260451849599712e-001 -3.9458766255889177e-001
    1.0260451849599712e-001 -3.9458766255889177e-001
    1.0260451849599712e-001 -3.9458766255889177e-001
    1.0260451849599712e-001 -3.9458766255889177e-001
    1.0260451849599712e-001 -3.9458766255889177e-001
    1.0260451849599712e-001 -3.9458766255889177e-001
    1.0260451849599712e-001 -3.9458766255889177e-001
    1.0260451849599712e-001 -3.9458766255889177e-001
    1.0260451849599712e-001 -3.9458766255889177e-001
    1.0260451849599712e-001 -3.9458766255889177e-001
    1.0260451849599712e-001 -3.9458766255889177e-001
    1.0260451849599712e-001 -3.9458766255889177e-001
    1.0260451849599712e-001 -3.9458766255889177e-001
    1.0260451849599712e-001 -3.9458766255889177e-001
    1.0260451849599712e-001 -3.9458766255889177e-001
    1.0260451849599712e-001 -3.9458766255889177e-001
    1.0260451849599712e-001 -3.9458766255889177e-001
    1.0260451849599712e-001 -3.9458766255889177e-001
    1.0260451849599712e-001 -3.9458766255889177e-001
    1.0260451849599712e-001 -3.9458766255889177e-001
    1.0260451849599712e-001 -3.9458766255889177e-001
    1.0260451849599712e-001 -3.9458766255889177e-001
    1.0260451849599712e-001 -3.9458766255889177e-001
    1.0260451849599712e-001 -3.9458766255889177e-001
    1.0260451849599712e-001 -3.9458766255889177e-001
    1.0260451849599712e-001 -3.9458766255889177e-001
    1.0260451849599712e-001 -3.9458766255889177e-001
    1.0260451849599712e-001 -3.9458766255889177e-001
    1.0260451849599712e-001 -3.9458766255889177e-001
    1.0260451849599712e-001 -3.9458766255889177e-001
    1.0260451849599712e-001 -3.9458766255889177e-001
    1.0260451849599712e-001 -3.9458766255889177e-001
    1.0260451849599712e-001 -3.9458766255889177e-001
    1.0260451849599712e-001 -3.9458766255889177e-001
    1.0260451849599712e-001 -3.9458766255889177e-001
    1.0260451849599712e-001 -3.9458766255889177e-001
    1.0260451849599712e-001 -3.9458766255889177e-001
    1.0260451849599712e-001 -3.9458766255889177e-001
    1.0260451849599712e-001 -3.9458766255889177e-001
    1.0260451849599712e-001 -3.9458766255889177e-001
    1.0260451849599712e-001 -3.9458766255889177e-001
    1.0260451849599712e-001 -3.9458766255889177e-001
    1.0260451849599712e-001 -3.9458766255889177e-001
    1.0260451849599712e-001 -3.9458766255889177e-001
    1.0260451849599712e-001 -3.9458766255889177e-001
    1.0260451849599712e-001 -3.9458766255889177e-001
    1.0260451849599712e-001 -3.9458766255889177e-001</input_scale>
  <output_scale>
    5.2631578947368418e-001 4.9999999999999994e-001
    5.2631578947368418e-001 4.9999999999999994e-001
    5.2631578947368418e-001 4.9999999999999994e-001
    5.2631578947368418e-001 4.9999999999999994e-001
    5.2631578947368418e-001 4.9999999999999994e-001
    5.2631578947368418e-001 4.9999999999999994e-001
    5.2631578947368418e-001 4.9999999999999994e-001</output_scale>
  <inv_output_scale>
    1.8999999999999999e+000 -9.4999999999999996e-001
    1.8999999999999999e+000 -9.4999999999999996e-001
    1.8999999999999999e+000 -9.4999999999999996e-001
    1.8999999999999999e+000 -9.4999999999999996e-001
    1.8999999999999999e+000 -9.4999999999999996e-001
    1.8999999999999999e+000 -9.4999999999999996e-001
    1.8999999999999999e+000 -9.4999999999999996e-001</inv_output_scale>
  <weights>
    <_>
      -9.1433969894437350e+000 -1.9058471046010320e-001
      -1.5747344159215559e-001 2.2115667724470972e-001
      -1.8365416381542904e-001 -1.9069456206538360e-001
      -1.9369066454533762e-001 -1.8299314559353216e-001
      -2.2563922120392119e-001 -2.1105643212819827e-001
      1.7879097112257103e-001 1.8264023169776983e-001
      -2.0214716888503662e-001 1.8928693629079124e-001
      1.9083235967616560e-001 2.0154661218739758e-001
      -1.7767459233962934e-001 2.4665124856146584e-001
      2.1644303844835311e-001 -1.9556043884100593e-001
      -1.7221262168137963e-001 1.2420098323387467e-001
      2.0887578328094430e-001 2.1298614125153095e-001
      1.6511764428013667e-001 -9.1302971635795682e+000
      -1.8802682534879298e-001 -1.5687460475374715e-001
      2.2904498775773724e-001 -1.7736235919587579e-001
      -1.9398424577459383e-001 -1.9522152342178961e-001
      -1.8252498845365747e-001 -2.1393441007878186e-001
      -2.1331007284961093e-001 1.7924776185646130e-001
      1.7762443750064227e-001 -1.9039888934732693e-001
      1.7982815367953503e-001 1.9603907306757926e-001
      2.0881394086386376e-001 -1.8056568706360310e-001
      2.4964992138608447e-001 2.2936174768687034e-001
      -2.0351627429984476e-001 -1.8591502803205390e-001
      1.2401026493247187e-001 2.0805064378511909e-001
      2.0719773720925508e-001 1.5736015009102841e-001
      -9.1297544790194038e+000 -1.8377697313636257e-001
      -1.5473913741551720e-001 2.2702179978219239e-001
      -1.7587500917041266e-001 -1.8984646847526426e-001
      -2.0719087008324627e-001 -1.8401246826923343e-001
      -2.2129808624787392e-001 -2.1596645227191949e-001
      1.7980861999361991e-001 1.7915380254026586e-001
      -2.0230768469294855e-001 1.8287754275922369e-001
      1.8109705967690795e-001 2.0545330498767436e-001
      -1.8345106453441229e-001 2.5472820525894307e-001
      2.2330976448542744e-001 -2.0394555142837728e-001
      -1.8558408962615708e-001 1.3107272117742094e-001
      2.1272862647071555e-001 2.1223124045679373e-001
      1.6032398936063555e-001 -9.1397440098121798e+000
      -1.9104679897408836e-001 -1.5741019617267660e-001
      2.2845347071491912e-001 -1.7807647982502306e-001
      -1.9533067767673151e-001 -2.0096053532023822e-001
      -1.8704421436749155e-001 -2.2640673121484342e-001
      -2.1901445173643538e-001 1.8809574624757758e-001
      1.8928248063364495e-001 -1.9377689146318552e-001
      1.9179298169211989e-001 1.8228693170647234e-001
      2.0479052205592338e-001 -1.8222173135617004e-001
      2.4808408171982835e-001 2.2207472758272895e-001
      -1.9478194655799835e-001 -1.8291270982523156e-001
      1.2267029205232989e-001 2.1002532985951139e-001
      2.0428616534756341e-001 1.5837999693534174e-001
      -9.1317002268866609e+000 -1.8222824038321725e-001
      -1.5595592571812605e-001 2.2648769107806865e-001
      -1.8016430607581224e-001 -1.8532530901687921e-001
      -2.0111460222476346e-001 -1.9761398797242388e-001
      -2.2535654242300066e-001 -2.1003998900855805e-001
      1.8886252580580293e-001 1.8743027650348848e-001
      -1.9463374440156364e-001 1.8289197749299663e-001
      1.8653806107653906e-001 2.1198280125260163e-001
      -1.7159808337899074e-001 2.5332157272148748e-001
      2.2675135517953243e-001 -1.9719089393899403e-001
      -1.7055584271678487e-001 1.3630400162709602e-001
      2.1052305461466025e-001 2.1487118160259597e-001
      1.6404739562579670e-001 -9.1291329543394095e+000
      -1.8348965652025509e-001 -1.5116893551553734e-001
      2.3223090838384863e-001 -1.8309585535580009e-001
      -1.8035887632215719e-001 -2.0549142130257514e-001
      -1.9030096828597251e-001 -2.1888004417908777e-001
      -2.1808431205801823e-001 1.8016875385228226e-001
      1.7742731853817240e-001 -1.9829211936850713e-001
      1.8982162307767547e-001 1.8463356754016066e-001
      2.0472920033823430e-001 -1.6965678412173074e-001
      2.6095609714615475e-001 2.2555637102675818e-001
      -2.0414044724814506e-001 -1.7164813090348491e-001
      1.3311969337061005e-001 2.0575098963267682e-001
      2.0247864196601986e-001 1.6967610837766481e-001
      -9.1350392280845849e+000 -1.8239578343546828e-001
      -1.5209280100140837e-001 2.2293257825818702e-001
      -1.7216677307620964e-001 -1.8808447730267541e-001
      -2.0348482684321245e-001 -1.9411698561202909e-001
      -2.1846423483705210e-001 -2.1040178888651359e-001
      1.8230390463828089e-001 1.8744532816680798e-001
      -2.0359092426077582e-001 1.9315693376839094e-001
      1.9096664760462637e-001 2.0286494678263275e-001
      -1.7806808412423231e-001 2.5974365174386971e-001
      2.1995846315617179e-001 -1.9481991265812110e-001
      -1.7203172588545257e-001 1.2528448348579091e-001
      2.0706153017571957e-001 2.0615301748537571e-001
      1.6942775113939243e-001 -9.1338721226420976e+000
      -1.8469996572641365e-001 -1.6256010683814281e-001
      2.2128402647880585e-001 -1.8327226161339411e-001
      -1.9363207173367675e-001 -2.0532744337291164e-001
      -1.9258454652624116e-001 -2.2284270658089797e-001
      -2.0870446213450003e-001 1.8615449009380530e-001
      1.7782499575090160e-001 -1.9169132091990435e-001
      1.9147521416323088e-001 1.8734642798788478e-001
      2.0273615123208968e-001 -1.7676756859106307e-001
      2.6047337150520161e-001 2.2799851657936820e-001
      -2.0510521016897781e-001 -1.8439979952384700e-001
      1.2327115552200942e-001 2.0334499994007602e-001
      2.1574339532552353e-001 1.6045582345901296e-001
      -9.1377499657308299e+000 -1.8516374178591086e-001
      -1.5791723458150492e-001 2.3438045276489083e-001
      -1.7129200723434512e-001 -1.8915197400402373e-001
      -2.0166521053171160e-001 -1.8329920207727915e-001
      -2.2593723720133338e-001 -2.2187706370263396e-001
      1.7500887793708181e-001 1.8460620533674243e-001
      -1.9312408696373054e-001 1.9239513041509820e-001
      1.8120231607713985e-001 2.0289390252216363e-001
      -1.7027352373219756e-001 2.5840522794700360e-001
      2.3022268897027115e-001 -1.9865839615988856e-001
      -1.6975674342178282e-001 1.2346967063706422e-001
      2.0740733962099303e-001 2.0184270880691527e-001
      1.7005109129682397e-001 -9.1340783872179561e+000
      -1.7970370201656302e-001 -1.5941453436878511e-001
      2.2834207301414161e-001 -1.8291743517099307e-001
      -1.8779135717632056e-001 -2.0638044225167879e-001
      -1.8743692056059955e-001 -2.2236540416659809e-001
      -2.2220813591243913e-001 1.8735845281767738e-001
      1.8558166204796789e-001 -2.0401285944414768e-001
      1.8208769704006816e-001 1.8183086808429386e-001
      2.0586553377769926e-001 -1.7593198934657206e-001
      2.6035745235578650e-001 2.2150337092248007e-001
      -1.9236556673469302e-001 -1.6974035492978234e-001
      1.2632092847123730e-001 2.0829316831411804e-001
      2.0904171699225624e-001 1.6667705613683229e-001
      -9.1344609683776277e+000 -1.8255718485399933e-001
      -1.5121142876084909e-001 2.2611096287887700e-001
      -1.7280696045077992e-001 -1.8667591492030677e-001
      -2.0490399923340274e-001 -1.9717729520702218e-001
      -2.1441471900799278e-001 -2.1101222574133807e-001
      1.8870775536571965e-001 1.7590064095225538e-001
      -1.9212360126781233e-001 1.9301882616835980e-001
      1.8364532311205670e-001 2.1019168521898793e-001
      -1.8173318621358564e-001 2.5190325660631341e-001
      2.2004024078501361e-001 -2.0504807731567015e-001
      -1.7743071310946862e-001 1.2126446138085095e-001
      2.0409103741653353e-001 2.0806305398258010e-001
      1.6444078831415862e-001 -9.1430775967345959e+000
      -1.8171927634678839e-001 -1.5992191780361936e-001
      2.2545518591073738e-001 -1.7231637461834509e-001
      -1.9238281777647193e-001 -1.9905969055150557e-001
      -1.9261177519263470e-001 -2.2297717568807038e-001
      -2.1185183966897306e-001 1.7692957931957520e-001
      1.8529274122402400e-001 -1.9763673635402859e-001
      1.8847301207340844e-001 1.8363230204077388e-001
      2.1148667517857347e-001 -1.6974615770339851e-001
      2.4744764407580352e-001 2.1537853666568724e-001
      -2.0071535755969128e-001 -1.7941156249427448e-001
      1.2183738154182078e-001 2.1548379763742204e-001
      2.0253756284965294e-001 1.5769783841603488e-001
      -9.1339387855010159e+000 -1.9288913540579464e-001
      -1.5965469728158660e-001 2.2921274245789952e-001
      -1.7488148086889677e-001 -1.9242025265310742e-001
      -2.0850707101663318e-001 -1.9613307617734152e-001
      -2.2473830012441223e-001 -2.2121985414253895e-001
      1.8037328624949600e-001 1.8822964396561959e-001
      -2.0015022822506698e-001 1.8859253854730912e-001
      1.8927834503557381e-001 2.0185052325742289e-001
      -1.7429053736843059e-001 2.5354427329104262e-001
      2.2948972679601903e-001 -1.9798503891255159e-001
      -1.7186139810977652e-001 1.2180306222578643e-001
      2.1468523804646644e-001 2.1344503787282917e-001
      1.6652545150008322e-001 -9.1357561239398350e+000
      -1.9227257447802074e-001 -1.4922541880390444e-001
      2.3384884191895111e-001 -1.6865529743770824e-001
      -1.8814663084823735e-001 -1.9610657149861072e-001
      -1.9847624803702765e-001 -2.2125208019951473e-001
      -2.1832528894261985e-001 1.7537804745263613e-001
      1.7679420486904168e-001 -1.9855026445017973e-001
      1.8052579816731346e-001 1.8253859981307882e-001
      2.1580333121291831e-001 -1.8240710442707248e-001
      2.5264634011058279e-001 2.2474054349293560e-001
      -1.9715155600035889e-001 -1.7498609607979904e-001
      1.2921742287407315e-001 2.1408305831417895e-001
      2.0867888083267591e-001 1.6269712217074192e-001
      -9.1386454699298856e+000 -1.8742638204701298e-001
      -1.5928556482370632e-001 2.3011269556364511e-001
      -1.7903046308469750e-001 -1.9139675459686867e-001
      -2.0024447075867519e-001 -1.8481256571228585e-001
      -2.1567228710911476e-001 -2.0902275621472236e-001
      1.7898454612285414e-001 1.8914418700033198e-001
      -1.9721377639645540e-001 1.9254499882554693e-001
      1.8681308380954911e-001 2.1378005831556093e-001
      -1.7658847320709437e-001 2.5321659273133901e-001
      2.2946363775366513e-001 -1.9822332142494364e-001
      -1.7609500984847898e-001 1.2456740592539033e-001
      2.1345963209170207e-001 2.0487187620403771e-001
      1.5753184434643927e-001 -9.1323483469547178e+000
      -1.8838477994860306e-001 -1.5863102915798727e-001
      2.2411160110592276e-001 -1.7200393001887132e-001
      -1.8959946447707154e-001 -2.0592425771967249e-001
      -1.8592417193096220e-001 -2.2651125300514288e-001
      -2.1663338085768288e-001 1.8698398942179945e-001
      1.8865154337006224e-001 -1.9573839047755873e-001
      1.8212606548820565e-001 1.9477631421870537e-001
      2.0882632918210522e-001 -1.7333961849591628e-001
      2.5162179377235966e-001 2.2030355800565643e-001
      -1.9922219076306102e-001 -1.7174981146587515e-001
      1.3395154018246810e-001 2.1390577928311202e-001
      2.0872050644964310e-001 1.6713055592003886e-001
      -9.1370427175126725e+000 -1.8194331605707456e-001
      -1.6205703089553292e-001 2.3499012726113039e-001
      -1.8115536061779236e-001 -1.9588452093958941e-001
      -1.9969141704778903e-001 -1.9256697059640995e-001
      -2.2197674615582288e-001 -2.1683899841348556e-001
      1.7758660480525573e-001 1.9040804273719825e-001
      -2.0050766720210403e-001 1.9283764625207661e-001
      1.8575535119309736e-001 2.1423524219270648e-001
      -1.7350982788604680e-001 2.5695202505075704e-001
      2.1589384822612012e-001 -1.9338276303989876e-001
      -1.8522599827419817e-001 1.2338566529976276e-001
      2.1101237205521334e-001 2.1647152973534881e-001
      1.5921492251077415e-001 -9.1391857132369712e+000
      -1.8283772534637913e-001 -1.6397925851092626e-001
      2.3149610639441459e-001 -1.7822611466758137e-001
      -1.9115333431799830e-001 -2.0372635755658625e-001
      -1.8237528144142826e-001 -2.2325362143626551e-001
      -2.1536975269933326e-001 1.8836157161045131e-001
      1.8651117768021569e-001 -1.9391044485687811e-001
      1.8104218861791427e-001 1.9526671502168533e-001
      2.0626611384419299e-001 -1.7069871415745308e-001
      2.6086267477892822e-001 2.1714544076689668e-001
      -1.9179516926224099e-001 -1.7715749103208678e-001
      1.3187470258362513e-001 2.0726783144581098e-001
      2.0606319276383914e-001 1.6748447454908208e-001
      -9.1349096541140895e+000 -1.8850540330125817e-001
      -1.5523108925935281e-001 2.3334839431028359e-001
      -1.7580877614643109e-001 -1.8100217836807792e-001
      -1.9541241080761623e-001 -1.9742686377646682e-001
      -2.1305639144663033e-001 -2.1820221622613081e-001
      1.8930972185250566e-001 1.8296195802228377e-001
      -2.0043715962536549e-001 1.9034746751863890e-001
      1.8869646671834187e-001 2.0403702810162941e-001
      -1.8291505487231929e-001 2.5379416653083847e-001
      2.2841500613464638e-001 -1.9791911354666514e-001
      -1.8440226287164319e-001 1.3624069783517581e-001
      2.0947284348362530e-001 2.1266358539420496e-001
      1.6401298798670463e-001 -9.1434837191735046e+000
      -1.8005476741151036e-001 -1.5292716785422789e-001
      2.2271218857902325e-001 -1.7860620527385224e-001
      -1.9228029680701886e-001 -1.9971792476599992e-001
      -1.8547416441623979e-001 -2.1191940440016535e-001
      -2.2188849286593662e-001 1.7488729781530821e-001
      1.8174153460216280e-001 -1.9928665518274355e-001
      1.8938254006858174e-001 1.8703172952599276e-001
      2.1054145851809761e-001 -1.8279855163209535e-001
      2.5687276798241682e-001 2.2071140136500755e-001
      -2.0616909078195056e-001 -1.7141102135345693e-001
      1.2251384100076355e-001 2.1358299218874510e-001
      2.0832807002504103e-001 1.5759604758703419e-001
      -9.1301326544058785e+000 -1.7994629798189268e-001
      -1.6334121474615831e-001 2.3103080512498014e-001
      -1.7584214747097726e-001 -1.8742750872389197e-001
      -1.9897722954278269e-001 -1.9520690999700421e-001
      -2.2422462776562493e-001 -2.0932650461449073e-001
      1.8563639114191544e-001 1.7619697291411246e-001
      -1.9740452747248369e-001 1.8422490052145768e-001
      1.8738570433227228e-001 2.0801154874743158e-001
      -1.8486846114296784e-001 2.4961799123720194e-001
      2.2639682318803456e-001 -1.9679621812022452e-001
      -1.7635632714553945e-001 1.2564304027049009e-001
      2.0517536706527217e-001 2.1133292268644197e-001
      1.7092739853996688e-001 -9.1371596155650430e+000
      -1.9215574627774798e-001 -1.6128770994554797e-001
      2.2428288158029819e-001 -1.7259750151807340e-001
      -1.9168911645946179e-001 -1.9876277086670679e-001
      -1.9157325314339244e-001 -2.1419762323997940e-001
      -2.0988296739209358e-001 1.8529476747553092e-001
      1.9029208943401155e-001 -2.0119120747982297e-001
      1.8312142664831987e-001 1.8313614912869550e-001
      2.1238371269022890e-001 -1.7330006318184960e-001
      2.5809649886358738e-001 2.1879218405535994e-001
      -2.0432174138383907e-001 -1.7383926520916715e-001
      1.3196451902298514e-001 2.1275270177129063e-001
      2.0187581403969110e-001 1.5868451147549781e-001
      -9.1294421901510781e+000 -1.8390487831034677e-001
      -1.5730684298600844e-001 2.3182634391173323e-001
      -1.8226968392056636e-001 -1.9435540710735644e-001
      -1.9951836692595054e-001 -1.9038964896585461e-001
      -2.1149536477467049e-001 -2.0974756692428145e-001
      1.7677143973567788e-001 1.8959872943275841e-001
      -1.9666486757894044e-001 1.8706998721253287e-001
      1.9537391207047169e-001 2.0214336356455151e-001
      -1.7282851715663095e-001 2.5416943769523598e-001
      2.2947328386514648e-001 -2.0508497686991972e-001
      -1.8336988960118777e-001 1.2681246618736144e-001
      2.1529232215115165e-001 2.0296202911698927e-001
      1.5719489874855794e-001 -9.1321138475614454e+000
      -1.8950355061503973e-001 -1.5399526815042658e-001
      2.3275639403894000e-001 -1.7510176706609892e-001
      -1.8734763333512089e-001 -2.0019481656295746e-001
      -1.8486123458741785e-001 -2.1885090699625451e-001
      -2.2337968439094649e-001 1.7949497129815239e-001
      1.8092812984529760e-001 -2.0120010070338587e-001
      1.9138980692750251e-001 1.8250764123913224e-001
      2.0390668278911819e-001 -1.7523052268960682e-001
      2.5591669761157571e-001 2.2903352581595904e-001
      -2.0424196071090628e-001 -1.7976998678241185e-001
      1.2568500240500047e-001 2.1593363844311730e-001
      2.1483345242711069e-001 1.6710976262871705e-001
      -9.1295323043301302e+000 -1.9505160145477915e-001
      -1.6351595240235783e-001 2.3294064827775701e-001
      -1.6901687191123055e-001 -1.8474648035470198e-001
      -1.9605185047457380e-001 -1.9859202100420378e-001
      -2.1438805163476041e-001 -2.1570696188795022e-001
      1.8127465566665657e-001 1.7867246459339670e-001
      -1.9744045153723197e-001 1.8183921744243259e-001
      1.9313398927452533e-001 2.0582684086088590e-001
      -1.7416590865608700e-001 2.4786897126906240e-001
      2.1754581256316419e-001 -2.0723682721515757e-001
      -1.7697655103323806e-001 1.3441936902015739e-001
      2.0720624991123338e-001 2.1166222484553213e-001
      1.6805238693946098e-001 -9.1339324232894672e+000
      -1.9126824749683599e-001 -1.5536897241826664e-001
      2.2361734739630640e-001 -1.7128431730509491e-001
      -1.9547219024379153e-001 -2.0626044449290470e-001
      -1.9200537312138391e-001 -2.1819684814693721e-001
      -2.1697363468838285e-001 1.7768167420351427e-001
      1.8364981695818017e-001 -2.0611816953936998e-001
      1.9232036890215470e-001 1.8578765926572541e-001
      2.0205974122295831e-001 -1.7799165832275426e-001
      2.5887337708729397e-001 2.2646086407403515e-001
      -2.0364628706722576e-001 -1.7440912749561177e-001
      1.2642984022775069e-001 2.1477803910837071e-001
      2.0259355426611966e-001 1.7092799313670051e-001
      -9.1299301321782131e+000 -1.7975163975786515e-001
      -1.5001371286204035e-001 2.2347872226723114e-001
      -1.7313928478881935e-001 -1.9086995298906251e-001
      -2.0666408323113727e-001 -1.9123458559191805e-001
      -2.2073719184752386e-001 -2.1081654320341167e-001
      1.7705019587525206e-001 1.7576446404356605e-001
      -1.9803695408035940e-001 1.8737782654535129e-001
      1.8588666529171186e-001 2.0864272690555261e-001
      -1.7723922839088047e-001 2.4705458946372613e-001
      2.1487445120416071e-001 -2.0261069031126916e-001
      -1.7474547413863378e-001 1.2863234639560264e-001
      2.1514737527109276e-001 2.1123789949368879e-001
      1.6363482398487902e-001 -9.1310723729241623e+000
      -1.8852025989446433e-001 -1.5087195869992681e-001
      2.3403172550157314e-001 -1.7570038334253285e-001
      -1.8502056418260870e-001 -1.9618851187887620e-001
      -1.8751310616098996e-001 -2.2078302858669116e-001
      -2.1156770310984316e-001 1.8441982892477937e-001
      1.7881001598967033e-001 -1.9475267870315213e-001
      1.9546235394204942e-001 1.8824988897195119e-001
      2.0914057787050874e-001 -1.7056506594026566e-001
      2.5139336238157317e-001 2.2341053303429959e-001
      -1.9565741058402325e-001 -1.8556451043225208e-001
      1.3644235467444016e-001 2.1278690744071221e-001
      2.1382671069295681e-001 1.5774235935837552e-001
      -9.1321504859822689e+000 -1.9080645891729112e-001
      -1.6179661052831740e-001 2.3162887921258768e-001
      -1.7806771271417499e-001 -1.9048445424546034e-001
      -1.9823759068428071e-001 -1.9421658539136591e-001
      -2.1317193434960977e-001 -2.1907746752338039e-001
      1.7584567171824744e-001 1.7889302176816119e-001
      -1.9058145732494805e-001 1.8838040057740402e-001
      1.8869944104397432e-001 2.0937153871706379e-001
      -1.8468755112500873e-001 2.6094839460900032e-001
      2.2855187308463937e-001 -2.0011627625643730e-001
      -1.7366479093109571e-001 1.3315457976424735e-001
      2.1549195849168779e-001 2.0602770573445497e-001
      1.6157461780618335e-001 -9.1297751540365955e+000
      -1.8177143901861839e-001 -1.5225495501710956e-001
      2.2543862015626270e-001 -1.7347882949304549e-001
      -1.8384362036231927e-001 -1.9744848852849278e-001
      -1.9021982220927877e-001 -2.2256507762504321e-001
      -2.2148458227115889e-001 1.7941353913040792e-001
      1.8123656974091190e-001 -1.9873031802402416e-001
      1.8515930459575508e-001 1.9340476234289225e-001
      2.1128445670638998e-001 -1.7496155436257554e-001
      2.5758521190178058e-001 2.2447470558384525e-001
      -2.0074078615103136e-001 -1.7756771010456002e-001
      1.2698494100291419e-001 2.0712221019258789e-001
      2.0617081995181305e-001 1.5883040120213868e-001
      -9.1317588510557997e+000 -1.8213841068719441e-001
      -1.5096634377237134e-001 2.3483878594160718e-001
      -1.7131477992191857e-001 -1.9129617618099160e-001
      -1.9465376945193158e-001 -1.9863273876382440e-001
      -2.2205799880873492e-001 -2.1926541559548166e-001
      1.7403125598742397e-001 1.8836857083823538e-001
      -1.9467910199057367e-001 1.9472362407402638e-001
      1.8884740564102978e-001 2.1150509983909985e-001
      -1.8421171288174965e-001 2.5133315920526189e-001
      2.2555000900063271e-001 -1.9920151266899067e-001
      -1.8530237386059339e-001 1.3613201127344240e-001
      2.0509949532642210e-001 2.0961858526492708e-001
      1.6083950305813097e-001 -9.1418081620776004e+000
      -1.8597165269983426e-001 -1.5702919755327127e-001
      2.3395688223813005e-001 -1.7347466857686655e-001
      -1.9578274931935657e-001 -2.0140279162666824e-001
      -1.8574496219198847e-001 -2.1549831737674371e-001
      -2.1880255068633489e-001 1.7663053730962086e-001
      1.7908955415140210e-001 -1.9485197167788862e-001
      1.8038052223363943e-001 1.9047329117192527e-001
      2.0705321479979946e-001 -1.8234047125578429e-001
      2.5895174789524561e-001 2.2123752115608503e-001
      -2.0174758553635991e-001 -1.7236106096898152e-001
      1.3343160661371878e-001 2.0317284514307027e-001
      2.0450205877285763e-001 1.6524727079037879e-001
      -9.1401253944070238e+000 -1.9456446381792628e-001
      -1.5064143351639508e-001 2.2458496990450455e-001
      -1.7804266367034494e-001 -1.8285084306658861e-001
      -2.0879665159246652e-001 -1.8898860459250441e-001
      -2.1253256071514967e-001 -2.2344847718421537e-001
      1.8472276305536733e-001 1.8884171254313892e-001
      -1.9999856775400673e-001 1.9461417811684062e-001
      1.8751850921811372e-001 2.0763262290451781e-001
      -1.8159507238687717e-001 2.6113429553898559e-001
      2.1987888470024991e-001 -2.0413378671021326e-001
      -1.8444071920632132e-001 1.2283167391195425e-001
      2.0694163891087727e-001 2.1525708416826225e-001
      1.6515723444660765e-001 -9.1306970746848286e+000
      -1.9303353567070361e-001 -1.5226930920827625e-001
      2.2115681264625758e-001 -1.8319725607505938e-001
      -1.9129905292841370e-001 -1.9341780748902271e-001
      -1.8299973774319470e-001 -2.2478342145054334e-001
      -2.1670535797651633e-001 1.8106473799521744e-001
      1.8993424193376324e-001 -1.9643467069815698e-001
      1.8947634123889007e-001 1.9090713296839620e-001
      2.0314284987042250e-001 -1.7127763474301161e-001
      2.5809594636464611e-001 2.2736858224492662e-001
      -2.0279586081169426e-001 -1.8595393636210950e-001
      1.2696936562619177e-001 2.0671950867600442e-001
      2.0148951647675226e-001 1.6232015514054074e-001
      -9.1358019947589710e+000 -1.8955645813951397e-001
      -1.5574873728185046e-001 2.3144115029950740e-001
      -1.7847292505048545e-001 -1.8417113325439094e-001
      -1.9454056302608591e-001 -1.9298197826013322e-001
      -2.1687764172047178e-001 -2.2128491184019564e-001
      1.7828051930774458e-001 1.8831178267405568e-001
      -1.9653269460284947e-001 1.8448555253238447e-001
      1.8760098726260896e-001 2.1351904801765206e-001
      -1.8480664359282190e-001 2.4864990925714617e-001
      2.2563783084043859e-001 -2.0329893226790147e-001
      -1.7800894274709528e-001 1.3170966564256917e-001
      2.1210530128934671e-001 2.0487937689119565e-001
      1.6932505145823937e-001 -9.1390987973696216e+000
      -1.9357905013271828e-001 -1.5228697830890292e-001
      2.2443291698203238e-001 -1.7175014250605403e-001
      -1.8127854095146462e-001 -2.0286767591637250e-001
      -1.9246332780760564e-001 -2.1192505285343080e-001
      -2.1158014571988551e-001 1.8537306878405052e-001
      1.8082180952957033e-001 -2.0204932978676479e-001
      1.8895151485731104e-001 1.8092247509936613e-001
      2.1319974550811019e-001 -1.7952266362143976e-001
      2.5748564206455893e-001 2.2002596867801794e-001
      -2.0384714223549033e-001 -1.7274782620086765e-001
      1.2160667367354963e-001 2.0262335147382127e-001
      2.0719244397177441e-001 1.6060240126593675e-001
      -9.1416478941822099e+000 -1.8391484953271883e-001
      -1.6349633371425631e-001 2.2184840433310871e-001
      -1.7981891292209778e-001 -1.8871927158575563e-001
      -2.0466142914333663e-001 -1.8393065757800595e-001
      -2.2599979259592487e-001 -2.2238846609163301e-001
      1.7656992503050534e-001 1.8354457076158504e-001
      -1.9334581306373391e-001 1.8512636075687755e-001
      1.8095457194313833e-001 2.0318527186357002e-001
      -1.8202800290044346e-001 2.4660819009781357e-001
      2.2813818030158151e-001 -1.9196257986634291e-001
      -1.8345161286954320e-001 1.3447162804298474e-001
      2.0989444666658572e-001 2.0285435197300114e-001
      1.6706767379918072e-001 -9.1392359193923625e+000
      -1.8575212634160362e-001 -1.5000220001792186e-001
      2.2399631598345543e-001 -1.6962912313938688e-001
      -1.8861728936410571e-001 -1.9566637978110452e-001
      -1.9316508232299637e-001 -2.2034742439343838e-001
      -2.1774025922224102e-001 1.7912052419582136e-001
      1.7890223428989749e-001 -1.9103526276041369e-001
      1.8990431139903735e-001 1.8153197340413982e-001
      2.1230334240194429e-001 -1.7370616780806836e-001
      2.4725780974844311e-001 2.2683479709207510e-001
      -1.9743301935248958e-001 -1.7099397502036834e-001
      1.3358427627832858e-001 2.1010982623049573e-001
      2.0976491629680485e-001 1.6097847319476336e-001
      -9.1382816771918591e+000 -1.8519724675720708e-001
      -1.5732229696381339e-001 2.2867439014587426e-001
      -1.8084036679651716e-001 -1.9493045995171571e-001
      -2.0230682862587412e-001 -1.8412004583924954e-001
      -2.2268613330147544e-001 -2.1594746191945532e-001
      1.7698532306629627e-001 1.7575612042245536e-001
      -1.9422025232804732e-001 1.9441912238204273e-001
      1.8124767158565355e-001 2.1551829774866685e-001
      -1.7815312641915682e-001 2.5796380351101483e-001
      2.2909669723998916e-001 -2.0798206458476037e-001
      -1.7324626585318953e-001 1.2401894731249950e-001
      2.0157668700274564e-001 2.1465757693347923e-001
      1.5885562660233374e-001 -9.1390120134753570e+000
      -1.7960889247015380e-001 -1.5323258845090842e-001
      2.2711176552259038e-001 -1.7208225294890767e-001
      -1.9012472900141747e-001 -1.9336850585275006e-001
      -1.9727355308945241e-001 -2.1120269108719056e-001
      -2.1818757493455451e-001 1.8856081931998786e-001
      1.8125728349052173e-001 -1.9253154569749617e-001
      1.9111082208708186e-001 1.8447871719503547e-001
      2.1356588181064376e-001 -1.8115218412640782e-001
      2.5939198632673438e-001 2.1634860189819677e-001
      -2.0092781536781945e-001 -1.8425762063669310e-001
      1.3503274282811478e-001 2.0632501042367249e-001
      2.0963642490799736e-001 1.6531795087065806e-001
      -9.1401988706484314e+000 -1.8486640655168737e-001
      -1.6229623476709631e-001 2.2604948394433755e-001
      -1.7494590681127847e-001 -1.8688435105887191e-001
      -2.0212170791998840e-001 -1.9806188126740551e-001
      -2.1913052997804636e-001 -2.1064785682125800e-001
      1.8765955373632465e-001 1.7928256479793536e-001
      -1.9523051465010979e-001 1.8573102615482179e-001
      1.8778885630345907e-001 2.1213516025306647e-001
      -1.7606965607125707e-001 2.5639599739282298e-001
      2.2871517671301589e-001 -2.0609563087235777e-001
      -1.7731837640475023e-001 1.2528148538980621e-001
      2.0181026767522101e-001 2.0218876950009587e-001
      1.6706305641773614e-001 -9.1325215728018421e+000
      -1.8805777210995797e-001 -1.5030835902211009e-001
      2.2928093633410862e-001 -1.7260907579084250e-001
      -1.8348475027262912e-001 -1.9397946730140309e-001
      -1.9195633042775864e-001 -2.2368656142338975e-001
      -2.1883073856693433e-001 1.8687063576569513e-001
      1.8412788123838775e-001 -1.9137119066022676e-001
      1.8496011846218996e-001 1.9248925813803749e-001
      2.0582732828427056e-001 -1.6992010765227655e-001
      2.5272837034945106e-001 2.2795530939151598e-001
      -2.0097088843183913e-001 -1.8281388916025615e-001
      1.2988424077828867e-001 2.0857806724992473e-001
      2.0537823441206851e-001 1.5738580389954718e-001
      -9.1292533203435458e+000 -1.8529025719069556e-001
      -1.5494122258438381e-001 2.3117397678221402e-001
      -1.7773693462950241e-001 -1.8580858085466129e-001
      -2.0399779531067386e-001 -1.8963785398687680e-001
      -2.1797289574485465e-001 -2.2468678275182277e-001
      1.7434220687855717e-001 1.7966097674848469e-001
      -2.0062019468984668e-001 1.9290820567864203e-001
      1.9062367762308000e-001 2.0521957932638538e-001
      -1.8153371742204027e-001 2.5790128909100046e-001
      2.1526018061502478e-001 -1.9225127758520066e-001
      -1.8303768086610495e-001 1.2177779071301933e-001
      2.0693090313636214e-001 2.0690795728199071e-001
      1.6922756994160157e-001 -9.1423215941493119e+000
      -1.8932323698565864e-001 -1.6315260459514608e-001
      2.2501097604470666e-001 -1.7950988039068161e-001
      -1.8030667593642935e-001 -2.0580062018972817e-001
      -1.9420819551297933e-001 -2.2697607158121161e-001
      -2.1873119962816664e-001 1.8195733794711055e-001
      1.8697010730525648e-001 -1.9059342685293332e-001
      1.9377537550335244e-001 1.8646878140421860e-001
      2.1226714154579648e-001 -1.7571912647460319e-001
      2.5039946914501904e-001 2.2377574596577127e-001
      -2.0147179691630684e-001 -1.7529083100099946e-001
      1.3111665352535026e-001 2.0994777435973172e-001
      2.0848863372981760e-001 1.5917581978340176e-001
      -9.1434970363046251e+000 -1.9186274966438752e-001
      -1.6270495079057240e-001 2.3331460487985434e-001
      -1.7983029025604358e-001 -1.8718610436904320e-001
      -2.0328647028863589e-001 -1.9773827508853822e-001
      -2.2159027273069051e-001 -2.2452148161682609e-001
      1.7988641980161041e-001 1.7676719894602905e-001
      -2.0472709139864440e-001 1.8567995579132318e-001
      1.8374007215754998e-001 2.1358588192295555e-001
      -1.7842402565454679e-001 2.5789636480411116e-001
      2.1990538362254280e-001 -2.0479095925004609e-001
      -1.7814272002810905e-001 1.3518899967051362e-001
      2.0223939444849912e-001 2.0908038148376026e-001
      1.5948928973666207e-001 -9.1396569865363997e+000
      -1.8203443997927740e-001 -1.5229436245390765e-001
      2.3450227063786827e-001 -1.7059603276593394e-001
      -1.8269088816990753e-001 -2.0153940557833383e-001
      -1.9693736882558352e-001 -2.1434105361286768e-001
      -2.1566790163040103e-001 1.8670611528335579e-001
      1.7665514155870082e-001 -1.9097614093440182e-001
      1.8381796952871132e-001 1.9373684700038671e-001
      2.0961241523450488e-001 -1.7458341999796234e-001
      2.5628577302666727e-001 2.2404778065424791e-001
      -2.0774227814206231e-001 -1.8482352693588067e-001
      1.2935840188934314e-001 2.1041284642536823e-001
      2.1594079207514275e-001 1.6794120005062538e-001
      -9.1300996412149225e+000 -1.8002511398380625e-001
      -1.5748984119376791e-001 2.3253576550771793e-001
      -1.7308841238369438e-001 -1.8507796426210005e-001
      -2.0439823250521455e-001 -1.8320535416654390e-001
      -2.1916914963552322e-001 -2.1446025240297997e-001
      1.8191211058096429e-001 1.8208283331913949e-001
      -1.9183878667152379e-001 1.8318525809285641e-001
      1.8389713822736301e-001 2.0449086127133528e-001
      -1.8102020040300298e-001 2.4814252375241899e-001
      2.2760967227150902e-001 -2.0390960016875748e-001
      -1.8239410553942087e-001 1.3011193024440176e-001
      2.1544655021055215e-001 2.0252150092246754e-001
      1.6319020401138637e-001 -9.1313179145625387e+000
      -1.8313459890916603e-001 -1.5480139049460639e-001
      2.3248915725736446e-001 -1.7304525052890218e-001
      -1.9232566894207109e-001 -1.9529625780920096e-001
      -1.9076026526173170e-001 -2.1843328752335098e-001
      -2.1959816660729284e-001 1.7441854817232649e-001
      1.8576746651734904e-001 -1.9409166881939696e-001
      1.8515977432560710e-001 1.9495495525497644e-001
      2.0641620301118443e-001 -1.7718160468796096e-001
      2.5147862776864238e-001 2.2834810460868737e-001
      -2.0169073844951968e-001 -1.7445268723704122e-001
      1.3596454069818520e-001 2.0992030815308235e-001
      2.0149966992103066e-001 1.6464332265302220e-001
      -9.1379209294741610e+000 -1.8961827914992777e-001
      -1.5326663976611593e-001 2.2823961009801014e-001
      -1.6944156883064709e-001 -1.9154807769392596e-001
      -2.0259020574026354e-001 -1.8485415339371522e-001
      -2.1823208941732061e-001 -2.1526676976706324e-001
      1.8020921107820137e-001 1.8673768838275667e-001
      -1.9087444217711583e-001 1.8516055448153590e-001
      1.9084931589809581e-001 2.1302218581150631e-001
      -1.8349314835550662e-001 2.6001372373373549e-001
      2.2354701601779325e-001 -1.9706629851030943e-001
      -1.8057121238371765e-001 1.3312359262675247e-001
      2.0393008572009330e-001 2.1617482988259826e-001
      1.6427353035162320e-001 -9.1373017109150219e+000
      -1.8286564528447349e-001 -1.5757942000345565e-001
      2.2462200555439799e-001 -1.7870260429222140e-001
      -1.8902557526385810e-001 -1.9968726334617981e-001
      -1.8918680114721878e-001 -2.2147342202761597e-001
      -2.1974183496285202e-001 1.7884352483585098e-001
      1.8839511688655564e-001 -1.9113358223337210e-001
      1.8117727620733509e-001 1.8943848323756121e-001
      2.1025592737421558e-001 -1.7800948622066998e-001
      2.5441115291931499e-001 2.3035966184765899e-001
      -1.9190248614722105e-001 -1.8150994195131265e-001
      1.3502015474658458e-001 2.1326856325658458e-001
      2.1642385367290287e-001 1.5990691170487339e-001
      -9.1386708936300707e+000 -1.9358775820155447e-001
      -1.6150593991468071e-001 2.3173426014908205e-001
      -1.7016327884095678e-001 -1.8514965418511076e-001
      -1.9682496646459485e-001 -1.9067613344717213e-001
      -2.1731153048049293e-001 -2.2444460588040258e-001
      1.7909767554042677e-001 1.7790144811210895e-001
      -2.0099186150656725e-001 1.9498593801495062e-001
      1.9011651528039239e-001 2.1383013302189988e-001
      -1.7681099471273071e-001 2.4645266331832252e-001
      2.2759374507709329e-001 -2.0154343084640325e-001
      -1.7921520112891581e-001 1.3350159606809542e-001
      2.0953201954070685e-001 2.0934726321753425e-001
      1.7014009017720219e-001 -9.1404713783503464e+000
      -1.8512733418664837e-001 -1.6084947650606701e-001
      2.2194884438500462e-001 -1.6912085350596018e-001
      -1.8586892227171237e-001 -2.0000860594681874e-001
      -1.8598406429738559e-001 -2.1154521008862112e-001
      -2.2175443994895025e-001 1.7598539118854473e-001
      1.7546070342452019e-001 -1.9726332964345603e-001
      1.9077230590331457e-001 1.8218347437833424e-001
      2.0761440323623079e-001 -1.7945705305613185e-001
      2.4815733220439326e-001 2.2518774493491078e-001
      -1.9465977678686130e-001 -1.7184894642920689e-001
      1.2726411609234839e-001 2.0551436856210217e-001
      2.0472866613763471e-001 1.5768721988341941e-001
      -9.1384490179233140e+000 -1.8444238479543032e-001
      -1.5776428454215657e-001 2.2134328587114399e-001
      -1.7006121648487504e-001 -1.9603868555741238e-001
      -2.0867375864856280e-001 -1.8681417447004969e-001
      -2.1960458761398230e-001 -2.1354995536789537e-001
      1.8352084528503249e-001 1.8028152692398319e-001
      -1.9390048806827329e-001 1.8407382112113146e-001
      1.8347339951908584e-001 2.0407144646160760e-001
      -1.8124172012267892e-001 2.5390796580472358e-001
      2.1639728644411071e-001 -1.9726922909556616e-001
      -1.7283416370029531e-001 1.3206287516370255e-001
      2.1394677372868701e-001 2.0293215291029801e-001
      1.6537807836061882e-001 -9.1431745416584747e+000
      -1.7991886080894745e-001 -1.5294115024223837e-001
      2.2207546701282105e-001 -1.7030146229505549e-001
      -1.8184005996376956e-001 -1.9716681771447697e-001
      -1.9391270228689542e-001 -2.1284135102307164e-001
      -2.1872795363587480e-001 1.7709928384137719e-001
      1.7579134647972111e-001 -1.9636966597050817e-001
      1.9482913511096489e-001 1.8125009454251653e-001
      2.1243214843343558e-001 -1.7114613379871352e-001
      2.5077907746700062e-001 2.2964028119626467e-001
      -1.9721706603717865e-001 -1.7789891454566187e-001
      1.3555684281656977e-001 2.0838057137236637e-001
      2.1300186325426509e-001 1.5731050900249452e-001
      -9.1337197421041250e+000 -1.8610811770205885e-001
      -1.5168793022205590e-001 2.3287192434336690e-001
      -1.6792317015605046e-001 -1.8966816589180080e-001
      -2.0393053273324807e-001 -1.8553834740361638e-001
      -2.2321991978478153e-001 -2.1351492554461191e-001
      1.8887296964631295e-001 1.8066621651796327e-001
      -1.9583026499320941e-001 1.8806001122339805e-001
      1.8956072537537086e-001 2.1363631568381661e-001
      -1.7099726204036059e-001 2.5088057819315396e-001
      2.1929659741185675e-001 -1.9419336918307428e-001
      -1.7129131850699447e-001 1.3244075432843869e-001
      2.1449303208305792e-001 2.1301047247979957e-001
      1.6350237327969472e-001 -9.1323011621949064e+000
      -1.8107945229197916e-001 -1.6049414493228087e-001
      2.3187051985357982e-001 -1.7572024762327831e-001
      -1.9094820546905977e-001 -1.9593391280246608e-001
      -1.8749642126880681e-001 -2.2093448510045596e-001
      -2.1724830901026745e-001 1.8305224272273912e-001
      1.7998934131661631e-001 -2.0022285819637789e-001
      1.8635513897073935e-001 1.8863678624328981e-001
      2.1552563849628495e-001 -1.7099913845497222e-001
      2.6097820131867255e-001 2.1757408516423243e-001
      -2.0170356416774471e-001 -1.8355462592933430e-001
      1.2154199179426506e-001 2.1324065815625609e-001
      2.0929380349291268e-001 1.6882265984862879e-001
      -9.1329557981459164e+000 -1.9396555174169897e-001
      -1.5088180319519956e-001 2.2865622100429039e-001
      -1.8120377303556290e-001 -1.8250197978746802e-001
      -1.9851770807631136e-001 -1.9209351063990368e-001
      -2.1567060416947728e-001 -2.1719741224777769e-001
      1.7640912284829791e-001 1.8464892550828976e-001
      -1.9423286797276748e-001 1.8429117024715724e-001
      1.9004772959815427e-001 2.0179900245170765e-001
      -1.8089831746573126e-001 2.5979729856980138e-001
      2.2990823538585081e-001 -2.0177236234924473e-001
      -1.7020816696813351e-001 1.2899746897081171e-001
      2.1486908907521005e-001 2.0310655711385381e-001
      1.5955860616122522e-001 -9.1419484335322387e+000
      -1.9304620628513711e-001 -1.5918693399426354e-001
      2.2705636425956288e-001 -1.7950974794138874e-001
      -1.8276192164051652e-001 -1.9985148755910598e-001
      -1.8374339372118190e-001 -2.2115341463163637e-001
      -2.1483770821684231e-001 1.8884601520667044e-001
      1.8572270254882167e-001 -2.0285933673001846e-001
      1.8954627694422482e-001 1.8784965930094419e-001
      2.0273838339888164e-001 -1.8008648473623656e-001
      2.4885519448592544e-001 2.2133219815733751e-001
      -2.0542072528214039e-001 -1.7118713728064139e-001
      1.2688578726306043e-001 2.1148013784429706e-001
      2.0897271221510241e-001 1.6127701494587873e-001
      -9.1292748532028583e+000 -1.8136842917839061e-001
      -1.5269002725244857e-001 2.2449207727190584e-001
      -1.7762342867870784e-001 -1.9436894206396643e-001
      -2.0348958656582489e-001 -1.8504263807647750e-001
      -2.1174617894446615e-001 -2.2368032761166426e-001
      1.7831156371582640e-001 1.7963214197473282e-001
      -1.9191494639838255e-001 1.8981119812545960e-001
      1.8549205146964667e-001 2.1358560066687696e-001
      -1.7177532019009600e-001 2.6146350681375358e-001
      2.2703380548816049e-001 -1.9704999490400144e-001
      -1.8534821581598598e-001 1.3597775149404917e-001
      2.1100885657025911e-001 2.0989185618016279e-001
      1.6234625373915265e-001 -9.1364947912634698e+000
      -1.9024549985070990e-001 -1.5199903791437303e-001
      2.2978221121720488e-001 -1.8072931633553274e-001
      -1.9498542423300702e-001 -2.0247415441888450e-001
      -1.8649253708570399e-001 -2.1135675834678722e-001
      -2.0893697335652636e-001 1.8422272097064796e-001
      1.7671850072176726e-001 -1.9835224942965954e-001
      1.8407332794386377e-001 1.8348782868637317e-001
      2.0136485551957586e-001 -1.8155944740344176e-001
      2.5608753625683228e-001 2.2397183481797012e-001
      -2.0738541114912129e-001 -1.7692778534833198e-001
      1.2675876099677277e-001 2.0229034108829774e-001
      2.1651393855527021e-001 1.6983238185059016e-001
      -9.1409705426672012e+000 -1.8886319690562967e-001
      -1.4917972394949730e-001 2.2768830334755091e-001
      -1.7522649079383662e-001 -1.8460701718699102e-001
      -2.0183054667312322e-001 -1.8981695570213639e-001
      -2.2232498215442062e-001 -2.2454119519533974e-001
      1.8483530108827978e-001 1.8114371965360593e-001
      -2.0536656705434139e-001 1.8535950092224585e-001
      1.9293365801164628e-001 2.0731972127391071e-001
      -1.7270253046917849e-001 2.4869293807648127e-001
      2.2397789900928966e-001 -1.9577756657755507e-001
      -1.7698647782401183e-001 1.2860326971861294e-001
      2.0203927979659070e-001 2.0247605376135033e-001
      1.6208001779866513e-001 -9.1418034820732093e+000
      -1.8970662422291987e-001 -1.5524391114210129e-001
      2.2505032974671546e-001 -1.7608558493271231e-001
      -1.9119186207545996e-001 -2.0114049229589143e-001
      -1.9766352461821132e-001 -2.1972528850061770e-001
      -2.1243191641532286e-001 1.8908236905877879e-001
      1.8394401031476387e-001 -2.0009168558007137e-001
      1.8876437623685127e-001 1.8537144951043358e-001
      2.0526636524463390e-001 -1.7585864303522830e-001
      2.6063781477990050e-001 2.2696467243966573e-001
      -2.0238175802266839e-001 -1.8249438666656781e-001
      1.3306476868895209e-001 2.0789033317001079e-001
      2.1097294020654975e-001 1.5939241375545912e-001
      -9.1401312513879684e+000 -1.8442284360104802e-001
      -1.6197107909120612e-001 2.2396474843150932e-001
      -1.7441811928659956e-001 -1.8023415465786652e-001
      -1.9507651252364899e-001 -1.9280021523159815e-001
      -2.2616005338786235e-001 -2.1257716934367923e-001
      1.8494775346198006e-001 1.7897839242694941e-001
      -1.9367026286350555e-001 1.9169375178844911e-001
      1.8795018436987052e-001 2.0503314183843577e-001
      -1.7681872668458759e-001 2.5306527236296117e-001
      2.2475669023215006e-001 -1.9737787214100261e-001
      -1.7573694723854044e-001 1.2420178814667208e-001
      2.0445888347957913e-001 2.1481771245294104e-001
      1.6650622701788523e-001 -9.1357377812110876e+000
      -1.9326921598604388e-001 -1.5620049446504330e-001
      2.2307234560875938e-001 -1.8188893166841819e-001
      -1.8218237689146993e-001 -1.9868831131589310e-001
      -1.9566961444704714e-001 -2.2380942597830492e-001
      -2.1787547801841581e-001 1.7456325737917222e-001
      1.8880670258523297e-001 -1.9708396481999055e-001
      1.8386905205738702e-001 1.9343105224757787e-001
      2.1140913682980086e-001 -1.7128700769115446e-001
      2.5077924992877842e-001 2.2117460858155813e-001
      -1.9523297430242131e-001 -1.7935581459718741e-001
      1.2876014022704727e-001 2.1463040742518172e-001
      2.0240493937856444e-001 1.5833993928096948e-001
      -9.1352423560642535e+000 -1.8781699830735618e-001
      -1.5536327132281036e-001 2.3046762582922581e-001
      -1.8015166057348903e-001 -1.8348957502869206e-001
      -2.0705754415613309e-001 -1.9374234957074712e-001
      -2.2179652628970734e-001 -2.2060581029245760e-001
      1.7982417963938102e-001 1.8200909527876302e-001
      -2.0348132238156394e-001 1.8060069830214659e-001
      1.8467656371852006e-001 2.0882314880546196e-001
      -1.7658130566168595e-001 2.5060903324886502e-001
      2.2388265225413317e-001 -1.9219168827324529e-001
      -1.8002898248460275e-001 1.2669472403864696e-001
      2.1317863952551486e-001 2.0404081270084204e-001
      1.6776725624950586e-001 -9.1403904915066967e+000
      -1.9259204727361015e-001 -1.5478683002999788e-001
      2.3141914308815920e-001 -1.7046110733725761e-001
      -1.8658709693933334e-001 -2.0379796809224970e-001
      -1.9101998940387319e-001 -2.1302829258483377e-001
      -2.2420077419585213e-001 1.7764115004564313e-001
      1.8647011270939362e-001 -2.0400340843497863e-001
      1.8113481294434847e-001 1.8718949785770592e-001
      2.0242791991565237e-001 -1.8507029629408595e-001
      2.6226911561640903e-001 2.2891767570303750e-001
      -1.9751988569791268e-001 -1.8275715129192532e-001
      1.3458486606547065e-001 2.0334352512835710e-001
      2.0982715047791009e-001 1.6568290409619571e-001
      -9.1314874041920877e+000 -1.8942177967681875e-001
      -1.5146280202560486e-001 2.2131256468351718e-001
      -1.7199290820014768e-001 -1.8440566788449347e-001
      -2.0390505961005573e-001 -1.9825251256867879e-001
      -2.2141924883029759e-001 -2.1918479878923822e-001
      1.8526032848392077e-001 1.8676422227723982e-001
      -1.9945387815194235e-001 1.8438837241528272e-001
      1.9296068114662282e-001 2.0537200932607244e-001
      -1.8115186604645600e-001 2.5303542165001369e-001
      2.1707019327555399e-001 -2.0695620614443438e-001
      -1.7291603345047368e-001 1.2506492518910431e-001
      2.0529903548791464e-001 2.0365815015006453e-001
      1.6895588227619499e-001 -9.1423592635686095e+000
      -1.8251178445002050e-001 -1.5298304179540267e-001
      2.2435056391081448e-001 -1.7610664920818708e-001
      -1.8375421421392490e-001 -1.9490604427008335e-001
      -1.9248505337099511e-001 -2.2243422196835452e-001
      -2.1893877454916941e-001 1.8217613385467474e-001
      1.7543422251278112e-001 -1.9406139094287220e-001
      1.8881220862618997e-001 1.9114180148699919e-001
      2.1294534230120812e-001 -1.8292456900876758e-001
      2.6046255345922864e-001 2.2657895116256405e-001
      -1.9525947031145452e-001 -1.7206072011800905e-001
      1.2290836370136322e-001 2.1286943867020458e-001
      2.0775897124227924e-001 1.7103710058774760e-001
      -9.1426084319426426e+000 -1.8122731826899754e-001
      -1.5243303353727139e-001 2.2033575872232081e-001
      -1.8057915596121255e-001 -1.9499160680925065e-001
      -2.0591181913105439e-001 -1.9343951361525050e-001
      -2.1353072141741633e-001 -2.1645314780787386e-001
      1.7644070969449449e-001 1.8111723987650802e-001
      -2.0044193768920229e-001 1.9396730166201581e-001
      1.8400661106037444e-001 2.1083038772091203e-001
      -1.7679381816277973e-001 2.5424340490882635e-001
      2.2004757907557615e-001 -1.9908501783207561e-001
      -1.8464730925155970e-001 1.3088728447607764e-001
      2.1442308920756795e-001 2.0738180366864020e-001
      1.5777813717784064e-001 -9.1377938665733467e+000
      -1.8104474363485598e-001 -1.5547683504851911e-001
      2.2978995428401267e-001 -1.7953845087824910e-001
      -1.8355342709320704e-001 -2.0088286714082132e-001
      -1.8796407428744741e-001 -2.1145289125793451e-001
      -2.1980727793394370e-001 1.8489105251650112e-001
      1.8688720738308789e-001 -2.0344863483147699e-001
      1.8592822608611165e-001 1.8817754581666699e-001
      2.0978186737784763e-001 -1.7635993541400902e-001
      2.5532523860732359e-001 2.2658333468681296e-001
      -2.0040184140215350e-001 -1.8402365576810548e-001
      1.2894917285085367e-001 2.1460725853903820e-001
      2.0685209428737192e-001 1.6644895566214998e-001
      -9.1408680132314348e+000 -1.8512022832716798e-001
      -1.5883653614862175e-001 2.3236643325732659e-001
      -1.8371995111276718e-001 -1.9227693653843558e-001
      -1.9434812140736057e-001 -1.9872522632856141e-001
      -2.2055677616832584e-001 -2.0859885216446053e-001
      1.7430377044917678e-001 1.8364492830081114e-001
      -1.9189593269652430e-001 1.7981635178823135e-001
      1.9628661232675812e-001 2.1570171690821052e-001
      -1.8042293331602355e-001 2.5898628165864629e-001
      2.2202181237839330e-001 -1.9937701287520465e-001
      -1.7819687920002147e-001 1.2494227292886564e-001
      2.1575012346976558e-001 2.1388514921845794e-001
      1.6844773128343746e-001 -9.1420130633889514e+000
      -1.8751532087603431e-001 -1.6383787742647621e-001
      2.3248216776783093e-001 -1.7675794517787963e-001
      -1.8123463841804205e-001 -2.0716475130995049e-001
      -1.8873671353175933e-001 -2.2125029614307087e-001
      -2.0989460159231185e-001 1.8779865772104787e-001
      1.7878636310820101e-001 -1.9692222824012048e-001
      1.8739988981034794e-001 1.8750427067498462e-001
      2.0901670464675423e-001 -1.8486318692675624e-001
      2.4842351305277074e-001 2.1736326493335595e-001
      -2.0518209941399607e-001 -1.7861997955805348e-001
      1.3048338038807647e-001 2.0223012355767847e-001
      2.1220992190051827e-001 1.6970749420281758e-001
      -9.1336169420357916e+000 -1.8315202196483962e-001
      -1.5922923140347095e-001 2.2981535857763374e-001
      -1.7951746941849400e-001 -1.8464942515220673e-001
      -2.0462972431705384e-001 -1.9229508794205621e-001
      -2.2280359269964642e-001 -2.1233211256220000e-001
      1.7914328091042470e-001 1.7958916147964771e-001
      -1.9544988476674710e-001 1.9160746099880410e-001
      1.8279398215203593e-001 2.0531931565919501e-001
      -1.7817364571881256e-001 2.5544412478171646e-001
      2.2366277401898155e-001 -2.0451853633417721e-001
      -1.7294830378770176e-001 1.3436766613564466e-001
      2.0368733045664497e-001 2.0212464102844327e-001
      1.5734148306077947e-001 -9.1290957543407725e+000
      -1.9258772025428264e-001 -1.6400807644432763e-001
      2.2983988498916119e-001 -1.7708867572960185e-001
      -1.8570417684096097e-001 -1.9782226292919775e-001
      -1.8954193933728500e-001 -2.2047855093461496e-001
      -2.2029132667817744e-001 1.8660189055041604e-001
      1.8761197277049846e-001 -2.0168822728777028e-001
      1.9092727184274338e-001 1.8452940056991426e-001
      2.1456613561737217e-001 -1.8394246409674270e-001
      2.4675926038045662e-001 2.2634852410372558e-001
      -1.9776551448121799e-001 -1.7275191694230468e-001
      1.2985073669226285e-001 2.1052825114729476e-001
      2.0389998545861801e-001 1.6991462666785259e-001
      -9.1350107359572377e+000 -1.8486168813191670e-001
      -1.6057298389677416e-001 2.2484450040626214e-001
      -1.8237915042054215e-001 -1.9168764507869557e-001
      -2.0255228992138669e-001 -1.8302649325180551e-001
      -2.1233340078853566e-001 -2.1037090290806612e-001
      1.8596560360121583e-001 1.7684105021896351e-001
      -2.0532404521283762e-001 1.8285818079215149e-001
      1.8489444902830512e-001 2.0212418898158754e-001
      -1.7444675980991797e-001 2.5569497497519039e-001
      2.2914919250746490e-001 -2.0197265690289484e-001
      -1.7652777128058378e-001 1.3133493963797024e-001
      2.0869687687232180e-001 2.0845940897985746e-001
      1.6472345004759673e-001 -9.1399397914979712e+000
      -1.8387878020074430e-001 -1.5896943060689678e-001
      2.3466868003718189e-001 -1.8336898302344373e-001
      -1.8703180009444736e-001 -2.0074447890547592e-001
      -1.9178057431681986e-001 -2.2462682033722611e-001
      -2.1425376503213486e-001 1.8436612309304978e-001
      1.8763095432557797e-001 -1.9901029179671012e-001
      1.8680614734854700e-001 1.8983270153086382e-001
      2.0194380118101826e-001 -1.7937459384234639e-001
      2.5188347853564469e-001 2.2111047630696951e-001
      -1.9717477472122458e-001 -1.7487997118860132e-001
      1.2278349451711988e-001 2.0386103609424783e-001
      2.1356046573826312e-001 1.6838090852961765e-001
      -9.1394636897044066e+000 -1.8751691582190463e-001
      -1.6184120315359679e-001 2.2617970464254100e-001
      -1.7976581759456167e-001 -1.8402884118552582e-001
      -1.9805992582847542e-001 -1.8382633976324089e-001
      -2.2083209495388009e-001 -2.1373663516223770e-001
      1.7808255987816413e-001 1.7815291592454841e-001
      -1.9878471754438812e-001 1.9350197263742752e-001
      1.8589373492632336e-001 2.0636509775611014e-001
      -1.7342062669240083e-001 2.5807130248514304e-001
      2.1617581005924158e-001 -1.9348920199296071e-001
      -1.7708770035237131e-001 1.3273564272375313e-001
      2.0915678539989602e-001 2.0855029355769336e-001
      1.6360857257562236e-001 -9.1362288809473977e+000
      -1.8159438485802434e-001 -1.5134054818875081e-001
      2.2127378812427678e-001 -1.7141240733683560e-001
      -1.8496652175898637e-001 -1.9978807477556282e-001
      -1.9830851759501597e-001 -2.1413156879373954e-001
      -2.1901604666794713e-001 1.7618821856106021e-001
      1.8219863559015786e-001 -1.9721311914321035e-001
      1.8726039758176943e-001 1.8362757544227390e-001
      2.0176287621758995e-001 -1.7134427792108969e-001
      2.4810348454203887e-001 2.1907153857157197e-001
      -2.0005000187346994e-001 -1.8070486471047476e-001
      1.3065002738970691e-001 2.1535075521948693e-001
      2.1181251400758419e-001 1.5885873242600126e-001
      -9.1325126090007043e+000 -1.8179038527801547e-001
      -1.6014947649880545e-001 2.2300409592273263e-001
      -1.6794799278549527e-001 -1.8988782913197777e-001
      -2.0866006222447825e-001 -1.9009571872955291e-001
      -2.1959584061586720e-001 -2.1200198233710696e-001
      1.7619146943612146e-001 1.7661062160158131e-001
      -2.0322296041069274e-001 1.9449790909446035e-001
      1.8871953604091310e-001 2.0232741093306525e-001
      -1.8369703180192398e-001 2.5810125863238009e-001
      2.1781563523388797e-001 -2.0418071700821627e-001
      -1.8160862101000708e-001 1.3475848075691410e-001
      2.0355647377463834e-001 2.1096674755710917e-001
      1.7073940578393190e-001 -9.1421384531308441e+000
      -1.8444170200920521e-001 -1.6374747569242792e-001
      2.2549540106048488e-001 -1.8087079963107661e-001
      -1.8257066340930289e-001 -1.9542798838525299e-001
      -1.9002817071839959e-001 -2.1320930231555354e-001
      -2.2327944682903403e-001 1.7770633058844570e-001
      1.7788284101106588e-001 -1.9916050421337503e-001
      1.9397298278389041e-001 1.8677900497870822e-001
      2.0579524112817929e-001 -1.8017475970743402e-001
      2.5352993371075705e-001 2.1719286424667089e-001
      -2.0091282014934558e-001 -1.7004315896469313e-001
      1.2351942670660475e-001 2.1618609800837046e-001
      2.0642340203548490e-001 1.6465069968355325e-001
      -9.1422290074030048e+000 -1.9147778204252111e-001
      -1.5142417123421925e-001 2.3496405344215993e-001
      -1.7184219529203881e-001 -1.8117903169447847e-001
      -2.0145539212534780e-001 -1.9085331156108606e-001
      -2.2681815160555616e-001 -2.1703255334519597e-001
      1.7724873985809392e-001 1.8420779858028991e-001
      -1.9443864219335236e-001 1.9101725156582572e-001
      1.8983029433066803e-001 2.0817995251173591e-001
      -1.7264833700944848e-001 2.5358607496090679e-001
      2.2612994083682175e-001 -1.9633592131661132e-001
      -1.7059621889028820e-001 1.3595231625011744e-001
      2.0426942950347435e-001 2.0147488354883933e-001
      1.6119216653569077e-001 -9.1393326723713244e+000
      -1.8382906244471434e-001 -1.5099412207965957e-001
      2.3421000813816401e-001 -1.8285423987930954e-001
      -1.8217434449173819e-001 -2.0811662010247312e-001
      -1.8368031925135672e-001 -2.1312130524998649e-001
      -2.2124623629109055e-001 1.8685332385841180e-001
      1.7646622906159626e-001 -1.9116074552716636e-001
      1.8303283050792585e-001 1.8454692572546752e-001
      2.1491542808277406e-001 -1.7983751862928959e-001
      2.4917013356915793e-001 2.1564718563268975e-001
      -1.9240534765934020e-001 -1.7279520929206249e-001
      1.2420451274772908e-001 2.0382719075061484e-001
      2.0758543346442168e-001 1.6156491361337497e-001
      -9.1353566152851382e+000 -1.8501845012796600e-001
      -1.5606996641614729e-001 2.3172748535717480e-001
      -1.7299469128815359e-001 -1.8031124453746139e-001
      -2.0120485722551140e-001 -1.9911053430333511e-001
      -2.2478949186170147e-001 -2.1138336425216406e-001
      1.7533841448142107e-001 1.8076446203488555e-001
      -1.9867120351803311e-001 1.9008628764181024e-001
      1.9160243510356054e-001 2.1402471667819670e-001
      -1.8117826015031807e-001 2.4884276490944404e-001
      2.1585378056559035e-001 -2.0021328598767268e-001
      -1.7548575388304510e-001 1.3053722193112724e-001
      2.1067052769465996e-001 2.1087867814584951e-001
      1.5755226530222530e-001 -9.1373740007413478e+000
      -1.8659261784573530e-001 -1.5023523411009543e-001
      2.2638578084320143e-001 -1.8361138866965515e-001
      -1.8458764336095429e-001 -1.9795548525125550e-001
      -1.9568288820832877e-001 -2.2166622228611307e-001
      -2.1014967060481990e-001 1.7740139117749465e-001
      1.8804278376363953e-001 -2.0129353065714470e-001
      1.8846088395108401e-001 1.8229489533063001e-001
      2.0981619172319230e-001 -1.8480193918176741e-001
      2.6071179470313322e-001 2.2589418214011975e-001
      -1.9502151542848339e-001 -1.7876364837754710e-001
      1.2557670223995429e-001 2.1449068741172736e-001
      2.0683016152989539e-001 1.6200774546753707e-001
      -9.1430499861113770e+000 -1.8786427164008832e-001
      -1.5479356286974494e-001 2.3147411970717086e-001
      -1.7109673837330486e-001 -1.8842561702797839e-001
      -2.0595465616502506e-001 -1.8730860945580821e-001
      -2.1662984351948070e-001 -2.2203617383417021e-001
      1.7432559326678776e-001 1.8598535273372441e-001
      -2.0177417924357835e-001 1.9441600414211085e-001
      1.8339650230421881e-001 2.1227939434996432e-001
      -1.6964060536279674e-001 2.6153623059393327e-001
      2.1938814586903121e-001 -1.9768984932052952e-001
      -1.7668386006021913e-001 1.2463674301255022e-001
      2.1375700629570671e-001 2.0648985439654424e-001
      1.6540600222857235e-001 -9.1352269999587765e+000
      -1.8890360838729262e-001 -1.5531200520702337e-001
      2.2335259612745645e-001 -1.8084506075821893e-001
      -1.9385954005085287e-001 -1.9758464266025555e-001
      -1.9293344071497306e-001 -2.2306023872866479e-001
      -2.1755846434162554e-001 1.8582896883887318e-001
      1.8645839813540349e-001 -2.0468194270502579e-001
      1.8106243526716320e-001 1.9579519180944435e-001
      2.1524684348685322e-001 -1.7178175703308546e-001
      2.6068116875196190e-001 2.2831076753349971e-001
      -2.0176279003478054e-001 -1.8431199730310482e-001
      1.3531542892976378e-001 2.0186355598215561e-001
      2.0828588201627010e-001 1.6999476628765078e-001
      -9.1385177495744916e+000 -1.7968813576110740e-001
      -1.6328219928920829e-001 2.3243429376020064e-001
      -1.7865045370566335e-001 -1.8158099005032408e-001
      -2.0570246592306340e-001 -1.9031950958655094e-001
      -2.1621624643327828e-001 -2.1718150439069464e-001
      1.7617184832471111e-001 1.8962360539384376e-001
      -1.9229925927809058e-001 1.9493786348219827e-001
      1.8610647917677189e-001 2.0394156241626901e-001
      -1.8362337350606278e-001 2.6241822539705062e-001
      2.1682765913784996e-001 -2.0408388613709605e-001
      -1.7843156849631986e-001 1.3210377966536660e-001
      2.0192659498235119e-001 2.1200322288951531e-001
      1.5919956950477013e-001 -9.1391847558436421e+000
      -1.8595362134135859e-001 -1.5854812276553432e-001
      2.2723156297228481e-001 -1.6832498486278302e-001
      -1.9561936498122129e-001 -2.0289647623859569e-001
      -1.9624198628114439e-001 -2.2374021933984031e-001
      -2.1114127167421656e-001 1.8762851771477590e-001
      1.8521557473532491e-001 -1.9145541006308089e-001
      1.8560880018298542e-001 1.8976474734163265e-001
      2.1154817053863537e-001 -1.8170770038682021e-001
      2.4834189672663773e-001 2.1740901401194274e-001
      -1.9209759703099266e-001 -1.7130673731949353e-001
      1.2953823995738695e-001 2.0815521076035093e-001
      2.0478013463340564e-001 1.6020309721518924e-001
      -9.1296654504899397e+000 -1.8209324526477014e-001
      -1.5722657345120167e-001 2.3348806850216125e-001
      -1.7889344032155469e-001 -1.9236927696290645e-001
      -2.0835046790092965e-001 -1.9685014654659475e-001
      -2.2655759218800123e-001 -2.1561851609793695e-001
      1.7875083917150192e-001 1.8548112504052883e-001
      -2.0102692321491730e-001 1.9416468972639800e-001
      1.9086676632132196e-001 2.0462610649955029e-001
      -1.7922192802356063e-001 2.6150409413183873e-001
      2.2053391846237147e-001 -1.9204145977917692e-001
      -1.7377881119110122e-001 1.2671313594943870e-001
      2.0354010882389195e-001 2.1255935723891159e-001
      1.5926879498488880e-001 -9.1434605195085208e+000
      -1.8420749712838316e-001 -1.5868233828782413e-001
      2.2850455935030034e-001 -1.6837033445037425e-001
      -1.8769213019023606e-001 -1.9450282978261346e-001
      -1.9201718117157560e-001 -2.2036617097273989e-001
      -2.1144834721494063e-001 1.8672098838073548e-001
      1.7754035632649712e-001 -2.0569170227490699e-001
      1.9003283664194293e-001 1.8781567409881048e-001
      2.0981372753974600e-001 -1.8274078367361091e-001
      2.5761126694263958e-001 2.2080637335645770e-001
      -1.9761825643228520e-001 -1.7305496566573864e-001
      1.2721678717936574e-001 2.1102154344221066e-001
      2.1525346487799160e-001 1.6975331440586430e-001
      -9.1404406749327052e+000 -1.8295254550655435e-001
      -1.5766159555326037e-001 2.2477890927134803e-001
      -1.7994707609547878e-001 -1.8021167147171024e-001
      -2.0841695141196420e-001 -1.8646918533033061e-001
      -2.2010925905542997e-001 -2.1200285181706888e-001
      1.8703870588590715e-001 1.8431789228225959e-001
      -1.9278326274642923e-001 1.8843131496445326e-001
      1.8554894311571732e-001 2.1356594106797080e-001
      -1.8150631563519232e-001 2.4961168319899477e-001
      2.2764659418473510e-001 -1.9275563203100959e-001
      -1.7236574052942466e-001 1.3116047093597880e-001
      2.0501321868850497e-001 2.1128344074672353e-001
      1.7153452118692211e-001 -9.1315724588606173e+000
      -1.9282483670163222e-001 -1.5464739651228193e-001
      2.3278489773541683e-001 -1.7898960669678138e-001
      -1.8799383500862754e-001 -2.0692954248402534e-001
      -1.9885996594523606e-001 -2.2390210521371604e-001
      -2.1348924272208405e-001 1.7864056663318950e-001
      1.7604734168114933e-001 -1.9640909420656730e-001
      1.8437713465380201e-001 1.8149080793001407e-001
      2.0928467987651747e-001 -1.7903043668505808e-001
      2.5354091096496256e-001 2.1825468257541070e-001
      -1.9176692452533683e-001 -1.8176050028631685e-001
      1.3382703308205868e-001 2.1082611271318374e-001
      2.1485213144645135e-001 1.6084563838547997e-001
      -9.1377588406549499e+000 -1.8848872579609680e-001
      -1.6298803735699097e-001 2.2572225227460724e-001
      -1.7671478377117783e-001 -1.8452078843465897e-001
      -1.9698437916181993e-001 -1.9143498751048313e-001
      -2.2024554919654052e-001 -2.1584467434713187e-001
      1.8214212979550143e-001 1.8338388236643699e-001
      -2.0305036404500257e-001 1.8724390550451808e-001
      1.9587475981310906e-001 2.0357639786393525e-001
      -1.8283836509974288e-001 2.5334010184824651e-001
      2.1668643745867927e-001 -1.9736550833778937e-001
      -1.7730063870267043e-001 1.2700203420383016e-001
      2.0571030411247707e-001 2.1666319106455620e-001
      1.6700573788980846e-001 -9.1313184615790668e+000
      -1.8133840293926548e-001 -1.6321162944448003e-001
      2.2302086068788135e-001 -1.6860165359708962e-001
      -1.8568061030576144e-001 -1.9841885920141511e-001
      -1.9575655999028777e-001 -2.1425612861676244e-001
      -2.1225340237142540e-001 1.8310016406696289e-001
      1.8139025590795882e-001 -1.9213230303314041e-001
      1.9226437783123668e-001 1.8457906815593858e-001
      2.0413085537794110e-001 -1.7103066320292692e-001
      2.4848412845138859e-001 2.3035476805402016e-001
      -1.9684665098345550e-001 -1.7452305081548364e-001
      1.3350512173840023e-001 2.1311738853810011e-001
      2.1516899177884194e-001 1.6869360891907334e-001
      -9.1374288766268723e+000 -1.9462555464430600e-001
      -1.5148576286880139e-001 2.2692720155538609e-001
      -1.7767210367960995e-001 -1.8840839186922348e-001
      -2.0617445137639057e-001 -1.8376119744818900e-001
      -2.2652717980580625e-001 -2.2063444967895243e-001
      1.7562473086818559e-001 1.7827819802723277e-001
      -2.0452162944965938e-001 1.9487524019405839e-001
      1.9589586430324804e-001 2.0519108553197404e-001
      -1.7822037847904082e-001 2.5521214845582330e-001
      2.1814391832839802e-001 -1.9803988533851657e-001
      -1.7511358642471170e-001 1.3227715263677028e-001
      2.0548826242155951e-001 2.0456503694074560e-001
      1.6937727468058697e-001 -9.1424224842467154e+000
      -1.8198355155181681e-001 -1.5931983384438847e-001
      2.2375657776711783e-001 -1.7469984478319056e-001
      -1.8911360160858709e-001 -1.9583451609049340e-001
      -1.9189414806606800e-001 -2.1601636742223126e-001
      -2.1411037943442121e-001 1.8626516062491849e-001
      1.8638560376507962e-001 -2.0204416149250495e-001
      1.8228420322911604e-001 1.8902595478591325e-001
      2.0730005940364096e-001 -1.7702812051090810e-001
      2.5575254844131645e-001 2.1701717835001316e-001
      -2.0748734401885904e-001 -1.7450439407818713e-001
      1.3071235461803796e-001 2.1515746740120886e-001
      2.0359296517833705e-001 1.7134285987782130e-001
      -9.1371544049687170e+000 -1.8952584587631141e-001
      -1.5287825257613930e-001 2.2939822686846612e-001
      -1.7110903848747699e-001 -1.9503230067866739e-001
      -2.0680267550873338e-001 -1.8810081563224393e-001
      -2.2296943742607225e-001 -2.1366779441421549e-001
      1.7778523674854507e-001 1.7871350013157650e-001
      -1.9059284326247669e-001 1.8171318404576026e-001
      1.8411572363567005e-001 2.1353542696756042e-001
      -1.8479359405151841e-001 2.6156285099993581e-001
      2.1982196316514485e-001 -2.0280042237222906e-001
      -1.8407013936731137e-001 1.3172760462475044e-001
      2.1477800139021824e-001 2.0275413836098724e-001
      1.6845001169832488e-001 -9.1401473806345770e+000
      -1.8074502559685360e-001 -1.6383166609525834e-001
      2.2254609179263707e-001 -1.8152642849767481e-001
      -1.8588472951997126e-001 -1.9485778898125605e-001
      -1.9896341883868887e-001 -2.1852414409751389e-001
      -2.1313338022143827e-001 1.7876017334742395e-001
      1.7879447949733063e-001 -2.0123926626705987e-001
      1.8060008174213121e-001 1.9180685431246144e-001
      2.0353968827142152e-001 -1.7262289388009877e-001
      2.4969669696816874e-001 2.2822002399772462e-001
      -1.9786150125239166e-001 -1.7471017920452747e-001
      1.3030033456349752e-001 2.0331728155361570e-001
      2.0975451770798673e-001 1.6006273401498652e-001
      -9.1351514873631530e+000 -1.8896845444876084e-001
      -1.5176455889107615e-001 2.3017859735649498e-001
      -1.7486090327746040e-001 -1.8927488125108144e-001
      -2.0270861018167613e-001 -1.8490609279673229e-001
      -2.1110224347309106e-001 -2.1222130133572611e-001
      1.8062089651513713e-001 1.7965517382622964e-001
      -2.0107268891081384e-001 1.9319271869307802e-001
      1.8651626680674774e-001 2.1245765718139512e-001
      -1.7925043823090925e-001 2.6013625835132065e-001
      2.2839518463128894e-001 -2.0054812355463841e-001
      -1.8213042240397453e-001 1.2683275259571947e-001
      2.0355430640087346e-001 2.1163762572071806e-001
      1.5865025815751618e-001 -9.1410220210586530e+000
      -1.8690340088668092e-001 -1.6189958902226703e-001
      2.3149042271085907e-001 -1.8369821935941727e-001
      -1.9329502344637450e-001 -2.0562872135807642e-001
      -1.9796946066743346e-001 -2.2528823100801229e-001
      -2.1561266675051508e-001 1.7825236057258104e-001
      1.8587565579517895e-001 -2.0253363726406806e-001
      1.9544295005366946e-001 1.8067295662402330e-001
      2.1269634441734089e-001 -1.8295834797149657e-001
      2.6178937631080740e-001 2.2776254793328427e-001
      -1.9192087587665524e-001 -1.8246829785270302e-001
      1.2852414402743886e-001 2.0768165826763718e-001
      2.1681088200209450e-001 1.6166939776044201e-001
      -9.1391525184820068e+000 -1.9296397954810104e-001
      -1.6365163586116127e-001 2.2118115462834403e-001
      -1.7732939670580816e-001 -1.8064142261590965e-001
      -2.0606751926652128e-001 -1.9611353346564850e-001
      -2.2389646510640468e-001 -2.1100760720472786e-001
      1.8194806886271137e-001 1.8666868927318947e-001
      -1.9425428492590038e-001 1.9372131401496689e-001
      1.9158095166864050e-001 2.1401221288522806e-001
      -1.8119613334868229e-001 2.5186345166145357e-001
      2.2109542665346976e-001 -2.0352437122630690e-001
      -1.8000466644715613e-001 1.2288217841345957e-001
      2.1618285593021089e-001 2.0772173739139851e-001
      1.7158669881662589e-001 -9.1309612017113544e+000
      -1.9476028559547617e-001 -1.5979505609033007e-001
      2.2630551741478117e-001 -1.6922595612078695e-001
      -1.8572317987470810e-001 -1.9594583110108527e-001
      -1.8728270987449966e-001 -2.1699441047811494e-001
      -2.2196728379057787e-001 1.7753075230358556e-001
      1.8256251354707415e-001 -2.0066430131308818e-001
      1.8581731051119288e-001 1.8496822865466803e-001
      2.1284196634847466e-001 -1.6985761346437311e-001
      2.4684475728296670e-001 2.1590009955032108e-001
      -1.9498775815614477e-001 -1.7184672100304382e-001
      1.2994795791545574e-001 2.1317674827262692e-001
      2.1255762012633470e-001 1.6510647641533391e-001
      -9.1324284604516635e+000 -1.8895771034459666e-001
      -1.5496026488125891e-001 2.2396105268850408e-001
      -1.8118157985318867e-001 -1.8481608233020891e-001
      -1.9346773226913244e-001 -1.8487752766465729e-001
      -2.1840590758852765e-001 -2.1073974155223121e-001
      1.7955838227406268e-001 1.7950982435145396e-001
      -1.9424723275839048e-001 1.9296563809019729e-001
      1.9114452442678423e-001 2.0702284499227755e-001
      -1.7064882783281926e-001 2.4778538460517188e-001
      2.2887294932145763e-001 -1.9663688504728349e-001
      -1.7653422351196923e-001 1.2464573119591509e-001
      2.1475083889802710e-001 2.1340984228790336e-001
      1.5784945975289058e-001 -9.1430558728749602e+000
      -1.8936236661140229e-001 -1.5135597904180481e-001
      2.3173145118511096e-001 -1.7546918051216148e-001
      -1.8484983616086959e-001 -2.0781484823911761e-001
      -1.8262011479605791e-001 -2.2574954211801226e-001
      -2.2287242363050216e-001 1.8006583811977700e-001
      1.8210983042322720e-001 -2.0558966794368758e-001
      1.9157357828698435e-001 1.8679816560448328e-001
      2.0160931565610743e-001 -1.8066473938752153e-001
      2.5315361478324611e-001 2.2003273456169015e-001
      -2.0591857880213127e-001 -1.7393578891865652e-001
      1.3156369106132995e-001 2.1332507825088234e-001
      2.0838197379974985e-001 1.6063839363794599e-001
      -9.1417920030971960e+000 -1.9462855489056433e-001
      -1.5184366420885720e-001 2.3283621533871368e-001
      -1.7073072852908550e-001 -1.9441260563095492e-001
      -1.9411665269513811e-001 -1.9035099107959627e-001
      -2.1771565831051873e-001 -2.2408524479726658e-001
      1.8171204334046598e-001 1.8533127285831580e-001
      -1.9190987601056911e-001 1.9314849909122933e-001
      1.8872523786433518e-001 2.0477813607324222e-001
      -1.8431522816295515e-001 2.5900725458310758e-001
      2.2800350355176707e-001 -2.0293410593028072e-001
      -1.7669496719559569e-001 1.3031632101463139e-001
      2.1559348092388364e-001 2.1278567134981499e-001
      1.6153929782470069e-001 -9.1430412519634778e+000
      -1.8265457108597841e-001 -1.6062906255874371e-001
      2.2876567520330560e-001 -1.7354667303658300e-001
      -1.8844425277463922e-001 -1.9929938989396162e-001
      -1.9153645840475184e-001 -2.1862554376661644e-001
      -2.2018789202989789e-001 1.7983850050805861e-001
      1.8317951276697653e-001 -1.9476485021554021e-001
      1.8339231366241038e-001 1.9099783581372801e-001
      2.1366623630054535e-001 -1.7970582552507852e-001
      2.6200507593301969e-001 2.1652889118249413e-001
      -1.9456435845710823e-001 -1.7471444942609721e-001
      1.2384724454764152e-001 2.1231631440105500e-001
      2.1141478816476719e-001 1.6831010885522643e-001
      -9.1413089128606035e+000 -1.8805396976400754e-001
      -1.5974486617463735e-001 2.3279514181323219e-001
      -1.7211092162984859e-001 -1.8618747865910890e-001
      -1.9330136167848350e-001 -1.9649203519461819e-001
      -2.1708140123317102e-001 -2.0872191966884771e-001
      1.7629639400848474e-001 1.8772718905328084e-001
      -2.0365925319575010e-001 1.9102908031413768e-001
      1.8188622730252138e-001 2.0207278801153636e-001
      -1.7942386331224486e-001 2.5865755591299761e-001
      2.1720490024878908e-001 -1.9177244984464559e-001
      -1.7366441189425696e-001 1.2972676764429469e-001
      2.1138140666422184e-001 2.1607213902177400e-001
      1.6990725563402984e-001 -9.1328260217568147e+000
      -1.8846137667071997e-001 -1.6403903619477905e-001
      2.2075952573295898e-001 -1.7793438406824480e-001
      -1.8180081319037639e-001 -2.0509012687210415e-001
      -1.8790872150186430e-001 -2.1709857523783874e-001
      -2.0875874672960046e-001 1.8925866629617644e-001
      1.8174731840612912e-001 -1.9331737295020499e-001
      1.8652499473516621e-001 1.8245430123495279e-001
      2.0694984350957255e-001 -1.8420503680813360e-001
      2.5646631150259225e-001 2.2811166416762030e-001
      -2.0139863254837442e-001 -1.8208565633334844e-001
      1.3223688355778310e-001 2.1136349616395492e-001
      2.1064918267823482e-001 1.6031859300522369e-001
      -9.1298012345194461e+000 -1.8825633213014539e-001
      -1.5082362766027790e-001 2.2721727053492563e-001
      -1.7188283849566788e-001 -1.9546871876967770e-001
      -1.9803606449850863e-001 -1.9589558724348552e-001
      -2.1246714743175601e-001 -2.0979755207944070e-001
      1.7595267128989778e-001 1.8647058237101477e-001
      -1.9429379479845518e-001 1.8652526583109702e-001
      1.9620499767152158e-001 2.1304926835460722e-001
      -1.7550998365728615e-001 2.4946162833647736e-001
      2.2214481306921219e-001 -1.9781540015089921e-001
      -1.7998389585899904e-001 1.2651078555374731e-001
      2.0816417217762453e-001 2.1086301960521395e-001
      1.6445256663817284e-001 -9.1319891220378064e+000
      -1.9009578566767785e-001 -1.5854497195135958e-001
      2.2835962831258649e-001 -1.7833834439854851e-001
      -1.8896128852957839e-001 -2.0086701054066669e-001
      -1.9030444641176872e-001 -2.2016419032931814e-001
      -2.2192982420094551e-001 1.7418119759645911e-001
      1.7802983051403082e-001 -1.9331036428626239e-001
      1.9530998657510995e-001 1.8053867200998278e-001
      2.1006560896123036e-001 -1.7377171061469893e-001
      2.5076888555239663e-001 2.2575476436038616e-001
      -1.9596955546223199e-001 -1.7347307488065827e-001
      1.3011926404221943e-001 2.1057128433253280e-001
      2.1061947189675553e-001 1.5724150447102023e-001
      -9.1289401730194815e+000 -1.8130302207100726e-001
      -1.6365971731235707e-001 2.3319321075400862e-001
      -1.8341860442003061e-001 -1.9365642434966168e-001
      -2.0227168685531893e-001 -1.9151264426238854e-001
      -2.1998398519771642e-001 -2.2080031837385275e-001
      1.8566140398089287e-001 1.7722491152872932e-001
      -1.9048673787654810e-001 1.8225803592278317e-001
      1.8778272497601187e-001 2.0895670468117425e-001
      -1.8189814339135296e-001 2.5535423964336174e-001
      2.2286687939734456e-001 -1.9513362601014972e-001
      -1.7304225769327208e-001 1.3484356693171162e-001
      2.0846911897482170e-001 2.1112623867509270e-001
      1.6922501421849120e-001 -9.1389229274021524e+000
      -1.8166594492061197e-001 -1.5886988833966253e-001
      2.2326453903837695e-001 -1.8360791695495843e-001
      -1.9539378621461112e-001 -2.0584528573617750e-001
      -1.8856377517851966e-001 -2.2429014960520025e-001
      -2.2163881202563371e-001 1.8470055597550411e-001
      1.7954369373560702e-001 -1.9662044706635581e-001
      1.8974945123179127e-001 1.8457617930281925e-001
      2.1194921496597838e-001 -1.8342072411645832e-001
      2.5927424088620593e-001 2.3049162112058913e-001
      -2.0326501631466531e-001 -1.7632783376196737e-001
      1.2270480519407324e-001 2.0712291858065041e-001
      2.0397993218168572e-001 1.5751408315020896e-001
      -9.1376132643754691e+000 -1.8365516884138747e-001
      -1.5924040578515897e-001 2.2094334192115589e-001
      -1.7729314363511806e-001 -1.9431414499979865e-001
      -2.0140039953344996e-001 -1.8772836368834381e-001
      -2.2539887216550811e-001 -2.1473060574658312e-001
      1.8844463853718213e-001 1.8799507328502874e-001
      -1.9648590206538477e-001 1.8028005102881095e-001
      1.8406534174119973e-001 2.1511063981259917e-001
      -1.7824372308112624e-001 2.6107777516842046e-001
      2.1881954396286979e-001 -2.0162856590121514e-001
      -1.7476775648352133e-001 1.3645555413180227e-001
      2.0569959242336716e-001 2.0817949281214124e-001
      1.6352381904566163e-001 -9.1294889691628160e+000
      -1.8079305066684329e-001 -1.5781829328720148e-001
      2.2416203811506880e-001 -1.8000977428448950e-001
      -1.8809398061527038e-001 -2.0375714334770506e-001
      -1.9103158723155070e-001 -2.1613760746172897e-001
      -2.2396599874926446e-001 1.8602022655440920e-001
      1.8605775093253085e-001 -2.0473317397575633e-001
      1.8772015558563754e-001 1.9101554009935032e-001
      2.1326794977493144e-001 -1.7464427327297083e-001
      2.4744824917839034e-001 2.2138282421552608e-001
      -2.0482803577479941e-001 -1.7923994038418184e-001
      1.2437346855570629e-001 2.0795215876187143e-001
      2.0718844585670096e-001 1.5882935626709813e-001
      -9.1372453751416387e+000 -1.8882682565091838e-001
      -1.5779572571692307e-001 2.2169560044129932e-001
      -1.7771749328126724e-001 -1.8798635380054751e-001
      -2.0339579959915116e-001 -1.9600265443271384e-001
      -2.2412710913965669e-001 -2.2251908938438938e-001
      1.8915100305168814e-001 1.7946296572882892e-001
      -2.0032311718852350e-001 1.8108231261259178e-001
      1.8156078701700726e-001 2.0950589681932993e-001
      -1.7171027377667575e-001 2.4973279292153902e-001
      2.2052589736236322e-001 -2.0031172480266035e-001
      -1.8483804509203600e-001 1.2924307862250881e-001
      2.1583299184286903e-001 2.0751623050796422e-001
      1.6840474576745876e-001 -9.1397742039938379e+000
      -1.8699654764278109e-001 -1.4992675451575188e-001
      2.3019597724770891e-001 -1.7994705354347779e-001
      -1.8087369733012132e-001 -2.0701076841070870e-001
      -1.9398021674769864e-001 -2.2174272290263994e-001
      -2.1482026301952176e-001 1.8136891040631065e-001
      1.8844523819302689e-001 -1.9277354495179547e-001
      1.9295560569621911e-001 1.8342131798183905e-001
      2.0379483879290136e-001 -1.8249456823008092e-001
      2.4957291199329992e-001 2.2030438086486526e-001
      -1.9845129831899594e-001 -1.8342521084489943e-001
      1.2239883579637020e-001 2.1351538482234572e-001
      2.0299986151049706e-001 1.7071099197448916e-001
      -9.1419010816003876e+000 -1.7949273932992818e-001
      -1.6085359418466999e-001 2.2060539365542536e-001
      -1.7692239465059678e-001 -1.8755183843274664e-001
      -2.0565959095860475e-001 -1.9231928668009554e-001
      -2.1482056067830937e-001 -2.1217783149535843e-001
      1.8215558991481168e-001 1.7775428098323692e-001
      -1.9591821472020884e-001 1.9277737935574907e-001
      1.9514278318975306e-001 2.0598745705389679e-001
      -1.8030668018436674e-001 2.5102736493633104e-001
      2.1814256463483617e-001 -2.0575054082567323e-001
      -1.8033180587142406e-001 1.3196484013240514e-001
      2.1234532800965719e-001 2.1203856379111599e-001
      1.6729333193291127e-001 -9.1435959231468473e+000
      -1.8548168900651577e-001 -1.5751082080437012e-001
      2.2351539203146920e-001 -1.7510302928677229e-001
      -1.8851466032048247e-001 -2.0642987182500694e-001
      -1.8843539986263605e-001 -2.2291046765014097e-001
      -2.2070337928219588e-001 1.8427895038710779e-001
      1.8704168887237232e-001 -1.9151982290315325e-001
      1.9149775273541725e-001 1.8598638322841124e-001
      2.0381560764040099e-001 -1.8308672699973710e-001
      2.4800350103383353e-001 2.1507485395127179e-001
      -2.0172740412465601e-001 -1.8512967927008694e-001
      1.3052289462534497e-001 2.1499859040447386e-001
      2.0741176322869190e-001 1.6512454520495759e-001
      -9.1311363639198291e+000 -1.8027752292685537e-001
      -1.5640342640913252e-001 2.2565552194747734e-001
      -1.7523228560771253e-001 -1.9021353777840605e-001
      -1.9457680730697646e-001 -1.9071151138174500e-001
      -2.1866321409658304e-001 -2.1780188552536331e-001
      1.7653199683015214e-001 1.8691340564964920e-001
      -2.0468819603132907e-001 1.8704203241126138e-001
      1.9490130090253457e-001 2.0375467342150486e-001
      -1.8201543387302810e-001 2.5084073934136086e-001
      2.2354562675080591e-001 -1.9353862788033610e-001
      -1.6993932501053954e-001 1.3382601791368903e-001
      2.0531243844526903e-001 2.1129490655048630e-001
      1.6680509557704928e-001 -9.1331808616674799e+000
      -1.7943246427228651e-001 -1.4895325332913478e-001
      2.3166910057146617e-001 -1.8324971646387017e-001
      -1.8632050735738703e-001 -2.0725480090364851e-001
      -1.9920494340377856e-001 -2.2600592023203189e-001
      -2.1261384615156467e-001 1.8715593351909571e-001
      1.8478266199048976e-001 -2.0150793658001317e-001
      1.8726461245973741e-001 1.9230817451453899e-001
      2.1483887246556346e-001 -1.7105838332620982e-001
      2.5372806097736339e-001 2.1633668828832481e-001
      -1.9617783747864254e-001 -1.7652519355837071e-001
      1.2759977416374788e-001 2.1276670325327302e-001
      2.1190705870553636e-001 1.6126379922083575e-001
      -9.1388087405686864e+000 -1.8244994215626634e-001
      -1.5026531529608106e-001 2.3130359117105742e-001
      -1.8289000310583065e-001 -1.9167697929870953e-001
      -1.9892117826379413e-001 -1.8680528942512600e-001
      -2.1194928402352634e-001 -2.2315132931372597e-001
      1.8750159865783905e-001 1.9031589060857079e-001
      -1.9899682190647419e-001 1.8035017074024967e-001
      1.8069044209521959e-001 2.1268386873456954e-001
      -1.7173632459595212e-001 2.5694885102637144e-001
      2.2798624020528119e-001 -2.0138153565059064e-001
      -1.8012622910173004e-001 1.2651789161346064e-001
      2.0877464775089133e-001 2.0792684213801213e-001
      1.6780603726264057e-001 -9.1306871559847096e+000
      -1.8117317530043828e-001 -1.5273693591346471e-001
      2.2715042902535432e-001 -1.7556913574588201e-001
      -1.8436615477325297e-001 -2.0816339518076654e-001
      -1.8876748376442129e-001 -2.2235705647413082e-001
      -2.1277393878627790e-001 1.8257870285794547e-001
      1.9034647824662354e-001 -1.9459455095188807e-001
      1.8067079677616149e-001 1.9194056241618054e-001
      2.0695400802858629e-001 -1.6990239646332611e-001
      2.5550382057246263e-001 2.1902643689883933e-001
      -2.0647492370123099e-001 -1.7306686409775440e-001
      1.2495143105689890e-001 2.1041113169762046e-001
      2.1397538583990774e-001 1.5874888124303879e-001
      -9.1367607789167185e+000 -1.8444336667815217e-001
      -1.5687360052373162e-001 2.3128934057268130e-001
      -1.6876113665852360e-001 -1.9133328828587115e-001
      -2.0444329825212365e-001 -1.9461149486705095e-001
      -2.2469022820053344e-001 -2.1964979990150010e-001
      1.8804653680318528e-001 1.7580199217296316e-001
      -1.9768367907696019e-001 1.9500099962771444e-001
      1.8402682243921828e-001 2.0218771491516516e-001
      -1.7581507853598866e-001 2.5396763863958699e-001
      2.1512535819606760e-001 -1.9910539725146492e-001
      -1.7640153802988190e-001 1.3126984475928652e-001
      2.0408400473788976e-001 2.1582388748832146e-001
      1.6923027824762585e-001 -9.1403321974979548e+000
      -1.7995887316598116e-001 -1.5257021149927624e-001
